<?xml version="1.0"?>
<opencv_storage>
<cascade>
  <stageType>BOOST</stageType>
  <featureType>HAAR</featureType>
  <height>24</height>
  <width>24</width>
  <stageParams>
    <boostType>GAB</boostType>
    <minHitRate>9.9500000476837158e-01</minHitRate>
    <maxFalseAlarm>5.0000000000000000e-01</maxFalseAlarm>
    <weightTrimRate>9.4999999999999996e-01</weightTrimRate>
    <maxDepth>1</maxDepth>
    <maxWeakCount>100</maxWeakCount></stageParams>
  <featureParams>
    <maxCatCount>0</maxCatCount>
    <featSize>1</featSize>
    <mode>BASIC</mode></featureParams>
  <stageNum>14</stageNum>
  <stages>
    <!-- stage 0 -->
    <_>
      <maxWeakCount>8</maxWeakCount>
      <stageThreshold>-1.5041642189025879e+00</stageThreshold>
      <weakClassifiers>
        <_>
          <internalNodes>
            0 -1 84 -3.6968678236007690e-02</internalNodes>
          <leafValues>
            6.0784316062927246e-01 -8.1310212612152100e-01</leafValues></_>
        <_>
          <internalNodes>
            0 -1 90 -1.4187642373144627e-02</internalNodes>
          <leafValues>
            7.8721261024475098e-01 -4.5554098486900330e-01</leafValues></_>
        <_>
          <internalNodes>
            0 -1 146 3.3484990708529949e-03</internalNodes>
          <leafValues>
            2.7064266800880432e-01 -8.0940854549407959e-01</leafValues></_>
        <_>
          <internalNodes>
            0 -1 140 -8.0108831753022969e-05</internalNodes>
          <leafValues>
            5.2453243732452393e-01 -3.7063068151473999e-01</leafValues></_>
        <_>
          <internalNodes>
            0 -1 140 8.2623773778323084e-05</internalNodes>
          <leafValues>
            -3.4520506858825684e-01 5.5646181106567383e-01</leafValues></_>
        <_>
          <internalNodes>
            0 -1 25 -6.1845099553465843e-03</internalNodes>
          <leafValues>
            -6.2532556056976318e-01 3.3816584944725037e-01</leafValues></_>
        <_>
          <internalNodes>
            0 -1 103 -3.3439680933952332e-02</internalNodes>
          <leafValues>
            8.3888632059097290e-01 -2.5763860344886780e-01</leafValues></_>
        <_>
          <internalNodes>
            0 -1 150 -1.8378586973994970e-03</internalNodes>
          <leafValues>
            -7.3267346620559692e-01 3.1403285264968872e-01</leafValues></_></weakClassifiers></_>
    <!-- stage 1 -->
    <_>
      <maxWeakCount>8</maxWeakCount>
      <stageThreshold>-1.9158208370208740e+00</stageThreshold>
      <weakClassifiers>
        <_>
          <internalNodes>
            0 -1 116 -3.3469535410404205e-02</internalNodes>
          <leafValues>
            6.1538463830947876e-01 -7.8154426813125610e-01</leafValues></_>
        <_>
          <internalNodes>
            0 -1 24 -8.5001032857690006e-05</internalNodes>
          <leafValues>
            2.8482475876808167e-01 -5.2338826656341553e-01</leafValues></_>
        <_>
          <internalNodes>
            0 -1 118 1.9747741520404816e-02</internalNodes>
          <leafValues>
            -2.6358231902122498e-01 6.3102006912231445e-01</leafValues></_>
        <_>
          <internalNodes>
            0 -1 110 4.9587618559598923e-03</internalNodes>
          <leafValues>
            1.9804254174232483e-01 -7.3357927799224854e-01</leafValues></_>
        <_>
          <internalNodes>
            0 -1 138 -8.7028158304747194e-05</internalNodes>
          <leafValues>
            4.7084668278694153e-01 -2.9401254653930664e-01</leafValues></_>
        <_>
          <internalNodes>
            0 -1 75 8.2835227658506483e-05</internalNodes>
          <leafValues>
            -3.1497928500175476e-01 4.5349249243736267e-01</leafValues></_>
        <_>
          <internalNodes>
            0 -1 3 6.8359188735485077e-02</internalNodes>
          <leafValues>
            -3.5051426291465759e-01 3.9511379599571228e-01</leafValues></_>
        <_>
          <internalNodes>
            0 -1 0 8.4634259110316634e-05</internalNodes>
          <leafValues>
            -3.5070163011550903e-01 4.1738232970237732e-01</leafValues></_></weakClassifiers></_>
    <!-- stage 2 -->
    <_>
      <maxWeakCount>9</maxWeakCount>
      <stageThreshold>-2.0890336036682129e+00</stageThreshold>
      <weakClassifiers>
        <_>
          <internalNodes>
            0 -1 86 -3.3514268696308136e-02</internalNodes>
          <leafValues>
            5.8441555500030518e-01 -7.7798682451248169e-01</leafValues></_>
        <_>
          <internalNodes>
            0 -1 71 -5.0334550440311432e-02</internalNodes>
          <leafValues>
            5.5204141139984131e-01 -4.3449005484580994e-01</leafValues></_>
        <_>
          <internalNodes>
            0 -1 124 1.7902964027598500e-03</internalNodes>
          <leafValues>
            2.0918662846088409e-01 -6.7405265569686890e-01</leafValues></_>
        <_>
          <internalNodes>
            0 -1 11 -2.9618144035339355e-03</internalNodes>
          <leafValues>
            -6.6835641860961914e-01 1.8187344074249268e-01</leafValues></_>
        <_>
          <internalNodes>
            0 -1 123 -9.3382108025252819e-04</internalNodes>
          <leafValues>
            -7.5567287206649780e-01 1.7472824454307556e-01</leafValues></_>
        <_>
          <internalNodes>
            0 -1 12 1.1636529816314578e-03</internalNodes>
          <leafValues>
            2.6156002283096313e-01 -5.2579170465469360e-01</leafValues></_>
        <_>
          <internalNodes>
            0 -1 92 2.5106227025389671e-02</internalNodes>
          <leafValues>
            -1.8459182977676392e-01 8.2183986902236938e-01</leafValues></_>
        <_>
          <internalNodes>
            0 -1 73 -1.7033698037266731e-02</internalNodes>
          <leafValues>
            7.8328168392181396e-01 -1.4457114040851593e-01</leafValues></_>
        <_>
          <internalNodes>
            0 -1 135 9.9713250529021025e-04</internalNodes>
          <leafValues>
            2.3628172278404236e-01 -5.8739024400711060e-01</leafValues></_></weakClassifiers></_>
    <!-- stage 3 -->
    <_>
      <maxWeakCount>11</maxWeakCount>
      <stageThreshold>-1.5704377889633179e+00</stageThreshold>
      <weakClassifiers>
        <_>
          <internalNodes>
            0 -1 59 -5.8194421231746674e-02</internalNodes>
          <leafValues>
            6.6666668653488159e-01 -7.6111114025115967e-01</leafValues></_>
        <_>
          <internalNodes>
            0 -1 91 -4.5358359813690186e-02</internalNodes>
          <leafValues>
            6.3225108385086060e-01 -3.8340744376182556e-01</leafValues></_>
        <_>
          <internalNodes>
            0 -1 104 1.4884309843182564e-02</internalNodes>
          <leafValues>
            -3.2499697804450989e-01 3.8716289401054382e-01</leafValues></_>
        <_>
          <internalNodes>
            0 -1 109 1.5383933205157518e-03</internalNodes>
          <leafValues>
            2.1717967092990875e-01 -5.9089082479476929e-01</leafValues></_>
        <_>
          <internalNodes>
            0 -1 20 4.0011417120695114e-02</internalNodes>
          <leafValues>
            -3.2834428548812866e-01 3.7642994523048401e-01</leafValues></_>
        <_>
          <internalNodes>
            0 -1 34 -8.0433592665940523e-04</internalNodes>
          <leafValues>
            -6.3812279701232910e-01 2.2706958651542664e-01</leafValues></_>
        <_>
          <internalNodes>
            0 -1 121 1.1745454976335168e-03</internalNodes>
          <leafValues>
            1.9605939090251923e-01 -5.5274534225463867e-01</leafValues></_>
        <_>
          <internalNodes>
            0 -1 99 -1.4502564445137978e-03</internalNodes>
          <leafValues>
            -5.5270630121231079e-01 2.3656216263771057e-01</leafValues></_>
        <_>
          <internalNodes>
            0 -1 129 -1.4026720309630036e-03</internalNodes>
          <leafValues>
            -5.8990597724914551e-01 1.7578981816768646e-01</leafValues></_>
        <_>
          <internalNodes>
            0 -1 16 -1.1277068551862612e-04</internalNodes>
          <leafValues>
            3.2732135057449341e-01 -3.2191410660743713e-01</leafValues></_>
        <_>
          <internalNodes>
            0 -1 144 -7.5802556239068508e-05</internalNodes>
          <leafValues>
            3.8172709941864014e-01 -2.6738089323043823e-01</leafValues></_></weakClassifiers></_>
    <!-- stage 4 -->
    <_>
      <maxWeakCount>11</maxWeakCount>
      <stageThreshold>-1.5704858303070068e+00</stageThreshold>
      <weakClassifiers>
        <_>
          <internalNodes>
            0 -1 116 -3.8348115980625153e-02</internalNodes>
          <leafValues>
            4.3999999761581421e-01 -7.6525819301605225e-01</leafValues></_>
        <_>
          <internalNodes>
            0 -1 79 -5.4190982133150101e-02</internalNodes>
          <leafValues>
            6.5231776237487793e-01 -3.4659770131111145e-01</leafValues></_>
        <_>
          <internalNodes>
            0 -1 95 -3.1841229647397995e-02</internalNodes>
          <leafValues>
            8.5572052001953125e-01 -1.6362702846527100e-01</leafValues></_>
        <_>
          <internalNodes>
            0 -1 132 -3.3182617276906967e-02</internalNodes>
          <leafValues>
            3.8682803511619568e-01 -2.6783156394958496e-01</leafValues></_>
        <_>
          <internalNodes>
            0 -1 139 -1.3711081119254231e-03</internalNodes>
          <leafValues>
            -4.9630874395370483e-01 2.2740174829959869e-01</leafValues></_>
        <_>
          <internalNodes>
            0 -1 145 2.2505759261548519e-03</internalNodes>
          <leafValues>
            2.8917574882507324e-01 -4.3971553444862366e-01</leafValues></_>
        <_>
          <internalNodes>
            0 -1 42 1.8438308034092188e-03</internalNodes>
          <leafValues>
            1.5210905671119690e-01 -6.6717278957366943e-01</leafValues></_>
        <_>
          <internalNodes>
            0 -1 51 1.4342054724693298e-02</internalNodes>
          <leafValues>
            -3.1015649437904358e-01 3.4905746579170227e-01</leafValues></_>
        <_>
          <internalNodes>
            0 -1 151 1.3753146631643176e-03</internalNodes>
          <leafValues>
            1.7273263633251190e-01 -6.3636350631713867e-01</leafValues></_>
        <_>
          <internalNodes>
            0 -1 102 2.1064169704914093e-02</internalNodes>
          <leafValues>
            -2.0510520040988922e-01 6.3032144308090210e-01</leafValues></_>
        <_>
          <internalNodes>
            0 -1 28 2.0186461508274078e-02</internalNodes>
          <leafValues>
            -2.8427797555923462e-01 4.8051777482032776e-01</leafValues></_></weakClassifiers></_>
    <!-- stage 5 -->
    <_>
      <maxWeakCount>12</maxWeakCount>
      <stageThreshold>-1.5362186431884766e+00</stageThreshold>
      <weakClassifiers>
        <_>
          <internalNodes>
            0 -1 83 -5.1512945443391800e-02</internalNodes>
          <leafValues>
            9.5652170479297638e-02 -7.7365851402282715e-01</leafValues></_>
        <_>
          <internalNodes>
            0 -1 105 -1.3646811246871948e-02</internalNodes>
          <leafValues>
            5.4062533378601074e-01 -3.6078393459320068e-01</leafValues></_>
        <_>
          <internalNodes>
            0 -1 44 -1.0548731079325080e-03</internalNodes>
          <leafValues>
            -6.7841720581054688e-01 1.4753265678882599e-01</leafValues></_>
        <_>
          <internalNodes>
            0 -1 120 1.7803333699703217e-02</internalNodes>
          <leafValues>
            -3.1832054257392883e-01 2.8851595520973206e-01</leafValues></_>
        <_>
          <internalNodes>
            0 -1 142 -2.3842609953135252e-03</internalNodes>
          <leafValues>
            -5.0999867916107178e-01 2.7511662244796753e-01</leafValues></_>
        <_>
          <internalNodes>
            0 -1 41 1.2143910862505436e-03</internalNodes>
          <leafValues>
            1.5547488629817963e-01 -6.2637341022491455e-01</leafValues></_>
        <_>
          <internalNodes>
            0 -1 81 1.4895089901983738e-02</internalNodes>
          <leafValues>
            -1.9540163874626160e-01 5.7244455814361572e-01</leafValues></_>
        <_>
          <internalNodes>
            0 -1 125 1.3327767141163349e-02</internalNodes>
          <leafValues>
            -2.6475369930267334e-01 4.1193825006484985e-01</leafValues></_>
        <_>
          <internalNodes>
            0 -1 130 -1.7064898274838924e-03</internalNodes>
          <leafValues>
            -5.8064419031143188e-01 1.8030126392841339e-01</leafValues></_>
        <_>
          <internalNodes>
            0 -1 93 2.3130204528570175e-02</internalNodes>
          <leafValues>
            -2.3842376470565796e-01 4.3264231085777283e-01</leafValues></_>
        <_>
          <internalNodes>
            0 -1 70 7.6059289276599884e-03</internalNodes>
          <leafValues>
            -2.4901513755321503e-01 4.5492714643478394e-01</leafValues></_>
        <_>
          <internalNodes>
            0 -1 131 2.5091103743761778e-03</internalNodes>
          <leafValues>
            2.2772082686424255e-01 -4.9542078375816345e-01</leafValues></_></weakClassifiers></_>
    <!-- stage 6 -->
    <_>
      <maxWeakCount>14</maxWeakCount>
      <stageThreshold>-1.6170639991760254e+00</stageThreshold>
      <weakClassifiers>
        <_>
          <internalNodes>
            0 -1 60 -5.0093021243810654e-02</internalNodes>
          <leafValues>
            9.3333333730697632e-02 -7.4084508419036865e-01</leafValues></_>
        <_>
          <internalNodes>
            0 -1 107 2.4522038176655769e-02</internalNodes>
          <leafValues>
            -5.4321622848510742e-01 8.5181795060634613e-02</leafValues></_>
        <_>
          <internalNodes>
            0 -1 39 1.4060041308403015e-01</internalNodes>
          <leafValues>
            8.4736801683902740e-02 -9.3205916881561279e-01</leafValues></_>
        <_>
          <internalNodes>
            0 -1 62 -1.2944272020831704e-03</internalNodes>
          <leafValues>
            -5.0223928689956665e-01 1.6052351891994476e-01</leafValues></_>
        <_>
          <internalNodes>
            0 -1 22 5.5153697030618787e-04</internalNodes>
          <leafValues>
            -4.3551325798034668e-01 1.7503720521926880e-01</leafValues></_>
        <_>
          <internalNodes>
            0 -1 8 -1.6726641915738583e-03</internalNodes>
          <leafValues>
            -5.3844845294952393e-01 1.7258022725582123e-01</leafValues></_>
        <_>
          <internalNodes>
            0 -1 126 4.4637501239776611e-02</internalNodes>
          <leafValues>
            -1.1841030418872833e-01 7.0245677232742310e-01</leafValues></_>
        <_>
          <internalNodes>
            0 -1 94 3.9567481726408005e-03</internalNodes>
          <leafValues>
            -1.5426816046237946e-01 5.0555074214935303e-01</leafValues></_>
        <_>
          <internalNodes>
            0 -1 69 9.6666729077696800e-03</internalNodes>
          <leafValues>
            -2.0563887059688568e-01 4.8800519108772278e-01</leafValues></_>
        <_>
          <internalNodes>
            0 -1 157 -1.2132332194596529e-03</internalNodes>
          <leafValues>
            -6.8686991930007935e-01 1.3681614398956299e-01</leafValues></_>
        <_>
          <internalNodes>
            0 -1 89 -6.2672991771250963e-04</internalNodes>
          <leafValues>
            2.7573445439338684e-01 -3.3134037256240845e-01</leafValues></_>
        <_>
          <internalNodes>
            0 -1 147 2.3241161834448576e-03</internalNodes>
          <leafValues>
            1.1585353314876556e-01 -7.1604353189468384e-01</leafValues></_>
        <_>
          <internalNodes>
            0 -1 45 8.7638816330581903e-04</internalNodes>
          <leafValues>
            1.7098830640316010e-01 -4.5604538917541504e-01</leafValues></_>
        <_>
          <internalNodes>
            0 -1 17 -6.6249724477529526e-04</internalNodes>
          <leafValues>
            -6.1126589775085449e-01 1.2288203090429306e-01</leafValues></_></weakClassifiers></_>
    <!-- stage 7 -->
    <_>
      <maxWeakCount>11</maxWeakCount>
      <stageThreshold>-1.7883399724960327e+00</stageThreshold>
      <weakClassifiers>
        <_>
          <internalNodes>
            0 -1 127 -1.8552254885435104e-02</internalNodes>
          <leafValues>
            1.8518517911434174e-01 -7.2928178310394287e-01</leafValues></_>
        <_>
          <internalNodes>
            0 -1 74 -5.6136953644454479e-03</internalNodes>
          <leafValues>
            4.0049761533737183e-01 -3.7885460257530212e-01</leafValues></_>
        <_>
          <internalNodes>
            0 -1 14 -8.2590413512662053e-05</internalNodes>
          <leafValues>
            3.6848428845405579e-01 -2.7755692601203918e-01</leafValues></_>
        <_>
          <internalNodes>
            0 -1 14 7.2552706114947796e-05</internalNodes>
          <leafValues>
            -2.6393139362335205e-01 3.9269080758094788e-01</leafValues></_>
        <_>
          <internalNodes>
            0 -1 29 9.8884105682373047e-04</internalNodes>
          <leafValues>
            1.8514037132263184e-01 -4.9295857548713684e-01</leafValues></_>
        <_>
          <internalNodes>
            0 -1 134 1.2038208078593016e-03</internalNodes>
          <leafValues>
            1.5734432637691498e-01 -6.4774012565612793e-01</leafValues></_>
        <_>
          <internalNodes>
            0 -1 72 1.1075407266616821e-02</internalNodes>
          <leafValues>
            -1.9156046211719513e-01 5.2036207914352417e-01</leafValues></_>
        <_>
          <internalNodes>
            0 -1 10 -7.5795641168951988e-04</internalNodes>
          <leafValues>
            3.6428013443946838e-01 -2.9831683635711670e-01</leafValues></_>
        <_>
          <internalNodes>
            0 -1 96 -2.0799431949853897e-03</internalNodes>
          <leafValues>
            3.9096108078956604e-01 -2.3710788786411285e-01</leafValues></_>
        <_>
          <internalNodes>
            0 -1 85 -5.3973309695720673e-02</internalNodes>
          <leafValues>
            5.9503901004791260e-01 -1.6090264916419983e-01</leafValues></_>
        <_>
          <internalNodes>
            0 -1 114 1.8775125965476036e-02</internalNodes>
          <leafValues>
            -2.4993433058261871e-01 4.2150300741195679e-01</leafValues></_></weakClassifiers></_>
    <!-- stage 8 -->
    <_>
      <maxWeakCount>13</maxWeakCount>
      <stageThreshold>-1.4704655408859253e+00</stageThreshold>
      <weakClassifiers>
        <_>
          <internalNodes>
            0 -1 38 9.7409365698695183e-03</internalNodes>
          <leafValues>
            -8.1088083982467651e-01 -4.2391303181648254e-01</leafValues></_>
        <_>
          <internalNodes>
            0 -1 148 1.0558378417044878e-03</internalNodes>
          <leafValues>
            -8.6797280237078667e-03 -5.7789206504821777e-01</leafValues></_>
        <_>
          <internalNodes>
            0 -1 153 1.1537637328729033e-03</internalNodes>
          <leafValues>
            8.4905646741390228e-02 -7.1759057044982910e-01</leafValues></_>
        <_>
          <internalNodes>
            0 -1 108 -1.2889825738966465e-03</internalNodes>
          <leafValues>
            4.1610851883888245e-01 -1.7815120518207550e-01</leafValues></_>
        <_>
          <internalNodes>
            0 -1 54 -1.2622547801584005e-03</internalNodes>
          <leafValues>
            -5.7502591609954834e-01 1.1342324316501617e-01</leafValues></_>
        <_>
          <internalNodes>
            0 -1 40 -3.1621105968952179e-02</internalNodes>
          <leafValues>
            5.1037424802780151e-01 -1.6364906728267670e-01</leafValues></_>
        <_>
          <internalNodes>
            0 -1 88 7.6428703032433987e-03</internalNodes>
          <leafValues>
            -2.0313343405723572e-01 4.4759243726730347e-01</leafValues></_>
        <_>
          <internalNodes>
            0 -1 58 -7.9401535913348198e-04</internalNodes>
          <leafValues>
            -6.2613236904144287e-01 1.4757801592350006e-01</leafValues></_>
        <_>
          <internalNodes>
            0 -1 9 2.8392637614160776e-03</internalNodes>
          <leafValues>
            1.7361289262771606e-01 -4.6588164567947388e-01</leafValues></_>
        <_>
          <internalNodes>
            0 -1 143 -1.0942637454718351e-03</internalNodes>
          <leafValues>
            -5.0771874189376831e-01 1.6004177927970886e-01</leafValues></_>
        <_>
          <internalNodes>
            0 -1 133 -1.0787141509354115e-03</internalNodes>
          <leafValues>
            3.3067491650581360e-01 -2.5273874402046204e-01</leafValues></_>
        <_>
          <internalNodes>
            0 -1 156 -1.0552932508289814e-03</internalNodes>
          <leafValues>
            -5.0243794918060303e-01 1.8214191496372223e-01</leafValues></_>
        <_>
          <internalNodes>
            0 -1 158 -2.8973789885640144e-03</internalNodes>
          <leafValues>
            -8.0852204561233521e-01 8.7560206651687622e-02</leafValues></_></weakClassifiers></_>
    <!-- stage 9 -->
    <_>
      <maxWeakCount>11</maxWeakCount>
      <stageThreshold>-1.5028780698776245e+00</stageThreshold>
      <weakClassifiers>
        <_>
          <internalNodes>
            0 -1 56 -4.3531574308872223e-02</internalNodes>
          <leafValues>
            -2.0888888835906982e-01 -8.0327868461608887e-01</leafValues></_>
        <_>
          <internalNodes>
            0 -1 55 2.3556325584650040e-02</internalNodes>
          <leafValues>
            -3.5057801008224487e-01 4.6438470482826233e-01</leafValues></_>
        <_>
          <internalNodes>
            0 -1 64 -2.6744483038783073e-02</internalNodes>
          <leafValues>
            4.0289825201034546e-01 -2.3742552101612091e-01</leafValues></_>
        <_>
          <internalNodes>
            0 -1 31 -1.0542419040575624e-03</internalNodes>
          <leafValues>
            -5.2247834205627441e-01 1.6670016944408417e-01</leafValues></_>
        <_>
          <internalNodes>
            0 -1 82 8.7221581488847733e-03</internalNodes>
          <leafValues>
            -1.7426265776157379e-01 4.5447936654090881e-01</leafValues></_>
        <_>
          <internalNodes>
            0 -1 6 -2.2860142588615417e-01</internalNodes>
          <leafValues>
            -1. 8.2276143133640289e-02</leafValues></_>
        <_>
          <internalNodes>
            0 -1 115 -4.3454822152853012e-03</internalNodes>
          <leafValues>
            5.6629729270935059e-01 -1.7429937422275543e-01</leafValues></_>
        <_>
          <internalNodes>
            0 -1 117 4.0696733631193638e-03</internalNodes>
          <leafValues>
            -3.0056646466255188e-01 2.6861095428466797e-01</leafValues></_>
        <_>
          <internalNodes>
            0 -1 149 -1.5459740534424782e-03</internalNodes>
          <leafValues>
            -5.3583592176437378e-01 1.5440410375595093e-01</leafValues></_>
        <_>
          <internalNodes>
            0 -1 19 1.4739084243774414e-01</internalNodes>
          <leafValues>
            7.4706353247165680e-02 -1.</leafValues></_>
        <_>
          <internalNodes>
            0 -1 13 1.7435131594538689e-03</internalNodes>
          <leafValues>
            1.2094387412071228e-01 -5.3423953056335449e-01</leafValues></_></weakClassifiers></_>
    <!-- stage 10 -->
    <_>
      <maxWeakCount>15</maxWeakCount>
      <stageThreshold>-1.6772654056549072e+00</stageThreshold>
      <weakClassifiers>
        <_>
          <internalNodes>
            0 -1 57 -4.7708451747894287e-02</internalNodes>
          <leafValues>
            -3.5761588811874390e-01 -8.0429595708847046e-01</leafValues></_>
        <_>
          <internalNodes>
            0 -1 36 1.5217229723930359e-02</internalNodes>
          <leafValues>
            -4.9345487356185913e-01 4.8417709767818451e-02</leafValues></_>
        <_>
          <internalNodes>
            0 -1 122 6.0953188221901655e-04</internalNodes>
          <leafValues>
            1.2703783810138702e-01 -4.6454393863677979e-01</leafValues></_>
        <_>
          <internalNodes>
            0 -1 63 -1.9264623988419771e-03</internalNodes>
          <leafValues>
            -5.0863760709762573e-01 1.5194064378738403e-01</leafValues></_>
        <_>
          <internalNodes>
            0 -1 84 1.2576943263411522e-02</internalNodes>
          <leafValues>
            -1.6317689418792725e-01 5.0082653760910034e-01</leafValues></_>
        <_>
          <internalNodes>
            0 -1 101 -8.5202939808368683e-03</internalNodes>
          <leafValues>
            4.5719882845878601e-01 -1.7965464293956757e-01</leafValues></_>
        <_>
          <internalNodes>
            0 -1 78 -2.2853296250104904e-03</internalNodes>
          <leafValues>
            -5.1029300689697266e-01 1.3155375421047211e-01</leafValues></_>
        <_>
          <internalNodes>
            0 -1 98 -3.9071261882781982e-02</internalNodes>
          <leafValues>
            4.3275627493858337e-01 -1.6687315702438354e-01</leafValues></_>
        <_>
          <internalNodes>
            0 -1 48 1.7276161815971136e-04</internalNodes>
          <leafValues>
            -1.9319862127304077e-01 3.4048616886138916e-01</leafValues></_>
        <_>
          <internalNodes>
            0 -1 15 9.2047121142968535e-04</internalNodes>
          <leafValues>
            -1.3378332555294037e-01 5.5328094959259033e-01</leafValues></_>
        <_>
          <internalNodes>
            0 -1 136 -7.0101628080010414e-04</internalNodes>
          <leafValues>
            -4.5045545697212219e-01 1.7671284079551697e-01</leafValues></_>
        <_>
          <internalNodes>
            0 -1 128 1.9387778593227267e-03</internalNodes>
          <leafValues>
            -2.5357869267463684e-01 2.9492282867431641e-01</leafValues></_>
        <_>
          <internalNodes>
            0 -1 21 -6.9788738619536161e-04</internalNodes>
          <leafValues>
            -5.2098935842514038e-01 1.4798167347908020e-01</leafValues></_>
        <_>
          <internalNodes>
            0 -1 52 1.3746809959411621e-01</internalNodes>
          <leafValues>
            7.7703028917312622e-02 -8.2237803936004639e-01</leafValues></_>
        <_>
          <internalNodes>
            0 -1 61 2.6859547942876816e-03</internalNodes>
          <leafValues>
            -3.6415657401084900e-01 2.1304394304752350e-01</leafValues></_></weakClassifiers></_>
    <!-- stage 11 -->
    <_>
      <maxWeakCount>15</maxWeakCount>
      <stageThreshold>-1.6142427921295166e+00</stageThreshold>
      <weakClassifiers>
        <_>
          <internalNodes>
            0 -1 106 -4.4917605817317963e-02</internalNodes>
          <leafValues>
            -6.0606062412261963e-02 -7.2439479827880859e-01</leafValues></_>
        <_>
          <internalNodes>
            0 -1 119 -1.8856119364500046e-02</internalNodes>
          <leafValues>
            4.2573970556259155e-01 -2.9134094715118408e-01</leafValues></_>
        <_>
          <internalNodes>
            0 -1 53 1.0181008838117123e-03</internalNodes>
          <leafValues>
            1.7771825194358826e-01 -4.0556505322456360e-01</leafValues></_>
        <_>
          <internalNodes>
            0 -1 155 1.4878141228109598e-03</internalNodes>
          <leafValues>
            1.0793387144804001e-01 -6.2582802772521973e-01</leafValues></_>
        <_>
          <internalNodes>
            0 -1 100 1.8098776927217841e-03</internalNodes>
          <leafValues>
            1.3851000368595123e-01 -4.8865839838981628e-01</leafValues></_>
        <_>
          <internalNodes>
            0 -1 111 -1.2989147799089551e-03</internalNodes>
          <leafValues>
            -5.3220635652542114e-01 1.4850468933582306e-01</leafValues></_>
        <_>
          <internalNodes>
            0 -1 66 1.6656169667840004e-02</internalNodes>
          <leafValues>
            -1.8790879845619202e-01 3.9540547132492065e-01</leafValues></_>
        <_>
          <internalNodes>
            0 -1 97 9.9825691431760788e-03</internalNodes>
          <leafValues>
            -2.4192038178443909e-01 3.8356935977935791e-01</leafValues></_>
        <_>
          <internalNodes>
            0 -1 137 -1.4518782263621688e-03</internalNodes>
          <leafValues>
            -5.6228315830230713e-01 1.3334794342517853e-01</leafValues></_>
        <_>
          <internalNodes>
            0 -1 47 -1.6612110193818808e-03</internalNodes>
          <leafValues>
            -4.8417374491691589e-01 1.4361518621444702e-01</leafValues></_>
        <_>
          <internalNodes>
            0 -1 18 5.1048900932073593e-03</internalNodes>
          <leafValues>
            -2.1662880480289459e-01 3.4591597318649292e-01</leafValues></_>
        <_>
          <internalNodes>
            0 -1 77 -1.6678478568792343e-02</internalNodes>
          <leafValues>
            2.9963853955268860e-01 -2.7671512961387634e-01</leafValues></_>
        <_>
          <internalNodes>
            0 -1 159 2.2620863746851683e-03</internalNodes>
          <leafValues>
            1.2245191633701324e-01 -6.0032504796981812e-01</leafValues></_>
        <_>
          <internalNodes>
            0 -1 35 2.5864071212708950e-03</internalNodes>
          <leafValues>
            7.0670157670974731e-02 -8.6232692003250122e-01</leafValues></_>
        <_>
          <internalNodes>
            0 -1 4 4.5082269934937358e-04</internalNodes>
          <leafValues>
            8.5817359387874603e-02 -6.2649917602539063e-01</leafValues></_></weakClassifiers></_>
    <!-- stage 12 -->
    <_>
      <maxWeakCount>13</maxWeakCount>
      <stageThreshold>-1.3407845497131348e+00</stageThreshold>
      <weakClassifiers>
        <_>
          <internalNodes>
            0 -1 67 -4.0840681642293930e-02</internalNodes>
          <leafValues>
            -1.5217390656471252e-01 -7.3282444477081299e-01</leafValues></_>
        <_>
          <internalNodes>
            0 -1 68 2.9480796307325363e-02</internalNodes>
          <leafValues>
            -3.7432998418807983e-01 1.3823254406452179e-01</leafValues></_>
        <_>
          <internalNodes>
            0 -1 43 1.0596623644232750e-02</internalNodes>
          <leafValues>
            -1.8124125897884369e-01 4.1113686561584473e-01</leafValues></_>
        <_>
          <internalNodes>
            0 -1 32 2.7944252360612154e-04</internalNodes>
          <leafValues>
            1.6839265823364258e-01 -4.6699142456054688e-01</leafValues></_>
        <_>
          <internalNodes>
            0 -1 2 7.6560556888580322e-02</internalNodes>
          <leafValues>
            -1.3527230918407440e-01 4.2173358798027039e-01</leafValues></_>
        <_>
          <internalNodes>
            0 -1 76 8.9354244992136955e-03</internalNodes>
          <leafValues>
            -2.7051228284835815e-01 2.5602564215660095e-01</leafValues></_>
        <_>
          <internalNodes>
            0 -1 7 -3.2563451677560806e-03</internalNodes>
          <leafValues>
            -6.2244755029678345e-01 1.0487712174654007e-01</leafValues></_>
        <_>
          <internalNodes>
            0 -1 87 -6.6840332001447678e-03</internalNodes>
          <leafValues>
            3.4744113683700562e-01 -1.9806654751300812e-01</leafValues></_>
        <_>
          <internalNodes>
            0 -1 23 2.5408100336790085e-03</internalNodes>
          <leafValues>
            9.1688871383666992e-02 -6.5354961156845093e-01</leafValues></_>
        <_>
          <internalNodes>
            0 -1 30 -1.1217839084565639e-02</internalNodes>
          <leafValues>
            5.1328665018081665e-01 -1.2721979618072510e-01</leafValues></_>
        <_>
          <internalNodes>
            0 -1 5 -2.0519976969808340e-03</internalNodes>
          <leafValues>
            -5.3420472145080566e-01 1.2080224603414536e-01</leafValues></_>
        <_>
          <internalNodes>
            0 -1 46 1.8161362968385220e-03</internalNodes>
          <leafValues>
            1.2529845535755157e-01 -4.9255394935607910e-01</leafValues></_>
        <_>
          <internalNodes>
            0 -1 49 7.7538818004541099e-05</internalNodes>
          <leafValues>
            -2.4944801628589630e-01 2.4943974614143372e-01</leafValues></_></weakClassifiers></_>
    <!-- stage 13 -->
    <_>
      <maxWeakCount>15</maxWeakCount>
      <stageThreshold>-1.4636280536651611e+00</stageThreshold>
      <weakClassifiers>
        <_>
          <internalNodes>
            0 -1 141 -9.8290601745247841e-03</internalNodes>
          <leafValues>
            2.8000000119209290e-01 -7.0762330293655396e-01</leafValues></_>
        <_>
          <internalNodes>
            0 -1 120 1.7767488956451416e-02</internalNodes>
          <leafValues>
            -4.3602782487869263e-01 5.4367717355489731e-02</leafValues></_>
        <_>
          <internalNodes>
            0 -1 33 -3.2383920624852180e-03</internalNodes>
          <leafValues>
            -8.9808797836303711e-01 6.1871211975812912e-02</leafValues></_>
        <_>
          <internalNodes>
            0 -1 80 1.6869585961103439e-02</internalNodes>
          <leafValues>
            -1.2501294910907745e-01 4.8492428660392761e-01</leafValues></_>
        <_>
          <internalNodes>
            0 -1 112 7.4328621849417686e-04</internalNodes>
          <leafValues>
            1.2109448760747910e-01 -5.1600527763366699e-01</leafValues></_>
        <_>
          <internalNodes>
            0 -1 160 -8.4775179857388139e-05</internalNodes>
          <leafValues>
            2.4135485291481018e-01 -2.3315307497978210e-01</leafValues></_>
        <_>
          <internalNodes>
            0 -1 1 -6.6196313127875328e-03</internalNodes>
          <leafValues>
            -8.3259743452072144e-01 5.5255398154258728e-02</leafValues></_>
        <_>
          <internalNodes>
            0 -1 26 -3.1788876652717590e-01</internalNodes>
          <leafValues>
            -8.7616252899169922e-01 5.5323839187622070e-02</leafValues></_>
        <_>
          <internalNodes>
            0 -1 37 1.5165287256240845e-01</internalNodes>
          <leafValues>
            6.5369598567485809e-02 -6.5916502475738525e-01</leafValues></_>
        <_>
          <internalNodes>
            0 -1 152 -6.8122887751087546e-04</internalNodes>
          <leafValues>
            -2.6364013552665710e-01 2.3678445816040039e-01</leafValues></_>
        <_>
          <internalNodes>
            0 -1 154 2.2316584363579750e-03</internalNodes>
          <leafValues>
            9.9323734641075134e-02 -6.1894148588180542e-01</leafValues></_>
        <_>
          <internalNodes>
            0 -1 50 1.1334281880408525e-03</internalNodes>
          <leafValues>
            1.2016525119543076e-01 -5.0550019741058350e-01</leafValues></_>
        <_>
          <internalNodes>
            0 -1 27 1.2117209844291210e-02</internalNodes>
          <leafValues>
            -2.2147007286548615e-01 2.4610359966754913e-01</leafValues></_>
        <_>
          <internalNodes>
            0 -1 113 1.2364920694380999e-03</internalNodes>
          <leafValues>
            -2.3594234883785248e-01 3.0434736609458923e-01</leafValues></_>
        <_>
          <internalNodes>
            0 -1 65 3.0275806784629822e-02</internalNodes>
          <leafValues>
            -1.4003136754035950e-01 5.2240371704101563e-01</leafValues></_></weakClassifiers></_></stages>
  <features>
    <_>
      <rects>
        <_>
          0 0 2 2 -1.</_>
        <_>
          0 0 1 1 2.</_>
        <_>
          1 1 1 1 2.</_></rects>
      <tilted>0</tilted></_>
    <_>
      <rects>
        <_>
          0 0 2 17 -1.</_>
        <_>
          1 0 1 17 2.</_></rects>
      <tilted>0</tilted></_>
    <_>
      <rects>
        <_>
          0 0 10 22 -1.</_>
        <_>
          5 0 5 22 2.</_></rects>
      <tilted>0</tilted></_>
    <_>
      <rects>
        <_>
          0 0 8 24 -1.</_>
        <_>
          0 8 8 8 3.</_></rects>
      <tilted>0</tilted></_>
    <_>
      <rects>
        <_>
          0 13 2 1 -1.</_>
        <_>
          1 13 1 1 2.</_></rects>
      <tilted>0</tilted></_>
    <_>
      <rects>
        <_>
          0 14 10 2 -1.</_>
        <_>
          5 14 5 2 2.</_></rects>
      <tilted>0</tilted></_>
    <_>
      <rects>
        <_>
          1 4 18 17 -1.</_>
        <_>
          10 4 9 17 2.</_></rects>
      <tilted>0</tilted></_>
    <_>
      <rects>
        <_>
          1 7 3 7 -1.</_>
        <_>
          2 7 1 7 3.</_></rects>
      <tilted>0</tilted></_>
    <_>
      <rects>
        <_>
          1 7 8 1 -1.</_>
        <_>
          5 7 4 1 2.</_></rects>
      <tilted>0</tilted></_>
    <_>
      <rects>
        <_>
          1 8 8 4 -1.</_>
        <_>
          1 10 8 2 2.</_></rects>
      <tilted>0</tilted></_>
    <_>
      <rects>
        <_>
          1 9 16 2 -1.</_>
        <_>
          1 10 16 1 2.</_></rects>
      <tilted>0</tilted></_>
    <_>
      <rects>
        <_>
          1 12 6 4 -1.</_>
        <_>
          4 12 3 4 2.</_></rects>
      <tilted>0</tilted></_>
    <_>
      <rects>
        <_>
          1 13 4 2 -1.</_>
        <_>
          3 13 2 2 2.</_></rects>
      <tilted>0</tilted></_>
    <_>
      <rects>
        <_>
          1 16 4 2 -1.</_>
        <_>
          3 16 2 2 2.</_></rects>
      <tilted>0</tilted></_>
    <_>
      <rects>
        <_>
          1 22 2 2 -1.</_>
        <_>
          1 22 1 1 2.</_>
        <_>
          2 23 1 1 2.</_></rects>
      <tilted>0</tilted></_>
    <_>
      <rects>
        <_>
          2 0 2 2 -1.</_>
        <_>
          2 0 1 1 2.</_>
        <_>
          3 1 1 1 2.</_></rects>
      <tilted>0</tilted></_>
    <_>
      <rects>
        <_>
          2 7 9 2 -1.</_>
        <_>
          2 8 9 1 2.</_></rects>
      <tilted>0</tilted></_>
    <_>
      <rects>
        <_>
          2 8 3 1 -1.</_>
        <_>
          3 8 1 1 3.</_></rects>
      <tilted>0</tilted></_>
    <_>
      <rects>
        <_>
          2 8 16 6 -1.</_>
        <_>
          2 10 16 2 3.</_></rects>
      <tilted>0</tilted></_>
    <_>
      <rects>
        <_>
          2 10 20 6 -1.</_>
        <_>
          12 10 10 6 2.</_></rects>
      <tilted>0</tilted></_>
    <_>
      <rects>
        <_>
          3 0 4 21 -1.</_>
        <_>
          3 7 4 7 3.</_></rects>
      <tilted>0</tilted></_>
    <_>
      <rects>
        <_>
          3 7 1 4 -1.</_>
        <_>
          3 9 1 2 2.</_></rects>
      <tilted>0</tilted></_>
    <_>
      <rects>
        <_>
          3 12 9 5 -1.</_>
        <_>
          6 12 3 5 3.</_></rects>
      <tilted>0</tilted></_>
    <_>
      <rects>
        <_>
          3 17 3 5 -1.</_>
        <_>
          4 17 1 5 3.</_></rects>
      <tilted>0</tilted></_>
    <_>
      <rects>
        <_>
          4 0 2 2 -1.</_>
        <_>
          4 0 1 1 2.</_>
        <_>
          5 1 1 1 2.</_></rects>
      <tilted>0</tilted></_>
    <_>
      <rects>
        <_>
          4 0 3 24 -1.</_>
        <_>
          4 8 3 8 3.</_></rects>
      <tilted>0</tilted></_>
    <_>
      <rects>
        <_>
          4 1 20 17 -1.</_>
        <_>
          14 1 10 17 2.</_></rects>
      <tilted>0</tilted></_>
    <_>
      <rects>
        <_>
          4 6 9 7 -1.</_>
        <_>
          7 6 3 7 3.</_></rects>
      <tilted>0</tilted></_>
    <_>
      <rects>
        <_>
          4 9 9 7 -1.</_>
        <_>
          7 9 3 7 3.</_></rects>
      <tilted>0</tilted></_>
    <_>
      <rects>
        <_>
          4 10 4 2 -1.</_>
        <_>
          6 10 2 2 2.</_></rects>
      <tilted>0</tilted></_>
    <_>
      <rects>
        <_>
          4 10 8 4 -1.</_>
        <_>
          4 12 8 2 2.</_></rects>
      <tilted>0</tilted></_>
    <_>
      <rects>
        <_>
          4 11 4 2 -1.</_>
        <_>
          6 11 2 2 2.</_></rects>
      <tilted>0</tilted></_>
    <_>
      <rects>
        <_>
          4 12 2 1 -1.</_>
        <_>
          5 12 1 1 2.</_></rects>
      <tilted>0</tilted></_>
    <_>
      <rects>
        <_>
          4 12 4 3 -1.</_>
        <_>
          4 13 4 1 3.</_></rects>
      <tilted>0</tilted></_>
    <_>
      <rects>
        <_>
          4 13 1 4 -1.</_>
        <_>
          4 15 1 2 2.</_></rects>
      <tilted>0</tilted></_>
    <_>
      <rects>
        <_>
          4 17 11 2 -1.</_>
        <_>
          4 18 11 1 2.</_></rects>
      <tilted>0</tilted></_>
    <_>
      <rects>
        <_>
          5 0 10 12 -1.</_>
        <_>
          5 4 10 4 3.</_></rects>
      <tilted>0</tilted></_>
    <_>
      <rects>
        <_>
          5 2 18 13 -1.</_>
        <_>
          14 2 9 13 2.</_></rects>
      <tilted>0</tilted></_>
    <_>
      <rects>
        <_>
          5 5 6 9 -1.</_>
        <_>
          7 5 2 9 3.</_></rects>
      <tilted>0</tilted></_>
    <_>
      <rects>
        <_>
          5 7 18 9 -1.</_>
        <_>
          14 7 9 9 2.</_></rects>
      <tilted>0</tilted></_>
    <_>
      <rects>
        <_>
          5 8 11 6 -1.</_>
        <_>
          5 10 11 2 3.</_></rects>
      <tilted>0</tilted></_>
    <_>
      <rects>
        <_>
          5 9 1 6 -1.</_>
        <_>
          5 12 1 3 2.</_></rects>
      <tilted>0</tilted></_>
    <_>
      <rects>
        <_>
          5 9 1 10 -1.</_>
        <_>
          5 14 1 5 2.</_></rects>
      <tilted>0</tilted></_>
    <_>
      <rects>
        <_>
          5 9 12 6 -1.</_>
        <_>
          5 11 12 2 3.</_></rects>
      <tilted>0</tilted></_>
    <_>
      <rects>
        <_>
          5 10 1 4 -1.</_>
        <_>
          5 12 1 2 2.</_></rects>
      <tilted>0</tilted></_>
    <_>
      <rects>
        <_>
          5 13 4 2 -1.</_>
        <_>
          7 13 2 2 2.</_></rects>
      <tilted>0</tilted></_>
    <_>
      <rects>
        <_>
          5 14 2 7 -1.</_>
        <_>
          6 14 1 7 2.</_></rects>
      <tilted>0</tilted></_>
    <_>
      <rects>
        <_>
          5 15 9 1 -1.</_>
        <_>
          8 15 3 1 3.</_></rects>
      <tilted>0</tilted></_>
    <_>
      <rects>
        <_>
          5 19 2 2 -1.</_>
        <_>
          5 19 1 1 2.</_>
        <_>
          6 20 1 1 2.</_></rects>
      <tilted>0</tilted></_>
    <_>
      <rects>
        <_>
          5 20 1 2 -1.</_>
        <_>
          5 21 1 1 2.</_></rects>
      <tilted>0</tilted></_>
    <_>
      <rects>
        <_>
          6 1 4 1 -1.</_>
        <_>
          8 1 2 1 2.</_></rects>
      <tilted>0</tilted></_>
    <_>
      <rects>
        <_>
          6 3 10 9 -1.</_>
        <_>
          6 6 10 3 3.</_></rects>
      <tilted>0</tilted></_>
    <_>
      <rects>
        <_>
          6 4 10 20 -1.</_>
        <_>
          6 14 10 10 2.</_></rects>
      <tilted>0</tilted></_>
    <_>
      <rects>
        <_>
          6 6 6 1 -1.</_>
        <_>
          9 6 3 1 2.</_></rects>
      <tilted>0</tilted></_>
    <_>
      <rects>
        <_>
          6 7 1 6 -1.</_>
        <_>
          6 9 1 2 3.</_></rects>
      <tilted>0</tilted></_>
    <_>
      <rects>
        <_>
          6 7 6 8 -1.</_>
        <_>
          8 7 2 8 3.</_></rects>
      <tilted>0</tilted></_>
    <_>
      <rects>
        <_>
          6 7 9 9 -1.</_>
        <_>
          6 10 9 3 3.</_></rects>
      <tilted>0</tilted></_>
    <_>
      <rects>
        <_>
          6 8 9 7 -1.</_>
        <_>
          9 8 3 7 3.</_></rects>
      <tilted>0</tilted></_>
    <_>
      <rects>
        <_>
          6 9 1 4 -1.</_>
        <_>
          6 11 1 2 2.</_></rects>
      <tilted>0</tilted></_>
    <_>
      <rects>
        <_>
          6 9 9 3 -1.</_>
        <_>
          9 9 3 3 3.</_></rects>
      <tilted>0</tilted></_>
    <_>
      <rects>
        <_>
          6 10 9 2 -1.</_>
        <_>
          9 10 3 2 3.</_></rects>
      <tilted>0</tilted></_>
    <_>
      <rects>
        <_>
          6 10 12 6 -1.</_>
        <_>
          6 13 12 3 2.</_></rects>
      <tilted>0</tilted></_>
    <_>
      <rects>
        <_>
          6 16 8 1 -1.</_>
        <_>
          10 16 4 1 2.</_></rects>
      <tilted>0</tilted></_>
    <_>
      <rects>
        <_>
          7 3 1 10 -1.</_>
        <_>
          7 8 1 5 2.</_></rects>
      <tilted>0</tilted></_>
    <_>
      <rects>
        <_>
          7 5 6 12 -1.</_>
        <_>
          9 5 2 12 3.</_></rects>
      <tilted>0</tilted></_>
    <_>
      <rects>
        <_>
          7 5 6 16 -1.</_>
        <_>
          9 5 2 16 3.</_></rects>
      <tilted>0</tilted></_>
    <_>
      <rects>
        <_>
          7 5 10 9 -1.</_>
        <_>
          7 8 10 3 3.</_></rects>
      <tilted>0</tilted></_>
    <_>
      <rects>
        <_>
          7 6 6 8 -1.</_>
        <_>
          7 6 3 4 2.</_>
        <_>
          10 10 3 4 2.</_></rects>
      <tilted>0</tilted></_>
    <_>
      <rects>
        <_>
          7 6 14 6 -1.</_>
        <_>
          7 6 7 3 2.</_>
        <_>
          14 9 7 3 2.</_></rects>
      <tilted>0</tilted></_>
    <_>
      <rects>
        <_>
          7 7 7 6 -1.</_>
        <_>
          7 9 7 2 3.</_></rects>
      <tilted>0</tilted></_>
    <_>
      <rects>
        <_>
          7 7 11 6 -1.</_>
        <_>
          7 9 11 2 3.</_></rects>
      <tilted>0</tilted></_>
    <_>
      <rects>
        <_>
          7 8 9 7 -1.</_>
        <_>
          10 8 3 7 3.</_></rects>
      <tilted>0</tilted></_>
    <_>
      <rects>
        <_>
          7 8 7 6 -1.</_>
        <_>
          7 10 7 2 3.</_></rects>
      <tilted>0</tilted></_>
    <_>
      <rects>
        <_>
          7 9 7 4 -1.</_>
        <_>
          7 11 7 2 2.</_></rects>
      <tilted>0</tilted></_>
    <_>
      <rects>
        <_>
          7 11 16 2 -1.</_>
        <_>
          7 11 8 1 2.</_>
        <_>
          15 12 8 1 2.</_></rects>
      <tilted>0</tilted></_>
    <_>
      <rects>
        <_>
          7 12 2 2 -1.</_>
        <_>
          7 12 1 1 2.</_>
        <_>
          8 13 1 1 2.</_></rects>
      <tilted>0</tilted></_>
    <_>
      <rects>
        <_>
          8 4 6 9 -1.</_>
        <_>
          8 7 6 3 3.</_></rects>
      <tilted>0</tilted></_>
    <_>
      <rects>
        <_>
          8 4 11 10 -1.</_>
        <_>
          8 9 11 5 2.</_></rects>
      <tilted>0</tilted></_>
    <_>
      <rects>
        <_>
          8 5 6 2 -1.</_>
        <_>
          10 5 2 2 3.</_></rects>
      <tilted>0</tilted></_>
    <_>
      <rects>
        <_>
          8 5 4 9 -1.</_>
        <_>
          8 8 4 3 3.</_></rects>
      <tilted>0</tilted></_>
    <_>
      <rects>
        <_>
          8 6 6 9 -1.</_>
        <_>
          10 6 2 9 3.</_></rects>
      <tilted>0</tilted></_>
    <_>
      <rects>
        <_>
          8 6 6 10 -1.</_>
        <_>
          10 6 2 10 3.</_></rects>
      <tilted>0</tilted></_>
    <_>
      <rects>
        <_>
          8 6 6 17 -1.</_>
        <_>
          10 6 2 17 3.</_></rects>
      <tilted>0</tilted></_>
    <_>
      <rects>
        <_>
          8 7 4 9 -1.</_>
        <_>
          8 10 4 3 3.</_></rects>
      <tilted>0</tilted></_>
    <_>
      <rects>
        <_>
          8 8 6 7 -1.</_>
        <_>
          10 8 2 7 3.</_></rects>
      <tilted>0</tilted></_>
    <_>
      <rects>
        <_>
          8 8 9 12 -1.</_>
        <_>
          11 8 3 12 3.</_></rects>
      <tilted>0</tilted></_>
    <_>
      <rects>
        <_>
          8 8 5 6 -1.</_>
        <_>
          8 10 5 2 3.</_></rects>
      <tilted>0</tilted></_>
    <_>
      <rects>
        <_>
          8 8 10 6 -1.</_>
        <_>
          8 8 5 3 2.</_>
        <_>
          13 11 5 3 2.</_></rects>
      <tilted>0</tilted></_>
    <_>
      <rects>
        <_>
          8 8 7 6 -1.</_>
        <_>
          8 10 7 2 3.</_></rects>
      <tilted>0</tilted></_>
    <_>
      <rects>
        <_>
          8 8 15 2 -1.</_>
        <_>
          8 9 15 1 2.</_></rects>
      <tilted>0</tilted></_>
    <_>
      <rects>
        <_>
          8 9 6 4 -1.</_>
        <_>
          8 9 3 2 2.</_>
        <_>
          11 11 3 2 2.</_></rects>
      <tilted>0</tilted></_>
    <_>
      <rects>
        <_>
          8 9 9 5 -1.</_>
        <_>
          11 9 3 5 3.</_></rects>
      <tilted>0</tilted></_>
    <_>
      <rects>
        <_>
          8 9 6 6 -1.</_>
        <_>
          8 11 6 2 3.</_></rects>
      <tilted>0</tilted></_>
    <_>
      <rects>
        <_>
          8 9 7 9 -1.</_>
        <_>
          8 12 7 3 3.</_></rects>
      <tilted>0</tilted></_>
    <_>
      <rects>
        <_>
          8 10 7 2 -1.</_>
        <_>
          8 11 7 1 2.</_></rects>
      <tilted>0</tilted></_>
    <_>
      <rects>
        <_>
          8 10 7 6 -1.</_>
        <_>
          8 12 7 2 3.</_></rects>
      <tilted>0</tilted></_>
    <_>
      <rects>
        <_>
          8 10 16 2 -1.</_>
        <_>
          8 10 8 1 2.</_>
        <_>
          16 11 8 1 2.</_></rects>
      <tilted>0</tilted></_>
    <_>
      <rects>
        <_>
          8 10 9 6 -1.</_>
        <_>
          8 12 9 2 3.</_></rects>
      <tilted>0</tilted></_>
    <_>
      <rects>
        <_>
          9 0 6 21 -1.</_>
        <_>
          11 0 2 21 3.</_></rects>
      <tilted>0</tilted></_>
    <_>
      <rects>
        <_>
          9 0 5 4 -1.</_>
        <_>
          9 2 5 2 2.</_></rects>
      <tilted>0</tilted></_>
    <_>
      <rects>
        <_>
          9 0 6 3 -1.</_>
        <_>
          9 1 6 1 3.</_></rects>
      <tilted>0</tilted></_>
    <_>
      <rects>
        <_>
          9 3 3 17 -1.</_>
        <_>
          10 3 1 17 3.</_></rects>
      <tilted>0</tilted></_>
    <_>
      <rects>
        <_>
          9 5 6 13 -1.</_>
        <_>
          11 5 2 13 3.</_></rects>
      <tilted>0</tilted></_>
    <_>
      <rects>
        <_>
          9 6 4 9 -1.</_>
        <_>
          9 9 4 3 3.</_></rects>
      <tilted>0</tilted></_>
    <_>
      <rects>
        <_>
          9 8 6 9 -1.</_>
        <_>
          12 8 3 9 2.</_></rects>
      <tilted>0</tilted></_>
    <_>
      <rects>
        <_>
          9 9 6 4 -1.</_>
        <_>
          9 9 3 2 2.</_>
        <_>
          12 11 3 2 2.</_></rects>
      <tilted>0</tilted></_>
    <_>
      <rects>
        <_>
          9 9 4 6 -1.</_>
        <_>
          9 11 4 2 3.</_></rects>
      <tilted>0</tilted></_>
    <_>
      <rects>
        <_>
          9 9 15 6 -1.</_>
        <_>
          14 9 5 6 3.</_></rects>
      <tilted>0</tilted></_>
    <_>
      <rects>
        <_>
          9 10 4 2 -1.</_>
        <_>
          9 10 2 1 2.</_>
        <_>
          11 11 2 1 2.</_></rects>
      <tilted>0</tilted></_>
    <_>
      <rects>
        <_>
          9 16 6 1 -1.</_>
        <_>
          12 16 3 1 2.</_></rects>
      <tilted>0</tilted></_>
    <_>
      <rects>
        <_>
          9 16 10 6 -1.</_>
        <_>
          9 19 10 3 2.</_></rects>
      <tilted>0</tilted></_>
    <_>
      <rects>
        <_>
          9 17 6 1 -1.</_>
        <_>
          11 17 2 1 3.</_></rects>
      <tilted>0</tilted></_>
    <_>
      <rects>
        <_>
          10 6 3 1 -1.</_>
        <_>
          11 6 1 1 3.</_></rects>
      <tilted>0</tilted></_>
    <_>
      <rects>
        <_>
          10 6 2 12 -1.</_>
        <_>
          11 6 1 12 2.</_></rects>
      <tilted>0</tilted></_>
    <_>
      <rects>
        <_>
          10 6 6 9 -1.</_>
        <_>
          12 6 2 9 3.</_></rects>
      <tilted>0</tilted></_>
    <_>
      <rects>
        <_>
          10 7 2 11 -1.</_>
        <_>
          11 7 1 11 2.</_></rects>
      <tilted>0</tilted></_>
    <_>
      <rects>
        <_>
          10 7 2 9 -1.</_>
        <_>
          10 10 2 3 3.</_></rects>
      <tilted>0</tilted></_>
    <_>
      <rects>
        <_>
          10 7 6 8 -1.</_>
        <_>
          12 7 2 8 3.</_></rects>
      <tilted>0</tilted></_>
    <_>
      <rects>
        <_>
          10 8 4 8 -1.</_>
        <_>
          12 8 2 8 2.</_></rects>
      <tilted>0</tilted></_>
    <_>
      <rects>
        <_>
          10 9 4 6 -1.</_>
        <_>
          10 9 2 3 2.</_>
        <_>
          12 12 2 3 2.</_></rects>
      <tilted>0</tilted></_>
    <_>
      <rects>
        <_>
          10 9 9 6 -1.</_>
        <_>
          13 9 3 6 3.</_></rects>
      <tilted>0</tilted></_>
    <_>
      <rects>
        <_>
          11 0 2 4 -1.</_>
        <_>
          11 2 2 2 2.</_></rects>
      <tilted>0</tilted></_>
    <_>
      <rects>
        <_>
          11 1 1 4 -1.</_>
        <_>
          11 3 1 2 2.</_></rects>
      <tilted>0</tilted></_>
    <_>
      <rects>
        <_>
          11 3 3 2 -1.</_>
        <_>
          12 3 1 2 3.</_></rects>
      <tilted>0</tilted></_>
    <_>
      <rects>
        <_>
          11 5 10 1 -1.</_>
        <_>
          16 5 5 1 2.</_></rects>
      <tilted>0</tilted></_>
    <_>
      <rects>
        <_>
          11 7 6 8 -1.</_>
        <_>
          13 7 2 8 3.</_></rects>
      <tilted>0</tilted></_>
    <_>
      <rects>
        <_>
          11 7 6 14 -1.</_>
        <_>
          11 7 3 7 2.</_>
        <_>
          14 14 3 7 2.</_></rects>
      <tilted>0</tilted></_>
    <_>
      <rects>
        <_>
          11 9 1 9 -1.</_>
        <_>
          11 12 1 3 3.</_></rects>
      <tilted>0</tilted></_>
    <_>
      <rects>
        <_>
          11 9 3 14 -1.</_>
        <_>
          12 9 1 14 3.</_></rects>
      <tilted>0</tilted></_>
    <_>
      <rects>
        <_>
          11 14 6 2 -1.</_>
        <_>
          14 14 3 2 2.</_></rects>
      <tilted>0</tilted></_>
    <_>
      <rects>
        <_>
          12 3 2 6 -1.</_>
        <_>
          12 6 2 3 2.</_></rects>
      <tilted>0</tilted></_>
    <_>
      <rects>
        <_>
          12 3 2 8 -1.</_>
        <_>
          12 7 2 4 2.</_></rects>
      <tilted>0</tilted></_>
    <_>
      <rects>
        <_>
          12 8 12 10 -1.</_>
        <_>
          18 8 6 10 2.</_></rects>
      <tilted>0</tilted></_>
    <_>
      <rects>
        <_>
          12 9 12 2 -1.</_>
        <_>
          12 10 12 1 2.</_></rects>
      <tilted>0</tilted></_>
    <_>
      <rects>
        <_>
          12 15 4 1 -1.</_>
        <_>
          14 15 2 1 2.</_></rects>
      <tilted>0</tilted></_>
    <_>
      <rects>
        <_>
          12 15 6 1 -1.</_>
        <_>
          15 15 3 1 2.</_></rects>
      <tilted>0</tilted></_>
    <_>
      <rects>
        <_>
          12 20 1 4 -1.</_>
        <_>
          12 22 1 2 2.</_></rects>
      <tilted>0</tilted></_>
    <_>
      <rects>
        <_>
          13 12 3 4 -1.</_>
        <_>
          13 14 3 2 2.</_></rects>
      <tilted>0</tilted></_>
    <_>
      <rects>
        <_>
          13 13 2 2 -1.</_>
        <_>
          13 13 1 1 2.</_>
        <_>
          14 14 1 1 2.</_></rects>
      <tilted>0</tilted></_>
    <_>
      <rects>
        <_>
          13 13 6 2 -1.</_>
        <_>
          16 13 3 2 2.</_></rects>
      <tilted>0</tilted></_>
    <_>
      <rects>
        <_>
          13 20 2 2 -1.</_>
        <_>
          13 20 1 1 2.</_>
        <_>
          14 21 1 1 2.</_></rects>
      <tilted>0</tilted></_>
    <_>
      <rects>
        <_>
          13 21 3 2 -1.</_>
        <_>
          14 21 1 2 3.</_></rects>
      <tilted>0</tilted></_>
    <_>
      <rects>
        <_>
          14 7 4 6 -1.</_>
        <_>
          16 7 2 6 2.</_></rects>
      <tilted>0</tilted></_>
    <_>
      <rects>
        <_>
          14 8 1 9 -1.</_>
        <_>
          14 11 1 3 3.</_></rects>
      <tilted>0</tilted></_>
    <_>
      <rects>
        <_>
          14 9 2 2 -1.</_>
        <_>
          14 9 1 1 2.</_>
        <_>
          15 10 1 1 2.</_></rects>
      <tilted>0</tilted></_>
    <_>
      <rects>
        <_>
          14 12 6 5 -1.</_>
        <_>
          16 12 2 5 3.</_></rects>
      <tilted>0</tilted></_>
    <_>
      <rects>
        <_>
          14 13 3 10 -1.</_>
        <_>
          14 18 3 5 2.</_></rects>
      <tilted>0</tilted></_>
    <_>
      <rects>
        <_>
          15 5 1 6 -1.</_>
        <_>
          15 7 1 2 3.</_></rects>
      <tilted>0</tilted></_>
    <_>
      <rects>
        <_>
          15 8 1 6 -1.</_>
        <_>
          15 11 1 3 2.</_></rects>
      <tilted>0</tilted></_>
    <_>
      <rects>
        <_>
          15 9 3 6 -1.</_>
        <_>
          15 12 3 3 2.</_></rects>
      <tilted>0</tilted></_>
    <_>
      <rects>
        <_>
          15 11 3 4 -1.</_>
        <_>
          15 13 3 2 2.</_></rects>
      <tilted>0</tilted></_>
    <_>
      <rects>
        <_>
          15 13 4 4 -1.</_>
        <_>
          17 13 2 4 2.</_></rects>
      <tilted>0</tilted></_>
    <_>
      <rects>
        <_>
          15 14 2 6 -1.</_>
        <_>
          15 17 2 3 2.</_></rects>
      <tilted>0</tilted></_>
    <_>
      <rects>
        <_>
          15 14 6 1 -1.</_>
        <_>
          18 14 3 1 2.</_></rects>
      <tilted>0</tilted></_>
    <_>
      <rects>
        <_>
          15 18 4 3 -1.</_>
        <_>
          15 19 4 1 3.</_></rects>
      <tilted>0</tilted></_>
    <_>
      <rects>
        <_>
          16 16 3 3 -1.</_>
        <_>
          17 16 1 3 3.</_></rects>
      <tilted>0</tilted></_>
    <_>
      <rects>
        <_>
          17 2 1 10 -1.</_>
        <_>
          17 7 1 5 2.</_></rects>
      <tilted>0</tilted></_>
    <_>
      <rects>
        <_>
          17 9 1 4 -1.</_>
        <_>
          17 11 1 2 2.</_></rects>
      <tilted>0</tilted></_>
    <_>
      <rects>
        <_>
          18 5 4 3 -1.</_>
        <_>
          18 6 4 1 3.</_></rects>
      <tilted>0</tilted></_>
    <_>
      <rects>
        <_>
          21 0 3 7 -1.</_>
        <_>
          22 0 1 7 3.</_></rects>
      <tilted>0</tilted></_>
    <_>
      <rects>
        <_>
          23 17 1 2 -1.</_>
        <_>
          23 18 1 1 2.</_></rects>
      <tilted>0</tilted></_></features></cascade>
</opencv_storage>
