<?xml version="1.0"?>
<opencv_storage>
<cascade>
  <stageType>BOOST</stageType>
  <featureType>HAAR</featureType>
  <height>24</height>
  <width>24</width>
  <stageParams>
    <boostType>GAB</boostType>
    <minHitRate>9.9500000476837158e-01</minHitRate>
    <maxFalseAlarm>5.0000000000000000e-01</maxFalseAlarm>
    <weightTrimRate>9.4999999999999996e-01</weightTrimRate>
    <maxDepth>1</maxDepth>
    <maxWeakCount>100</maxWeakCount></stageParams>
  <featureParams>
    <maxCatCount>0</maxCatCount>
    <featSize>1</featSize>
    <mode>BASIC</mode></featureParams>
  <stageNum>14</stageNum>
  <stages>
    <!-- stage 0 -->
    <_>
      <maxWeakCount>7</maxWeakCount>
      <stageThreshold>-1.5972169637680054e+00</stageThreshold>
      <weakClassifiers>
        <_>
          <internalNodes>
            0 -1 67 -3.6968678236007690e-02</internalNodes>
          <leafValues>
            6.9072163105010986e-01 -7.9685866832733154e-01</leafValues></_>
        <_>
          <internalNodes>
            0 -1 70 -1.4187642373144627e-02</internalNodes>
          <leafValues>
            8.4070467948913574e-01 -4.3614974617958069e-01</leafValues></_>
        <_>
          <internalNodes>
            0 -1 128 4.2179874144494534e-03</internalNodes>
          <leafValues>
            2.6946994662284851e-01 -8.5352331399917603e-01</leafValues></_>
        <_>
          <internalNodes>
            0 -1 82 -4.5719444751739502e-02</internalNodes>
          <leafValues>
            8.8972264528274536e-01 -2.4225388467311859e-01</leafValues></_>
        <_>
          <internalNodes>
            0 -1 41 -1.0457520693307742e-04</internalNodes>
          <leafValues>
            5.7682639360427856e-01 -3.0437344312667847e-01</leafValues></_>
        <_>
          <internalNodes>
            0 -1 8 4.0626067668199539e-02</internalNodes>
          <leafValues>
            -4.0305367112159729e-01 5.8626002073287964e-01</leafValues></_>
        <_>
          <internalNodes>
            0 -1 20 9.6429415862075984e-05</internalNodes>
          <leafValues>
            -3.6397758126258850e-01 5.5779588222503662e-01</leafValues></_></weakClassifiers></_>
    <!-- stage 1 -->
    <_>
      <maxWeakCount>9</maxWeakCount>
      <stageThreshold>-2.0483455657958984e+00</stageThreshold>
      <weakClassifiers>
        <_>
          <internalNodes>
            0 -1 81 -5.3994812071323395e-02</internalNodes>
          <leafValues>
            5.4347825050354004e-01 -7.7499997615814209e-01</leafValues></_>
        <_>
          <internalNodes>
            0 -1 119 -8.3399507275316864e-05</internalNodes>
          <leafValues>
            3.1244480609893799e-01 -5.1953464746475220e-01</leafValues></_>
        <_>
          <internalNodes>
            0 -1 119 8.2215061411261559e-05</internalNodes>
          <leafValues>
            -3.2185977697372437e-01 5.0663697719573975e-01</leafValues></_>
        <_>
          <internalNodes>
            0 -1 88 2.9800809919834137e-02</internalNodes>
          <leafValues>
            -3.9098155498504639e-01 4.0097135305404663e-01</leafValues></_>
        <_>
          <internalNodes>
            0 -1 126 -1.9301832653582096e-03</internalNodes>
          <leafValues>
            -6.5551769733428955e-01 2.0481914281845093e-01</leafValues></_>
        <_>
          <internalNodes>
            0 -1 94 3.1165762338787317e-03</internalNodes>
          <leafValues>
            2.2445173561573029e-01 -6.7373156547546387e-01</leafValues></_>
        <_>
          <internalNodes>
            0 -1 56 8.2302969531156123e-05</internalNodes>
          <leafValues>
            -3.4885296225547791e-01 4.4821655750274658e-01</leafValues></_>
        <_>
          <internalNodes>
            0 -1 108 1.9601320382207632e-03</internalNodes>
          <leafValues>
            2.3944194614887238e-01 -6.5026354789733887e-01</leafValues></_>
        <_>
          <internalNodes>
            0 -1 63 7.7333417721092701e-05</internalNodes>
          <leafValues>
            -3.2898950576782227e-01 4.8160377144813538e-01</leafValues></_></weakClassifiers></_>
    <!-- stage 2 -->
    <_>
      <maxWeakCount>9</maxWeakCount>
      <stageThreshold>-1.4636909961700439e+00</stageThreshold>
      <weakClassifiers>
        <_>
          <internalNodes>
            0 -1 66 -3.6640167236328125e-02</internalNodes>
          <leafValues>
            4.3396225571632385e-01 -7.8224098682403564e-01</leafValues></_>
        <_>
          <internalNodes>
            0 -1 71 -1.8741574138402939e-02</internalNodes>
          <leafValues>
            5.3026604652404785e-01 -3.9904594421386719e-01</leafValues></_>
        <_>
          <internalNodes>
            0 -1 24 1.2136176228523254e-03</internalNodes>
          <leafValues>
            2.0370876789093018e-01 -7.2082120180130005e-01</leafValues></_>
        <_>
          <internalNodes>
            0 -1 22 -9.8785315640270710e-04</internalNodes>
          <leafValues>
            -6.2206643819808960e-01 2.1966995298862457e-01</leafValues></_>
        <_>
          <internalNodes>
            0 -1 114 1.1984221637248993e-03</internalNodes>
          <leafValues>
            1.7945396900177002e-01 -6.8218511343002319e-01</leafValues></_>
        <_>
          <internalNodes>
            0 -1 83 5.7971361093223095e-03</internalNodes>
          <leafValues>
            -3.8753879070281982e-01 4.0157893300056458e-01</leafValues></_>
        <_>
          <internalNodes>
            0 -1 1 8.3384320139884949e-02</internalNodes>
          <leafValues>
            -4.0796002745628357e-01 3.3835840225219727e-01</leafValues></_>
        <_>
          <internalNodes>
            0 -1 31 1.0267719335388392e-04</internalNodes>
          <leafValues>
            -3.4643959999084473e-01 3.7678533792495728e-01</leafValues></_>
        <_>
          <internalNodes>
            0 -1 11 1.8334917724132538e-02</internalNodes>
          <leafValues>
            -3.3111095428466797e-01 4.4243770837783813e-01</leafValues></_></weakClassifiers></_>
    <!-- stage 3 -->
    <_>
      <maxWeakCount>10</maxWeakCount>
      <stageThreshold>-1.7277423143386841e+00</stageThreshold>
      <weakClassifiers>
        <_>
          <internalNodes>
            0 -1 68 -5.3962863981723785e-02</internalNodes>
          <leafValues>
            3.4782609343528748e-01 -7.5625002384185791e-01</leafValues></_>
        <_>
          <internalNodes>
            0 -1 33 -3.9529174566268921e-02</internalNodes>
          <leafValues>
            5.9670901298522949e-01 -3.6013701558113098e-01</leafValues></_>
        <_>
          <internalNodes>
            0 -1 123 -7.3536066338419914e-05</internalNodes>
          <leafValues>
            4.4792416691780090e-01 -3.1073862314224243e-01</leafValues></_>
        <_>
          <internalNodes>
            0 -1 118 -5.8892217930406332e-04</internalNodes>
          <leafValues>
            -6.6978609561920166e-01 2.2065383195877075e-01</leafValues></_>
        <_>
          <internalNodes>
            0 -1 74 -5.1320269703865051e-03</internalNodes>
          <leafValues>
            7.6658707857131958e-01 -1.5735064446926117e-01</leafValues></_>
        <_>
          <internalNodes>
            0 -1 36 1.7937096999958158e-03</internalNodes>
          <leafValues>
            2.1773564815521240e-01 -6.9512575864791870e-01</leafValues></_>
        <_>
          <internalNodes>
            0 -1 7 6.3970673363655806e-04</internalNodes>
          <leafValues>
            2.7047285437583923e-01 -4.8569381237030029e-01</leafValues></_>
        <_>
          <internalNodes>
            0 -1 52 -7.5863295933231711e-05</internalNodes>
          <leafValues>
            4.2420113086700439e-01 -3.4265106916427612e-01</leafValues></_>
        <_>
          <internalNodes>
            0 -1 69 -4.1072815656661987e-02</internalNodes>
          <leafValues>
            6.2629330158233643e-01 -2.0905910432338715e-01</leafValues></_>
        <_>
          <internalNodes>
            0 -1 137 7.5263029430061579e-05</internalNodes>
          <leafValues>
            -2.8567808866500854e-01 4.5574855804443359e-01</leafValues></_></weakClassifiers></_>
    <!-- stage 4 -->
    <_>
      <maxWeakCount>12</maxWeakCount>
      <stageThreshold>-1.6208099126815796e+00</stageThreshold>
      <weakClassifiers>
        <_>
          <internalNodes>
            0 -1 65 -5.2429266273975372e-02</internalNodes>
          <leafValues>
            6.9444447755813599e-02 -7.7533042430877686e-01</leafValues></_>
        <_>
          <internalNodes>
            0 -1 5 3.2497890293598175e-02</internalNodes>
          <leafValues>
            -4.8531678318977356e-01 1.7776332795619965e-01</leafValues></_>
        <_>
          <internalNodes>
            0 -1 10 -8.0167912528850138e-05</internalNodes>
          <leafValues>
            3.6872348189353943e-01 -3.1594496965408325e-01</leafValues></_>
        <_>
          <internalNodes>
            0 -1 134 1.3999794609844685e-03</internalNodes>
          <leafValues>
            1.5718293190002441e-01 -7.3371213674545288e-01</leafValues></_>
        <_>
          <internalNodes>
            0 -1 134 -7.9616747098043561e-04</internalNodes>
          <leafValues>
            -3.2839542627334595e-01 3.7799873948097229e-01</leafValues></_>
        <_>
          <internalNodes>
            0 -1 80 2.2146426141262054e-02</internalNodes>
          <leafValues>
            -3.4823128581047058e-01 3.8954833149909973e-01</leafValues></_>
        <_>
          <internalNodes>
            0 -1 95 -9.7226381301879883e-02</internalNodes>
          <leafValues>
            4.6885320544242859e-01 -3.2207533717155457e-01</leafValues></_>
        <_>
          <internalNodes>
            0 -1 57 -3.1617223285138607e-03</internalNodes>
          <leafValues>
            -6.7315894365310669e-01 2.1615986526012421e-01</leafValues></_>
        <_>
          <internalNodes>
            0 -1 131 -7.7006313949823380e-04</internalNodes>
          <leafValues>
            -5.3274279832839966e-01 2.2074940800666809e-01</leafValues></_>
        <_>
          <internalNodes>
            0 -1 62 2.8940793126821518e-02</internalNodes>
          <leafValues>
            -2.0876592397689819e-01 6.5447664260864258e-01</leafValues></_>
        <_>
          <internalNodes>
            0 -1 73 2.5976320728659630e-02</internalNodes>
          <leafValues>
            -2.4813437461853027e-01 5.4485899209976196e-01</leafValues></_>
        <_>
          <internalNodes>
            0 -1 29 -2.6839787606149912e-03</internalNodes>
          <leafValues>
            -5.1256990432739258e-01 2.7968847751617432e-01</leafValues></_></weakClassifiers></_>
    <!-- stage 5 -->
    <_>
      <maxWeakCount>11</maxWeakCount>
      <stageThreshold>-1.3414093255996704e+00</stageThreshold>
      <weakClassifiers>
        <_>
          <internalNodes>
            0 -1 26 -3.2742679119110107e-02</internalNodes>
          <leafValues>
            3.1428572535514832e-01 -7.2912424802780151e-01</leafValues></_>
        <_>
          <internalNodes>
            0 -1 75 3.9578494615852833e-03</internalNodes>
          <leafValues>
            -3.5045412182807922e-01 4.5669040083885193e-01</leafValues></_>
        <_>
          <internalNodes>
            0 -1 133 1.4178485143929720e-03</internalNodes>
          <leafValues>
            2.2506828606128693e-01 -5.7412159442901611e-01</leafValues></_>
        <_>
          <internalNodes>
            0 -1 30 8.5864274296909571e-05</internalNodes>
          <leafValues>
            -2.9017314314842224e-01 4.0887504816055298e-01</leafValues></_>
        <_>
          <internalNodes>
            0 -1 14 -1.0256795212626457e-03</internalNodes>
          <leafValues>
            -5.5859911441802979e-01 2.0407193899154663e-01</leafValues></_>
        <_>
          <internalNodes>
            0 -1 17 1.0793085675686598e-03</internalNodes>
          <leafValues>
            2.3234847187995911e-01 -5.8194655179977417e-01</leafValues></_>
        <_>
          <internalNodes>
            0 -1 105 6.8452605046331882e-04</internalNodes>
          <leafValues>
            2.3308417201042175e-01 -5.2410179376602173e-01</leafValues></_>
        <_>
          <internalNodes>
            0 -1 23 1.6281886026263237e-02</internalNodes>
          <leafValues>
            -2.6152399182319641e-01 5.2009624242782593e-01</leafValues></_>
        <_>
          <internalNodes>
            0 -1 84 7.4451047112233937e-05</internalNodes>
          <leafValues>
            -3.1289348006248474e-01 4.4884461164474487e-01</leafValues></_>
        <_>
          <internalNodes>
            0 -1 122 7.7908759703859687e-04</internalNodes>
          <leafValues>
            2.1132448315620422e-01 -5.5825614929199219e-01</leafValues></_>
        <_>
          <internalNodes>
            0 -1 76 8.4685118054039776e-05</internalNodes>
          <leafValues>
            -3.5043916106224060e-01 3.7293860316276550e-01</leafValues></_></weakClassifiers></_>
    <!-- stage 6 -->
    <_>
      <maxWeakCount>11</maxWeakCount>
      <stageThreshold>-1.4377003908157349e+00</stageThreshold>
      <weakClassifiers>
        <_>
          <internalNodes>
            0 -1 91 -3.5231873393058777e-02</internalNodes>
          <leafValues>
            4.3396225571632385e-01 -7.1771770715713501e-01</leafValues></_>
        <_>
          <internalNodes>
            0 -1 37 2.2696960717439651e-02</internalNodes>
          <leafValues>
            -4.4247782230377197e-01 3.4240683913230896e-01</leafValues></_>
        <_>
          <internalNodes>
            0 -1 121 -8.7748374789953232e-04</internalNodes>
          <leafValues>
            -5.3612470626831055e-01 2.2172330319881439e-01</leafValues></_>
        <_>
          <internalNodes>
            0 -1 32 -1.2647255789488554e-03</internalNodes>
          <leafValues>
            -6.6082412004470825e-01 1.5863753855228424e-01</leafValues></_>
        <_>
          <internalNodes>
            0 -1 109 4.5413874089717865e-02</internalNodes>
          <leafValues>
            -1.1603867262601852e-01 7.6587849855422974e-01</leafValues></_>
        <_>
          <internalNodes>
            0 -1 113 -1.8233244773000479e-03</internalNodes>
          <leafValues>
            -5.1702743768692017e-01 2.1616408228874207e-01</leafValues></_>
        <_>
          <internalNodes>
            0 -1 55 -1.9011131953448057e-03</internalNodes>
          <leafValues>
            -6.9338893890380859e-01 1.1520428210496902e-01</leafValues></_>
        <_>
          <internalNodes>
            0 -1 77 1.0556736961007118e-03</internalNodes>
          <leafValues>
            2.1188567578792572e-01 -5.0199234485626221e-01</leafValues></_>
        <_>
          <internalNodes>
            0 -1 90 2.2022945806384087e-02</internalNodes>
          <leafValues>
            -2.5699102878570557e-01 3.9655342698097229e-01</leafValues></_>
        <_>
          <internalNodes>
            0 -1 125 -1.3210723409429193e-03</internalNodes>
          <leafValues>
            -5.9459072351455688e-01 2.0600557327270508e-01</leafValues></_>
        <_>
          <internalNodes>
            0 -1 59 1.6820684075355530e-02</internalNodes>
          <leafValues>
            -1.9092541933059692e-01 6.2427753210067749e-01</leafValues></_></weakClassifiers></_>
    <!-- stage 7 -->
    <_>
      <maxWeakCount>10</maxWeakCount>
      <stageThreshold>-1.6897509098052979e+00</stageThreshold>
      <weakClassifiers>
        <_>
          <internalNodes>
            0 -1 39 -2.6823680847883224e-02</internalNodes>
          <leafValues>
            5.2727270126342773e-01 -7.2517549991607666e-01</leafValues></_>
        <_>
          <internalNodes>
            0 -1 101 -2.1310728043317795e-02</internalNodes>
          <leafValues>
            5.0167804956436157e-01 -3.6337220668792725e-01</leafValues></_>
        <_>
          <internalNodes>
            0 -1 38 1.0979853570461273e-02</internalNodes>
          <leafValues>
            -2.1214585006237030e-01 5.0220394134521484e-01</leafValues></_>
        <_>
          <internalNodes>
            0 -1 2 2.7465535327792168e-02</internalNodes>
          <leafValues>
            -2.5310102105140686e-01 4.5848387479782104e-01</leafValues></_>
        <_>
          <internalNodes>
            0 -1 35 -7.4888463132083416e-04</internalNodes>
          <leafValues>
            -4.8591041564941406e-01 2.4554108083248138e-01</leafValues></_>
        <_>
          <internalNodes>
            0 -1 99 2.8252771589905024e-03</internalNodes>
          <leafValues>
            2.0212221145629883e-01 -6.3721209764480591e-01</leafValues></_>
        <_>
          <internalNodes>
            0 -1 60 -4.7854080796241760e-02</internalNodes>
          <leafValues>
            6.9822418689727783e-01 -1.7938134074211121e-01</leafValues></_>
        <_>
          <internalNodes>
            0 -1 85 2.2314459085464478e-02</internalNodes>
          <leafValues>
            -2.8924980759620667e-01 4.5424365997314453e-01</leafValues></_>
        <_>
          <internalNodes>
            0 -1 136 -1.3690614141523838e-03</internalNodes>
          <leafValues>
            -5.5035853385925293e-01 2.3517401516437531e-01</leafValues></_>
        <_>
          <internalNodes>
            0 -1 25 -5.7256668806076050e-02</internalNodes>
          <leafValues>
            3.9425325393676758e-01 -3.5016244649887085e-01</leafValues></_></weakClassifiers></_>
    <!-- stage 8 -->
    <_>
      <maxWeakCount>10</maxWeakCount>
      <stageThreshold>-1.3054981231689453e+00</stageThreshold>
      <weakClassifiers>
        <_>
          <internalNodes>
            0 -1 86 2.2600855678319931e-02</internalNodes>
          <leafValues>
            -7.5160598754882813e-01 6.7796610295772552e-02</leafValues></_>
        <_>
          <internalNodes>
            0 -1 50 1.1298810131847858e-02</internalNodes>
          <leafValues>
            -3.4727180004119873e-01 4.3589279055595398e-01</leafValues></_>
        <_>
          <internalNodes>
            0 -1 43 4.8329960554838181e-02</internalNodes>
          <leafValues>
            -2.9155158996582031e-01 4.1818302869796753e-01</leafValues></_>
        <_>
          <internalNodes>
            0 -1 97 1.4596213586628437e-03</internalNodes>
          <leafValues>
            2.5409436225891113e-01 -4.7987467050552368e-01</leafValues></_>
        <_>
          <internalNodes>
            0 -1 6 -2.6781279593706131e-03</internalNodes>
          <leafValues>
            -6.4156901836395264e-01 2.1137677133083344e-01</leafValues></_>
        <_>
          <internalNodes>
            0 -1 87 -6.7672152072191238e-03</internalNodes>
          <leafValues>
            4.9848994612693787e-01 -2.5030553340911865e-01</leafValues></_>
        <_>
          <internalNodes>
            0 -1 45 2.4431344121694565e-02</internalNodes>
          <leafValues>
            -1.3839119672775269e-01 6.7701733112335205e-01</leafValues></_>
        <_>
          <internalNodes>
            0 -1 13 1.6094741877168417e-03</internalNodes>
          <leafValues>
            2.3562115430831909e-01 -4.6815767884254456e-01</leafValues></_>
        <_>
          <internalNodes>
            0 -1 9 -5.4169970098882914e-04</internalNodes>
          <leafValues>
            -5.8303028345108032e-01 1.9605907797813416e-01</leafValues></_>
        <_>
          <internalNodes>
            0 -1 104 -1.6292993677780032e-04</internalNodes>
          <leafValues>
            3.8376903533935547e-01 -2.8031221032142639e-01</leafValues></_></weakClassifiers></_>
    <!-- stage 9 -->
    <_>
      <maxWeakCount>9</maxWeakCount>
      <stageThreshold>-1.2829751968383789e+00</stageThreshold>
      <weakClassifiers>
        <_>
          <internalNodes>
            0 -1 53 -2.4778334423899651e-02</internalNodes>
          <leafValues>
            6.2962961196899414e-01 -7.2945892810821533e-01</leafValues></_>
        <_>
          <internalNodes>
            0 -1 61 -4.8168145120143890e-02</internalNodes>
          <leafValues>
            6.2632787227630615e-01 -3.4021592140197754e-01</leafValues></_>
        <_>
          <internalNodes>
            0 -1 48 1.0241619311273098e-02</internalNodes>
          <leafValues>
            -2.0976895093917847e-01 5.2874636650085449e-01</leafValues></_>
        <_>
          <internalNodes>
            0 -1 47 -2.9946058988571167e-02</internalNodes>
          <leafValues>
            5.1292645931243896e-01 -1.8692995607852936e-01</leafValues></_>
        <_>
          <internalNodes>
            0 -1 103 -3.2778829336166382e-02</internalNodes>
          <leafValues>
            7.9311650991439819e-01 -1.3336533308029175e-01</leafValues></_>
        <_>
          <internalNodes>
            0 -1 127 7.6719198841601610e-04</internalNodes>
          <leafValues>
            2.1725608408451080e-01 -6.3059931993484497e-01</leafValues></_>
        <_>
          <internalNodes>
            0 -1 0 3.8960003852844238e-01</internalNodes>
          <leafValues>
            1.6067980229854584e-01 -8.4425050020217896e-01</leafValues></_>
        <_>
          <internalNodes>
            0 -1 4 -8.8505900930613279e-04</internalNodes>
          <leafValues>
            -8.9738768339157104e-01 7.5003795325756073e-02</leafValues></_>
        <_>
          <internalNodes>
            0 -1 44 -3.0738040804862976e-03</internalNodes>
          <leafValues>
            -6.6425889730453491e-01 1.3023918867111206e-01</leafValues></_></weakClassifiers></_>
    <!-- stage 10 -->
    <_>
      <maxWeakCount>10</maxWeakCount>
      <stageThreshold>-1.5525341033935547e+00</stageThreshold>
      <weakClassifiers>
        <_>
          <internalNodes>
            0 -1 54 -2.6406381279230118e-02</internalNodes>
          <leafValues>
            3.3333334326744080e-01 -7.0407152175903320e-01</leafValues></_>
        <_>
          <internalNodes>
            0 -1 96 2.1697323769330978e-02</internalNodes>
          <leafValues>
            -4.2622092366218567e-01 3.1018319725990295e-01</leafValues></_>
        <_>
          <internalNodes>
            0 -1 129 3.0504800379276276e-03</internalNodes>
          <leafValues>
            1.2648648023605347e-01 -8.0460846424102783e-01</leafValues></_>
        <_>
          <internalNodes>
            0 -1 58 1.7339438199996948e-02</internalNodes>
          <leafValues>
            -1.5956333279609680e-01 6.4132452011108398e-01</leafValues></_>
        <_>
          <internalNodes>
            0 -1 28 -2.9635641258209944e-03</internalNodes>
          <leafValues>
            -9.0027850866317749e-01 1.3809867203235626e-01</leafValues></_>
        <_>
          <internalNodes>
            0 -1 92 8.5377745563164353e-05</internalNodes>
          <leafValues>
            -3.4072929620742798e-01 3.2189011573791504e-01</leafValues></_>
        <_>
          <internalNodes>
            0 -1 111 8.3829916547983885e-05</internalNodes>
          <leafValues>
            -2.6405423879623413e-01 3.7032505869865417e-01</leafValues></_>
        <_>
          <internalNodes>
            0 -1 112 -5.4416980128735304e-04</internalNodes>
          <leafValues>
            -4.8327192664146423e-01 2.2575488686561584e-01</leafValues></_>
        <_>
          <internalNodes>
            0 -1 89 1.4799534343183041e-02</internalNodes>
          <leafValues>
            -4.6728175878524780e-01 2.9875826835632324e-01</leafValues></_>
        <_>
          <internalNodes>
            0 -1 138 7.8838893387001008e-05</internalNodes>
          <leafValues>
            -3.1533235311508179e-01 3.6355844140052795e-01</leafValues></_></weakClassifiers></_>
    <!-- stage 11 -->
    <_>
      <maxWeakCount>12</maxWeakCount>
      <stageThreshold>-1.7039877176284790e+00</stageThreshold>
      <weakClassifiers>
        <_>
          <internalNodes>
            0 -1 110 -3.9687193930149078e-02</internalNodes>
          <leafValues>
            4.2857143282890320e-01 -7.0495051145553589e-01</leafValues></_>
        <_>
          <internalNodes>
            0 -1 18 -8.0907484516501427e-04</internalNodes>
          <leafValues>
            -6.4443999528884888e-01 4.3540433049201965e-02</leafValues></_>
        <_>
          <internalNodes>
            0 -1 102 -8.8693232100922614e-05</internalNodes>
          <leafValues>
            2.3962526023387909e-01 -4.0691280364990234e-01</leafValues></_>
        <_>
          <internalNodes>
            0 -1 78 -1.0290197096765041e-03</internalNodes>
          <leafValues>
            -5.3027284145355225e-01 1.8116047978401184e-01</leafValues></_>
        <_>
          <internalNodes>
            0 -1 40 -1.8863879377022386e-03</internalNodes>
          <leafValues>
            -5.1862972974777222e-01 2.4010276794433594e-01</leafValues></_>
        <_>
          <internalNodes>
            0 -1 106 6.2255063094198704e-03</internalNodes>
          <leafValues>
            -2.6822653412818909e-01 4.2168202996253967e-01</leafValues></_>
        <_>
          <internalNodes>
            0 -1 16 1.4789933338761330e-03</internalNodes>
          <leafValues>
            1.7845842242240906e-01 -5.8889013528823853e-01</leafValues></_>
        <_>
          <internalNodes>
            0 -1 135 -8.3607068518176675e-05</internalNodes>
          <leafValues>
            3.8703909516334534e-01 -2.7648591995239258e-01</leafValues></_>
        <_>
          <internalNodes>
            0 -1 42 -3.6698609590530396e-02</internalNodes>
          <leafValues>
            5.1090890169143677e-01 -2.0571675896644592e-01</leafValues></_>
        <_>
          <internalNodes>
            0 -1 79 1.1242373846471310e-02</internalNodes>
          <leafValues>
            -2.6868489384651184e-01 4.6040350198745728e-01</leafValues></_>
        <_>
          <internalNodes>
            0 -1 124 1.2475301045924425e-03</internalNodes>
          <leafValues>
            2.1525853872299194e-01 -5.5713534355163574e-01</leafValues></_>
        <_>
          <internalNodes>
            0 -1 12 1.0904737748205662e-02</internalNodes>
          <leafValues>
            -3.4798178076744080e-01 3.5672605037689209e-01</leafValues></_></weakClassifiers></_>
    <!-- stage 12 -->
    <_>
      <maxWeakCount>11</maxWeakCount>
      <stageThreshold>-1.6393542289733887e+00</stageThreshold>
      <weakClassifiers>
        <_>
          <internalNodes>
            0 -1 51 -3.8022927939891815e-02</internalNodes>
          <leafValues>
            -1.0344827920198441e-01 -7.2863245010375977e-01</leafValues></_>
        <_>
          <internalNodes>
            0 -1 72 2.1705619990825653e-02</internalNodes>
          <leafValues>
            -3.7327054142951965e-01 2.7742537856101990e-01</leafValues></_>
        <_>
          <internalNodes>
            0 -1 93 -1.8124263733625412e-03</internalNodes>
          <leafValues>
            -4.9952110648155212e-01 1.8616022169589996e-01</leafValues></_>
        <_>
          <internalNodes>
            0 -1 116 -1.7730003455653787e-03</internalNodes>
          <leafValues>
            -4.3893760442733765e-01 2.1658505499362946e-01</leafValues></_>
        <_>
          <internalNodes>
            0 -1 107 -3.0178814195096493e-03</internalNodes>
          <leafValues>
            -8.5266482830047607e-01 1.5224552154541016e-01</leafValues></_>
        <_>
          <internalNodes>
            0 -1 100 4.9881306476891041e-03</internalNodes>
          <leafValues>
            -3.1717425584793091e-01 2.8521394729614258e-01</leafValues></_>
        <_>
          <internalNodes>
            0 -1 49 9.5239998772740364e-03</internalNodes>
          <leafValues>
            -2.0231162011623383e-01 7.0174634456634521e-01</leafValues></_>
        <_>
          <internalNodes>
            0 -1 34 -7.9370732419192791e-04</internalNodes>
          <leafValues>
            -5.9845930337905884e-01 1.8969826400279999e-01</leafValues></_>
        <_>
          <internalNodes>
            0 -1 117 -1.4445378910750151e-03</internalNodes>
          <leafValues>
            -5.8219999074935913e-01 1.6355672478675842e-01</leafValues></_>
        <_>
          <internalNodes>
            0 -1 115 -1.4486722648143768e-03</internalNodes>
          <leafValues>
            -5.4381531476974487e-01 1.8141630291938782e-01</leafValues></_>
        <_>
          <internalNodes>
            0 -1 120 2.7613996062427759e-03</internalNodes>
          <leafValues>
            2.6280546188354492e-01 -3.8239574432373047e-01</leafValues></_></weakClassifiers></_>
    <!-- stage 13 -->
    <_>
      <maxWeakCount>10</maxWeakCount>
      <stageThreshold>-1.3215506076812744e+00</stageThreshold>
      <weakClassifiers>
        <_>
          <internalNodes>
            0 -1 46 -4.1332002729177475e-02</internalNodes>
          <leafValues>
            3.1818181276321411e-01 -7.0238095521926880e-01</leafValues></_>
        <_>
          <internalNodes>
            0 -1 98 1.9893055781722069e-02</internalNodes>
          <leafValues>
            -5.1329088211059570e-01 1.9523498415946960e-01</leafValues></_>
        <_>
          <internalNodes>
            0 -1 21 1.1334961745887995e-03</internalNodes>
          <leafValues>
            1.9450265169143677e-01 -4.8786181211471558e-01</leafValues></_>
        <_>
          <internalNodes>
            0 -1 132 1.2272358871996403e-03</internalNodes>
          <leafValues>
            2.2504904866218567e-01 -4.9410566687583923e-01</leafValues></_>
        <_>
          <internalNodes>
            0 -1 64 2.6891581714153290e-02</internalNodes>
          <leafValues>
            -2.3464110493659973e-01 4.0976959466934204e-01</leafValues></_>
        <_>
          <internalNodes>
            0 -1 3 4.2639978229999542e-02</internalNodes>
          <leafValues>
            -1.7345799505710602e-01 5.4531133174896240e-01</leafValues></_>
        <_>
          <internalNodes>
            0 -1 15 1.4181048609316349e-02</internalNodes>
          <leafValues>
            -1.7427636682987213e-01 5.5411231517791748e-01</leafValues></_>
        <_>
          <internalNodes>
            0 -1 27 -1.0317361447960138e-03</internalNodes>
          <leafValues>
            -4.7972458600997925e-01 2.6107472181320190e-01</leafValues></_>
        <_>
          <internalNodes>
            0 -1 19 8.6265587015077472e-05</internalNodes>
          <leafValues>
            -2.9121521115303040e-01 3.2119426131248474e-01</leafValues></_>
        <_>
          <internalNodes>
            0 -1 130 7.3548324871808290e-04</internalNodes>
          <leafValues>
            1.8951813876628876e-01 -5.0228452682495117e-01</leafValues></_></weakClassifiers></_></stages>
  <features>
    <_>
      <rects>
        <_>
          0 0 24 21 -1.</_>
        <_>
          12 0 12 21 2.</_></rects>
      <tilted>0</tilted></_>
    <_>
      <rects>
        <_>
          0 2 24 22 -1.</_>
        <_>
          8 2 8 22 3.</_></rects>
      <tilted>0</tilted></_>
    <_>
      <rects>
        <_>
          0 4 16 9 -1.</_>
        <_>
          0 7 16 3 3.</_></rects>
      <tilted>0</tilted></_>
    <_>
      <rects>
        <_>
          1 5 13 9 -1.</_>
        <_>
          1 8 13 3 3.</_></rects>
      <tilted>0</tilted></_>
    <_>
      <rects>
        <_>
          1 7 2 1 -1.</_>
        <_>
          2 7 1 1 2.</_></rects>
      <tilted>0</tilted></_>
    <_>
      <rects>
        <_>
          1 7 12 9 -1.</_>
        <_>
          5 7 4 9 3.</_></rects>
      <tilted>0</tilted></_>
    <_>
      <rects>
        <_>
          1 9 6 4 -1.</_>
        <_>
          4 9 3 4 2.</_></rects>
      <tilted>0</tilted></_>
    <_>
      <rects>
        <_>
          2 9 4 2 -1.</_>
        <_>
          4 9 2 2 2.</_></rects>
      <tilted>0</tilted></_>
    <_>
      <rects>
        <_>
          3 0 4 24 -1.</_>
        <_>
          3 8 4 8 3.</_></rects>
      <tilted>0</tilted></_>
    <_>
      <rects>
        <_>
          3 7 1 4 -1.</_>
        <_>
          3 9 1 2 2.</_></rects>
      <tilted>0</tilted></_>
    <_>
      <rects>
        <_>
          4 0 2 2 -1.</_>
        <_>
          4 0 1 1 2.</_>
        <_>
          5 1 1 1 2.</_></rects>
      <tilted>0</tilted></_>
    <_>
      <rects>
        <_>
          4 3 10 9 -1.</_>
        <_>
          4 6 10 3 3.</_></rects>
      <tilted>0</tilted></_>
    <_>
      <rects>
        <_>
          4 5 9 9 -1.</_>
        <_>
          7 5 3 9 3.</_></rects>
      <tilted>0</tilted></_>
    <_>
      <rects>
        <_>
          4 8 4 4 -1.</_>
        <_>
          4 10 4 2 2.</_></rects>
      <tilted>0</tilted></_>
    <_>
      <rects>
        <_>
          4 9 4 2 -1.</_>
        <_>
          6 9 2 2 2.</_></rects>
      <tilted>0</tilted></_>
    <_>
      <rects>
        <_>
          4 9 12 6 -1.</_>
        <_>
          4 11 12 2 3.</_></rects>
      <tilted>0</tilted></_>
    <_>
      <rects>
        <_>
          4 10 1 10 -1.</_>
        <_>
          4 15 1 5 2.</_></rects>
      <tilted>0</tilted></_>
    <_>
      <rects>
        <_>
          4 10 4 2 -1.</_>
        <_>
          6 10 2 2 2.</_></rects>
      <tilted>0</tilted></_>
    <_>
      <rects>
        <_>
          4 13 1 4 -1.</_>
        <_>
          4 15 1 2 2.</_></rects>
      <tilted>0</tilted></_>
    <_>
      <rects>
        <_>
          4 17 3 2 -1.</_>
        <_>
          4 18 3 1 2.</_></rects>
      <tilted>0</tilted></_>
    <_>
      <rects>
        <_>
          4 22 2 2 -1.</_>
        <_>
          4 22 1 1 2.</_>
        <_>
          5 23 1 1 2.</_></rects>
      <tilted>0</tilted></_>
    <_>
      <rects>
        <_>
          5 6 6 1 -1.</_>
        <_>
          8 6 3 1 2.</_></rects>
      <tilted>0</tilted></_>
    <_>
      <rects>
        <_>
          5 8 1 6 -1.</_>
        <_>
          5 11 1 3 2.</_></rects>
      <tilted>0</tilted></_>
    <_>
      <rects>
        <_>
          5 8 6 9 -1.</_>
        <_>
          7 8 2 9 3.</_></rects>
      <tilted>0</tilted></_>
    <_>
      <rects>
        <_>
          5 9 1 6 -1.</_>
        <_>
          5 12 1 3 2.</_></rects>
      <tilted>0</tilted></_>
    <_>
      <rects>
        <_>
          5 10 14 14 -1.</_>
        <_>
          5 17 14 7 2.</_></rects>
      <tilted>0</tilted></_>
    <_>
      <rects>
        <_>
          5 11 12 1 -1.</_>
        <_>
          9 11 4 1 3.</_></rects>
      <tilted>0</tilted></_>
    <_>
      <rects>
        <_>
          5 12 2 4 -1.</_>
        <_>
          5 14 2 2 2.</_></rects>
      <tilted>0</tilted></_>
    <_>
      <rects>
        <_>
          5 12 4 3 -1.</_>
        <_>
          5 13 4 1 3.</_></rects>
      <tilted>0</tilted></_>
    <_>
      <rects>
        <_>
          5 13 6 4 -1.</_>
        <_>
          5 15 6 2 2.</_></rects>
      <tilted>0</tilted></_>
    <_>
      <rects>
        <_>
          5 19 2 2 -1.</_>
        <_>
          5 19 1 1 2.</_>
        <_>
          6 20 1 1 2.</_></rects>
      <tilted>0</tilted></_>
    <_>
      <rects>
        <_>
          5 20 3 2 -1.</_>
        <_>
          5 21 3 1 2.</_></rects>
      <tilted>0</tilted></_>
    <_>
      <rects>
        <_>
          6 7 1 6 -1.</_>
        <_>
          6 9 1 2 3.</_></rects>
      <tilted>0</tilted></_>
    <_>
      <rects>
        <_>
          6 8 9 6 -1.</_>
        <_>
          6 10 9 2 3.</_></rects>
      <tilted>0</tilted></_>
    <_>
      <rects>
        <_>
          6 9 1 4 -1.</_>
        <_>
          6 11 1 2 2.</_></rects>
      <tilted>0</tilted></_>
    <_>
      <rects>
        <_>
          6 9 1 6 -1.</_>
        <_>
          6 12 1 3 2.</_></rects>
      <tilted>0</tilted></_>
    <_>
      <rects>
        <_>
          6 9 1 14 -1.</_>
        <_>
          6 16 1 7 2.</_></rects>
      <tilted>0</tilted></_>
    <_>
      <rects>
        <_>
          6 9 9 6 -1.</_>
        <_>
          6 12 9 3 2.</_></rects>
      <tilted>0</tilted></_>
    <_>
      <rects>
        <_>
          6 9 11 6 -1.</_>
        <_>
          6 11 11 2 3.</_></rects>
      <tilted>0</tilted></_>
    <_>
      <rects>
        <_>
          6 12 12 1 -1.</_>
        <_>
          10 12 4 1 3.</_></rects>
      <tilted>0</tilted></_>
    <_>
      <rects>
        <_>
          6 15 9 1 -1.</_>
        <_>
          9 15 3 1 3.</_></rects>
      <tilted>0</tilted></_>
    <_>
      <rects>
        <_>
          6 19 2 2 -1.</_>
        <_>
          6 19 1 1 2.</_>
        <_>
          7 20 1 1 2.</_></rects>
      <tilted>0</tilted></_>
    <_>
      <rects>
        <_>
          7 0 12 19 -1.</_>
        <_>
          11 0 4 19 3.</_></rects>
      <tilted>0</tilted></_>
    <_>
      <rects>
        <_>
          7 0 10 12 -1.</_>
        <_>
          7 4 10 4 3.</_></rects>
      <tilted>0</tilted></_>
    <_>
      <rects>
        <_>
          7 5 6 2 -1.</_>
        <_>
          10 5 3 2 2.</_></rects>
      <tilted>0</tilted></_>
    <_>
      <rects>
        <_>
          7 6 6 15 -1.</_>
        <_>
          9 6 2 15 3.</_></rects>
      <tilted>0</tilted></_>
    <_>
      <rects>
        <_>
          7 6 6 6 -1.</_>
        <_>
          7 8 6 2 3.</_></rects>
      <tilted>0</tilted></_>
    <_>
      <rects>
        <_>
          7 7 6 11 -1.</_>
        <_>
          9 7 2 11 3.</_></rects>
      <tilted>0</tilted></_>
    <_>
      <rects>
        <_>
          7 7 7 6 -1.</_>
        <_>
          7 9 7 2 3.</_></rects>
      <tilted>0</tilted></_>
    <_>
      <rects>
        <_>
          7 8 6 7 -1.</_>
        <_>
          9 8 2 7 3.</_></rects>
      <tilted>0</tilted></_>
    <_>
      <rects>
        <_>
          7 8 7 6 -1.</_>
        <_>
          7 10 7 2 3.</_></rects>
      <tilted>0</tilted></_>
    <_>
      <rects>
        <_>
          7 9 7 6 -1.</_>
        <_>
          7 11 7 2 3.</_></rects>
      <tilted>0</tilted></_>
    <_>
      <rects>
        <_>
          7 11 2 2 -1.</_>
        <_>
          7 11 1 1 2.</_>
        <_>
          8 12 1 1 2.</_></rects>
      <tilted>0</tilted></_>
    <_>
      <rects>
        <_>
          7 11 9 1 -1.</_>
        <_>
          10 11 3 1 3.</_></rects>
      <tilted>0</tilted></_>
    <_>
      <rects>
        <_>
          7 12 12 1 -1.</_>
        <_>
          11 12 4 1 3.</_></rects>
      <tilted>0</tilted></_>
    <_>
      <rects>
        <_>
          7 16 6 1 -1.</_>
        <_>
          10 16 3 1 2.</_></rects>
      <tilted>0</tilted></_>
    <_>
      <rects>
        <_>
          7 19 2 2 -1.</_>
        <_>
          7 19 1 1 2.</_>
        <_>
          8 20 1 1 2.</_></rects>
      <tilted>0</tilted></_>
    <_>
      <rects>
        <_>
          8 0 3 6 -1.</_>
        <_>
          8 3 3 3 2.</_></rects>
      <tilted>0</tilted></_>
    <_>
      <rects>
        <_>
          8 3 6 12 -1.</_>
        <_>
          10 3 2 12 3.</_></rects>
      <tilted>0</tilted></_>
    <_>
      <rects>
        <_>
          8 5 6 10 -1.</_>
        <_>
          10 5 2 10 3.</_></rects>
      <tilted>0</tilted></_>
    <_>
      <rects>
        <_>
          8 5 9 9 -1.</_>
        <_>
          11 5 3 9 3.</_></rects>
      <tilted>0</tilted></_>
    <_>
      <rects>
        <_>
          8 5 5 9 -1.</_>
        <_>
          8 8 5 3 3.</_></rects>
      <tilted>0</tilted></_>
    <_>
      <rects>
        <_>
          8 5 6 9 -1.</_>
        <_>
          8 8 6 3 3.</_></rects>
      <tilted>0</tilted></_>
    <_>
      <rects>
        <_>
          8 6 2 2 -1.</_>
        <_>
          8 6 1 1 2.</_>
        <_>
          9 7 1 1 2.</_></rects>
      <tilted>0</tilted></_>
    <_>
      <rects>
        <_>
          8 6 10 6 -1.</_>
        <_>
          8 6 5 3 2.</_>
        <_>
          13 9 5 3 2.</_></rects>
      <tilted>0</tilted></_>
    <_>
      <rects>
        <_>
          8 7 6 9 -1.</_>
        <_>
          8 10 6 3 3.</_></rects>
      <tilted>0</tilted></_>
    <_>
      <rects>
        <_>
          8 8 6 6 -1.</_>
        <_>
          10 8 2 6 3.</_></rects>
      <tilted>0</tilted></_>
    <_>
      <rects>
        <_>
          8 8 6 7 -1.</_>
        <_>
          10 8 2 7 3.</_></rects>
      <tilted>0</tilted></_>
    <_>
      <rects>
        <_>
          8 8 6 9 -1.</_>
        <_>
          10 8 2 9 3.</_></rects>
      <tilted>0</tilted></_>
    <_>
      <rects>
        <_>
          8 8 8 16 -1.</_>
        <_>
          8 8 4 8 2.</_>
        <_>
          12 16 4 8 2.</_></rects>
      <tilted>0</tilted></_>
    <_>
      <rects>
        <_>
          8 9 6 4 -1.</_>
        <_>
          8 9 3 2 2.</_>
        <_>
          11 11 3 2 2.</_></rects>
      <tilted>0</tilted></_>
    <_>
      <rects>
        <_>
          8 9 6 6 -1.</_>
        <_>
          8 9 3 3 2.</_>
        <_>
          11 12 3 3 2.</_></rects>
      <tilted>0</tilted></_>
    <_>
      <rects>
        <_>
          8 9 5 9 -1.</_>
        <_>
          8 12 5 3 3.</_></rects>
      <tilted>0</tilted></_>
    <_>
      <rects>
        <_>
          8 9 8 9 -1.</_>
        <_>
          8 12 8 3 3.</_></rects>
      <tilted>0</tilted></_>
    <_>
      <rects>
        <_>
          8 10 8 2 -1.</_>
        <_>
          8 10 4 1 2.</_>
        <_>
          12 11 4 1 2.</_></rects>
      <tilted>0</tilted></_>
    <_>
      <rects>
        <_>
          8 10 7 2 -1.</_>
        <_>
          8 11 7 1 2.</_></rects>
      <tilted>0</tilted></_>
    <_>
      <rects>
        <_>
          8 11 2 2 -1.</_>
        <_>
          8 11 1 1 2.</_>
        <_>
          9 12 1 1 2.</_></rects>
      <tilted>0</tilted></_>
    <_>
      <rects>
        <_>
          8 15 4 2 -1.</_>
        <_>
          10 15 2 2 2.</_></rects>
      <tilted>0</tilted></_>
    <_>
      <rects>
        <_>
          8 15 8 1 -1.</_>
        <_>
          12 15 4 1 2.</_></rects>
      <tilted>0</tilted></_>
    <_>
      <rects>
        <_>
          9 0 6 16 -1.</_>
        <_>
          11 0 2 16 3.</_></rects>
      <tilted>0</tilted></_>
    <_>
      <rects>
        <_>
          9 2 6 15 -1.</_>
        <_>
          12 2 3 15 2.</_></rects>
      <tilted>0</tilted></_>
    <_>
      <rects>
        <_>
          9 5 3 12 -1.</_>
        <_>
          9 9 3 4 3.</_></rects>
      <tilted>0</tilted></_>
    <_>
      <rects>
        <_>
          9 6 5 9 -1.</_>
        <_>
          9 9 5 3 3.</_></rects>
      <tilted>0</tilted></_>
    <_>
      <rects>
        <_>
          9 6 10 11 -1.</_>
        <_>
          14 6 5 11 2.</_></rects>
      <tilted>0</tilted></_>
    <_>
      <rects>
        <_>
          9 8 2 2 -1.</_>
        <_>
          9 8 1 1 2.</_>
        <_>
          10 9 1 1 2.</_></rects>
      <tilted>0</tilted></_>
    <_>
      <rects>
        <_>
          9 8 9 7 -1.</_>
        <_>
          12 8 3 7 3.</_></rects>
      <tilted>0</tilted></_>
    <_>
      <rects>
        <_>
          9 8 10 4 -1.</_>
        <_>
          9 8 5 2 2.</_>
        <_>
          14 10 5 2 2.</_></rects>
      <tilted>0</tilted></_>
    <_>
      <rects>
        <_>
          9 9 3 7 -1.</_>
        <_>
          10 9 1 7 3.</_></rects>
      <tilted>0</tilted></_>
    <_>
      <rects>
        <_>
          9 9 15 6 -1.</_>
        <_>
          14 9 5 6 3.</_></rects>
      <tilted>0</tilted></_>
    <_>
      <rects>
        <_>
          9 9 6 15 -1.</_>
        <_>
          9 14 6 5 3.</_></rects>
      <tilted>0</tilted></_>
    <_>
      <rects>
        <_>
          9 10 9 6 -1.</_>
        <_>
          12 10 3 6 3.</_></rects>
      <tilted>0</tilted></_>
    <_>
      <rects>
        <_>
          9 10 5 6 -1.</_>
        <_>
          9 12 5 2 3.</_></rects>
      <tilted>0</tilted></_>
    <_>
      <rects>
        <_>
          9 12 2 2 -1.</_>
        <_>
          9 12 1 1 2.</_>
        <_>
          10 13 1 1 2.</_></rects>
      <tilted>0</tilted></_>
    <_>
      <rects>
        <_>
          9 13 2 6 -1.</_>
        <_>
          9 16 2 3 2.</_></rects>
      <tilted>0</tilted></_>
    <_>
      <rects>
        <_>
          9 15 3 6 -1.</_>
        <_>
          9 18 3 3 2.</_></rects>
      <tilted>0</tilted></_>
    <_>
      <rects>
        <_>
          10 0 14 23 -1.</_>
        <_>
          17 0 7 23 2.</_></rects>
      <tilted>0</tilted></_>
    <_>
      <rects>
        <_>
          10 1 4 17 -1.</_>
        <_>
          12 1 2 17 2.</_></rects>
      <tilted>0</tilted></_>
    <_>
      <rects>
        <_>
          10 3 3 4 -1.</_>
        <_>
          10 5 3 2 2.</_></rects>
      <tilted>0</tilted></_>
    <_>
      <rects>
        <_>
          10 3 8 12 -1.</_>
        <_>
          10 3 4 6 2.</_>
        <_>
          14 9 4 6 2.</_></rects>
      <tilted>0</tilted></_>
    <_>
      <rects>
        <_>
          10 5 10 2 -1.</_>
        <_>
          15 5 5 2 2.</_></rects>
      <tilted>0</tilted></_>
    <_>
      <rects>
        <_>
          10 7 6 7 -1.</_>
        <_>
          12 7 2 7 3.</_></rects>
      <tilted>0</tilted></_>
    <_>
      <rects>
        <_>
          10 8 4 10 -1.</_>
        <_>
          10 8 2 5 2.</_>
        <_>
          12 13 2 5 2.</_></rects>
      <tilted>0</tilted></_>
    <_>
      <rects>
        <_>
          10 8 14 2 -1.</_>
        <_>
          10 9 14 1 2.</_></rects>
      <tilted>0</tilted></_>
    <_>
      <rects>
        <_>
          10 9 6 7 -1.</_>
        <_>
          12 9 2 7 3.</_></rects>
      <tilted>0</tilted></_>
    <_>
      <rects>
        <_>
          10 10 2 2 -1.</_>
        <_>
          10 10 1 1 2.</_>
        <_>
          11 11 1 1 2.</_></rects>
      <tilted>0</tilted></_>
    <_>
      <rects>
        <_>
          11 1 1 4 -1.</_>
        <_>
          11 3 1 2 2.</_></rects>
      <tilted>0</tilted></_>
    <_>
      <rects>
        <_>
          11 1 2 17 -1.</_>
        <_>
          12 1 1 17 2.</_></rects>
      <tilted>0</tilted></_>
    <_>
      <rects>
        <_>
          11 2 3 5 -1.</_>
        <_>
          12 2 1 5 3.</_></rects>
      <tilted>0</tilted></_>
    <_>
      <rects>
        <_>
          11 5 6 2 -1.</_>
        <_>
          14 5 3 2 2.</_></rects>
      <tilted>0</tilted></_>
    <_>
      <rects>
        <_>
          11 5 6 16 -1.</_>
        <_>
          11 5 3 8 2.</_>
        <_>
          14 13 3 8 2.</_></rects>
      <tilted>0</tilted></_>
    <_>
      <rects>
        <_>
          11 9 2 9 -1.</_>
        <_>
          11 12 2 3 3.</_></rects>
      <tilted>0</tilted></_>
    <_>
      <rects>
        <_>
          11 18 1 2 -1.</_>
        <_>
          11 19 1 1 2.</_></rects>
      <tilted>0</tilted></_>
    <_>
      <rects>
        <_>
          11 20 1 4 -1.</_>
        <_>
          11 22 1 2 2.</_></rects>
      <tilted>0</tilted></_>
    <_>
      <rects>
        <_>
          12 3 4 3 -1.</_>
        <_>
          14 3 2 3 2.</_></rects>
      <tilted>0</tilted></_>
    <_>
      <rects>
        <_>
          12 15 6 1 -1.</_>
        <_>
          15 15 3 1 2.</_></rects>
      <tilted>0</tilted></_>
    <_>
      <rects>
        <_>
          13 5 1 6 -1.</_>
        <_>
          13 8 1 3 2.</_></rects>
      <tilted>0</tilted></_>
    <_>
      <rects>
        <_>
          13 6 4 7 -1.</_>
        <_>
          15 6 2 7 2.</_></rects>
      <tilted>0</tilted></_>
    <_>
      <rects>
        <_>
          13 12 3 4 -1.</_>
        <_>
          13 14 3 2 2.</_></rects>
      <tilted>0</tilted></_>
    <_>
      <rects>
        <_>
          13 14 4 1 -1.</_>
        <_>
          15 14 2 1 2.</_></rects>
      <tilted>0</tilted></_>
    <_>
      <rects>
        <_>
          13 20 2 2 -1.</_>
        <_>
          13 20 1 1 2.</_>
        <_>
          14 21 1 1 2.</_></rects>
      <tilted>0</tilted></_>
    <_>
      <rects>
        <_>
          14 3 3 12 -1.</_>
        <_>
          14 9 3 6 2.</_></rects>
      <tilted>0</tilted></_>
    <_>
      <rects>
        <_>
          14 4 1 6 -1.</_>
        <_>
          14 7 1 3 2.</_></rects>
      <tilted>0</tilted></_>
    <_>
      <rects>
        <_>
          14 5 1 4 -1.</_>
        <_>
          14 7 1 2 2.</_></rects>
      <tilted>0</tilted></_>
    <_>
      <rects>
        <_>
          14 9 2 2 -1.</_>
        <_>
          14 9 1 1 2.</_>
        <_>
          15 10 1 1 2.</_></rects>
      <tilted>0</tilted></_>
    <_>
      <rects>
        <_>
          14 9 4 2 -1.</_>
        <_>
          16 9 2 2 2.</_></rects>
      <tilted>0</tilted></_>
    <_>
      <rects>
        <_>
          14 10 4 2 -1.</_>
        <_>
          16 10 2 2 2.</_></rects>
      <tilted>0</tilted></_>
    <_>
      <rects>
        <_>
          14 10 2 6 -1.</_>
        <_>
          14 13 2 3 2.</_></rects>
      <tilted>0</tilted></_>
    <_>
      <rects>
        <_>
          14 12 1 4 -1.</_>
        <_>
          14 14 1 2 2.</_></rects>
      <tilted>0</tilted></_>
    <_>
      <rects>
        <_>
          14 13 3 10 -1.</_>
        <_>
          14 18 3 5 2.</_></rects>
      <tilted>0</tilted></_>
    <_>
      <rects>
        <_>
          14 13 10 2 -1.</_>
        <_>
          19 13 5 2 2.</_></rects>
      <tilted>0</tilted></_>
    <_>
      <rects>
        <_>
          15 3 1 4 -1.</_>
        <_>
          15 5 1 2 2.</_></rects>
      <tilted>0</tilted></_>
    <_>
      <rects>
        <_>
          15 7 4 2 -1.</_>
        <_>
          17 7 2 2 2.</_></rects>
      <tilted>0</tilted></_>
    <_>
      <rects>
        <_>
          15 7 2 4 -1.</_>
        <_>
          15 9 2 2 2.</_></rects>
      <tilted>0</tilted></_>
    <_>
      <rects>
        <_>
          15 9 2 4 -1.</_>
        <_>
          15 11 2 2 2.</_></rects>
      <tilted>0</tilted></_>
    <_>
      <rects>
        <_>
          15 13 4 3 -1.</_>
        <_>
          17 13 2 3 2.</_></rects>
      <tilted>0</tilted></_>
    <_>
      <rects>
        <_>
          15 17 2 2 -1.</_>
        <_>
          15 17 1 1 2.</_>
        <_>
          16 18 1 1 2.</_></rects>
      <tilted>0</tilted></_>
    <_>
      <rects>
        <_>
          18 11 1 8 -1.</_>
        <_>
          18 15 1 4 2.</_></rects>
      <tilted>0</tilted></_>
    <_>
      <rects>
        <_>
          19 2 2 2 -1.</_>
        <_>
          19 2 1 1 2.</_>
        <_>
          20 3 1 1 2.</_></rects>
      <tilted>0</tilted></_>
    <_>
      <rects>
        <_>
          20 14 2 2 -1.</_>
        <_>
          20 14 1 1 2.</_>
        <_>
          21 15 1 1 2.</_></rects>
      <tilted>0</tilted></_></features></cascade>
</opencv_storage>
