<?xml version="1.0"?>
<opencv_storage>
<cascade>
  <stageType>BOOST</stageType>
  <featureType>HAAR</featureType>
  <height>24</height>
  <width>24</width>
  <stageParams>
    <boostType>GAB</boostType>
    <minHitRate>9.9500000476837158e-01</minHitRate>
    <maxFalseAlarm>5.0000000000000000e-01</maxFalseAlarm>
    <weightTrimRate>9.4999999999999996e-01</weightTrimRate>
    <maxDepth>1</maxDepth>
    <maxWeakCount>100</maxWeakCount></stageParams>
  <featureParams>
    <maxCatCount>0</maxCatCount>
    <featSize>1</featSize>
    <mode>BASIC</mode></featureParams>
  <stageNum>9</stageNum>
  <stages>
    <!-- stage 0 -->
    <_>
      <maxWeakCount>2</maxWeakCount>
      <stageThreshold>-2.4625256657600403e-01</stageThreshold>
      <weakClassifiers>
        <_>
          <internalNodes>
            0 -1 7 -4.7865563631057739e-01</internalNodes>
          <leafValues>
            7.4257427453994751e-01 -9.9554568529129028e-01</leafValues></_>
        <_>
          <internalNodes>
            0 -1 1 -5.4385364055633545e-01</internalNodes>
          <leafValues>
            7.4929308891296387e-01 -9.6498656272888184e-01</leafValues></_></weakClassifiers></_>
    <!-- stage 1 -->
    <_>
      <maxWeakCount>2</maxWeakCount>
      <stageThreshold>-5.3804349899291992e-01</stageThreshold>
      <weakClassifiers>
        <_>
          <internalNodes>
            0 -1 16 -7.6615095138549805e-02</internalNodes>
          <leafValues>
            4.0740740299224854e-01 -9.4117647409439087e-01</leafValues></_>
        <_>
          <internalNodes>
            0 -1 22 1.0885227471590042e-01</internalNodes>
          <leafValues>
            -9.4545090198516846e-01 5.0795334577560425e-01</leafValues></_></weakClassifiers></_>
    <!-- stage 2 -->
    <_>
      <maxWeakCount>3</maxWeakCount>
      <stageThreshold>-1.5730379819869995e+00</stageThreshold>
      <weakClassifiers>
        <_>
          <internalNodes>
            0 -1 10 -9.9864505231380463e-02</internalNodes>
          <leafValues>
            5.1063829660415649e-01 -9.2105263471603394e-01</leafValues></_>
        <_>
          <internalNodes>
            0 -1 4 -1.1546995490789413e-01</internalNodes>
          <leafValues>
            4.8171263933181763e-01 -9.1676145792007446e-01</leafValues></_>
        <_>
          <internalNodes>
            0 -1 9 -2.5937354564666748e-01</internalNodes>
          <leafValues>
            2.6477608084678650e-01 -9.9065393209457397e-01</leafValues></_></weakClassifiers></_>
    <!-- stage 3 -->
    <_>
      <maxWeakCount>2</maxWeakCount>
      <stageThreshold>-1.1177586317062378e+00</stageThreshold>
      <weakClassifiers>
        <_>
          <internalNodes>
            0 -1 23 1.0751870274543762e-01</internalNodes>
          <leafValues>
            -9.4972068071365356e-01 -1.6666667163372040e-01</leafValues></_>
        <_>
          <internalNodes>
            0 -1 15 -5.4853439331054688e-02</internalNodes>
          <leafValues>
            1.2729464471340179e-01 -9.5109200477600098e-01</leafValues></_></weakClassifiers></_>
    <!-- stage 4 -->
    <_>
      <maxWeakCount>2</maxWeakCount>
      <stageThreshold>-1.0440425872802734e+00</stageThreshold>
      <weakClassifiers>
        <_>
          <internalNodes>
            0 -1 14 2.2009399533271790e-01</internalNodes>
          <leafValues>
            -9.4752186536788940e-01 -2.2705313563346863e-01</leafValues></_>
        <_>
          <internalNodes>
            0 -1 3 -1.1801873147487640e-01</internalNodes>
          <leafValues>
            2.1908691525459290e-01 -8.1698948144912720e-01</leafValues></_></weakClassifiers></_>
    <!-- stage 5 -->
    <_>
      <maxWeakCount>4</maxWeakCount>
      <stageThreshold>-1.2119483947753906e+00</stageThreshold>
      <weakClassifiers>
        <_>
          <internalNodes>
            0 -1 24 -3.4672789275646210e-02</internalNodes>
          <leafValues>
            -8.0645158886909485e-02 -8.4976524114608765e-01</leafValues></_>
        <_>
          <internalNodes>
            0 -1 8 -1.7239323258399963e-01</internalNodes>
          <leafValues>
            1.6467049717903137e-01 -8.6701631546020508e-01</leafValues></_>
        <_>
          <internalNodes>
            0 -1 0 -6.3859188556671143e-01</internalNodes>
          <leafValues>
            4.8180139064788818e-01 -6.2477976083755493e-01</leafValues></_>
        <_>
          <internalNodes>
            0 -1 12 -4.5927029848098755e-01</internalNodes>
          <leafValues>
            3.6049285531044006e-01 -7.9718613624572754e-01</leafValues></_></weakClassifiers></_>
    <!-- stage 6 -->
    <_>
      <maxWeakCount>3</maxWeakCount>
      <stageThreshold>-1.5694640874862671e+00</stageThreshold>
      <weakClassifiers>
        <_>
          <internalNodes>
            0 -1 5 -4.9750337004661560e-01</internalNodes>
          <leafValues>
            -1.2999999523162842e-01 -9.8857140541076660e-01</leafValues></_>
        <_>
          <internalNodes>
            0 -1 6 -3.5243824124336243e-02</internalNodes>
          <leafValues>
            1.9301851093769073e-01 -8.6732077598571777e-01</leafValues></_>
        <_>
          <internalNodes>
            0 -1 25 -3.7683197297155857e-04</internalNodes>
          <leafValues>
            -8.1664043664932251e-01 2.8642806410789490e-01</leafValues></_></weakClassifiers></_>
    <!-- stage 7 -->
    <_>
      <maxWeakCount>3</maxWeakCount>
      <stageThreshold>-1.2309772968292236e+00</stageThreshold>
      <weakClassifiers>
        <_>
          <internalNodes>
            0 -1 2 -6.4098930358886719e-01</internalNodes>
          <leafValues>
            -3.1343284249305725e-01 -8.8538682460784912e-01</leafValues></_>
        <_>
          <internalNodes>
            0 -1 21 -6.7411409690976143e-04</internalNodes>
          <leafValues>
            -1. 4.9785193055868149e-02</leafValues></_>
        <_>
          <internalNodes>
            0 -1 18 -1.3073751470074058e-03</internalNodes>
          <leafValues>
            -9.6732962131500244e-01 1.7059697210788727e-01</leafValues></_></weakClassifiers></_>
    <!-- stage 8 -->
    <_>
      <maxWeakCount>5</maxWeakCount>
      <stageThreshold>-1.1981879472732544e+00</stageThreshold>
      <weakClassifiers>
        <_>
          <internalNodes>
            0 -1 11 -7.4109181761741638e-02</internalNodes>
          <leafValues>
            5.7471264153718948e-02 -8.1425487995147705e-01</leafValues></_>
        <_>
          <internalNodes>
            0 -1 17 1.6905694501474500e-03</internalNodes>
          <leafValues>
            1.4715310931205750e-01 -9.1884356737136841e-01</leafValues></_>
        <_>
          <internalNodes>
            0 -1 19 8.2666857633739710e-04</internalNodes>
          <leafValues>
            1.5236161649227142e-01 -9.7780054807662964e-01</leafValues></_>
        <_>
          <internalNodes>
            0 -1 20 -6.5173977054655552e-04</internalNodes>
          <leafValues>
            -9.2978930473327637e-01 2.5793069601058960e-01</leafValues></_>
        <_>
          <internalNodes>
            0 -1 13 -1.3425059150904417e-03</internalNodes>
          <leafValues>
            2.4634155631065369e-01 -8.3186829090118408e-01</leafValues></_></weakClassifiers></_></stages>
  <features>
    <_>
      <rects>
        <_>
          0 1 24 20 -1.</_>
        <_>
          8 1 8 20 3.</_></rects>
      <tilted>0</tilted></_>
    <_>
      <rects>
        <_>
          0 2 24 20 -1.</_>
        <_>
          8 2 8 20 3.</_></rects>
      <tilted>0</tilted></_>
    <_>
      <rects>
        <_>
          0 2 24 21 -1.</_>
        <_>
          8 2 8 21 3.</_></rects>
      <tilted>0</tilted></_>
    <_>
      <rects>
        <_>
          0 3 8 15 -1.</_>
        <_>
          4 3 4 15 2.</_></rects>
      <tilted>0</tilted></_>
    <_>
      <rects>
        <_>
          0 3 8 18 -1.</_>
        <_>
          4 3 4 18 2.</_></rects>
      <tilted>0</tilted></_>
    <_>
      <rects>
        <_>
          0 3 24 19 -1.</_>
        <_>
          8 3 8 19 3.</_></rects>
      <tilted>0</tilted></_>
    <_>
      <rects>
        <_>
          0 4 24 1 -1.</_>
        <_>
          8 4 8 1 3.</_></rects>
      <tilted>0</tilted></_>
    <_>
      <rects>
        <_>
          1 0 20 24 -1.</_>
        <_>
          1 8 20 8 3.</_></rects>
      <tilted>0</tilted></_>
    <_>
      <rects>
        <_>
          2 0 6 24 -1.</_>
        <_>
          2 8 6 8 3.</_></rects>
      <tilted>0</tilted></_>
    <_>
      <rects>
        <_>
          2 0 18 21 -1.</_>
        <_>
          2 7 18 7 3.</_></rects>
      <tilted>0</tilted></_>
    <_>
      <rects>
        <_>
          2 0 21 6 -1.</_>
        <_>
          2 3 21 3 2.</_></rects>
      <tilted>0</tilted></_>
    <_>
      <rects>
        <_>
          2 3 21 2 -1.</_>
        <_>
          9 3 7 2 3.</_></rects>
      <tilted>0</tilted></_>
    <_>
      <rects>
        <_>
          4 0 17 24 -1.</_>
        <_>
          4 8 17 8 3.</_></rects>
      <tilted>0</tilted></_>
    <_>
      <rects>
        <_>
          4 2 2 6 -1.</_>
        <_>
          5 2 1 6 2.</_></rects>
      <tilted>0</tilted></_>
    <_>
      <rects>
        <_>
          4 12 17 12 -1.</_>
        <_>
          4 18 17 6 2.</_></rects>
      <tilted>0</tilted></_>
    <_>
      <rects>
        <_>
          6 0 14 12 -1.</_>
        <_>
          6 4 14 4 3.</_></rects>
      <tilted>0</tilted></_>
    <_>
      <rects>
        <_>
          7 12 10 12 -1.</_>
        <_>
          7 16 10 4 3.</_></rects>
      <tilted>0</tilted></_>
    <_>
      <rects>
        <_>
          8 15 8 2 -1.</_>
        <_>
          12 15 4 2 2.</_></rects>
      <tilted>0</tilted></_>
    <_>
      <rects>
        <_>
          9 16 6 2 -1.</_>
        <_>
          11 16 2 2 3.</_></rects>
      <tilted>0</tilted></_>
    <_>
      <rects>
        <_>
          10 5 3 6 -1.</_>
        <_>
          11 5 1 6 3.</_></rects>
      <tilted>0</tilted></_>
    <_>
      <rects>
        <_>
          10 6 3 5 -1.</_>
        <_>
          11 6 1 5 3.</_></rects>
      <tilted>0</tilted></_>
    <_>
      <rects>
        <_>
          10 14 6 1 -1.</_>
        <_>
          12 14 2 1 3.</_></rects>
      <tilted>0</tilted></_>
    <_>
      <rects>
        <_>
          14 3 10 9 -1.</_>
        <_>
          19 3 5 9 2.</_></rects>
      <tilted>0</tilted></_>
    <_>
      <rects>
        <_>
          14 12 10 9 -1.</_>
        <_>
          19 12 5 9 2.</_></rects>
      <tilted>0</tilted></_>
    <_>
      <rects>
        <_>
          19 0 1 21 -1.</_>
        <_>
          19 7 1 7 3.</_></rects>
      <tilted>0</tilted></_>
    <_>
      <rects>
        <_>
          21 0 1 6 -1.</_>
        <_>
          21 3 1 3 2.</_></rects>
      <tilted>0</tilted></_></features></cascade>
</opencv_storage>
