<?xml version="1.0"?>
<opencv_storage>
<cascade>
  <stageType>BOOST</stageType>
  <featureType>HAAR</featureType>
  <height>24</height>
  <width>24</width>
  <stageParams>
    <boostType>GAB</boostType>
    <minHitRate>9.9500000476837158e-01</minHitRate>
    <maxFalseAlarm>5.0000000000000000e-01</maxFalseAlarm>
    <weightTrimRate>9.4999999999999996e-01</weightTrimRate>
    <maxDepth>1</maxDepth>
    <maxWeakCount>100</maxWeakCount></stageParams>
  <featureParams>
    <maxCatCount>0</maxCatCount>
    <featSize>1</featSize>
    <mode>BASIC</mode></featureParams>
  <stageNum>9</stageNum>
  <stages>
    <!-- stage 0 -->
    <_>
      <maxWeakCount>2</maxWeakCount>
      <stageThreshold>-4.9910530447959900e-01</stageThreshold>
      <weakClassifiers>
        <_>
          <internalNodes>
            0 -1 31 1.0725999623537064e-01</internalNodes>
          <leafValues>
            -9.4470047950744629e-01 4.6666666865348816e-01</leafValues></_>
        <_>
          <internalNodes>
            0 -1 15 6.5103068947792053e-02</internalNodes>
          <leafValues>
            -9.3937122821807861e-01 4.4559514522552490e-01</leafValues></_></weakClassifiers></_>
    <!-- stage 1 -->
    <_>
      <maxWeakCount>4</maxWeakCount>
      <stageThreshold>-1.4076384305953979e+00</stageThreshold>
      <weakClassifiers>
        <_>
          <internalNodes>
            0 -1 13 -7.2687640786170959e-02</internalNodes>
          <leafValues>
            2.6666668057441711e-01 -9.3794751167297363e-01</leafValues></_>
        <_>
          <internalNodes>
            0 -1 0 -6.0151286423206329e-02</internalNodes>
          <leafValues>
            3.7430077791213989e-01 -9.2276203632354736e-01</leafValues></_>
        <_>
          <internalNodes>
            0 -1 28 1.3381785154342651e-01</internalNodes>
          <leafValues>
            -9.5873630046844482e-01 1.8161685764789581e-01</leafValues></_>
        <_>
          <internalNodes>
            0 -1 6 -4.6651498996652663e-04</internalNodes>
          <leafValues>
            2.7145424485206604e-01 -8.4390729665756226e-01</leafValues></_></weakClassifiers></_>
    <!-- stage 2 -->
    <_>
      <maxWeakCount>4</maxWeakCount>
      <stageThreshold>-1.6458317041397095e+00</stageThreshold>
      <weakClassifiers>
        <_>
          <internalNodes>
            0 -1 11 -1.2224054336547852e-01</internalNodes>
          <leafValues>
            -1.2345679104328156e-01 -9.0450930595397949e-01</leafValues></_>
        <_>
          <internalNodes>
            0 -1 35 2.8080103220418096e-05</internalNodes>
          <leafValues>
            -7.2465020418167114e-01 3.0432081222534180e-01</leafValues></_>
        <_>
          <internalNodes>
            0 -1 4 -9.1097861528396606e-02</internalNodes>
          <leafValues>
            4.6192944049835205e-01 -6.8111580610275269e-01</leafValues></_>
        <_>
          <internalNodes>
            0 -1 23 -2.3790948092937469e-02</internalNodes>
          <leafValues>
            6.1978638172149658e-01 -4.7860166430473328e-01</leafValues></_></weakClassifiers></_>
    <!-- stage 3 -->
    <_>
      <maxWeakCount>2</maxWeakCount>
      <stageThreshold>-5.8969980478286743e-01</stageThreshold>
      <weakClassifiers>
        <_>
          <internalNodes>
            0 -1 16 -6.8220831453800201e-02</internalNodes>
          <leafValues>
            5.1351350545883179e-01 -7.5697213411331177e-01</leafValues></_>
        <_>
          <internalNodes>
            0 -1 26 1.1502000689506531e-01</internalNodes>
          <leafValues>
            -1. 1.6727231442928314e-01</leafValues></_></weakClassifiers></_>
    <!-- stage 4 -->
    <_>
      <maxWeakCount>4</maxWeakCount>
      <stageThreshold>-6.7482632398605347e-01</stageThreshold>
      <weakClassifiers>
        <_>
          <internalNodes>
            0 -1 9 -1.1049254983663559e-01</internalNodes>
          <leafValues>
            5.7575756311416626e-01 -7.5098812580108643e-01</leafValues></_>
        <_>
          <internalNodes>
            0 -1 7 4.9414090812206268e-02</internalNodes>
          <leafValues>
            -9.1501504182815552e-01 1.7295360565185547e-01</leafValues></_>
        <_>
          <internalNodes>
            0 -1 14 -1.8113089725375175e-02</internalNodes>
          <leafValues>
            6.3938879966735840e-01 -4.1756507754325867e-01</leafValues></_>
        <_>
          <internalNodes>
            0 -1 34 5.3114409092813730e-04</internalNodes>
          <leafValues>
            -7.0468580722808838e-01 3.5178810358047485e-01</leafValues></_></weakClassifiers></_>
    <!-- stage 5 -->
    <_>
      <maxWeakCount>6</maxWeakCount>
      <stageThreshold>-9.8567396402359009e-01</stageThreshold>
      <weakClassifiers>
        <_>
          <internalNodes>
            0 -1 30 -6.7546896636486053e-02</internalNodes>
          <leafValues>
            1.8032786250114441e-01 -7.7824270725250244e-01</leafValues></_>
        <_>
          <internalNodes>
            0 -1 27 -6.0887433588504791e-02</internalNodes>
          <leafValues>
            3.7705928087234497e-01 -5.9839743375778198e-01</leafValues></_>
        <_>
          <internalNodes>
            0 -1 18 -2.3077594232745469e-04</internalNodes>
          <leafValues>
            2.3948781192302704e-01 -8.2902824878692627e-01</leafValues></_>
        <_>
          <internalNodes>
            0 -1 29 -1.8645230680704117e-02</internalNodes>
          <leafValues>
            5.5718535184860229e-01 -3.8259774446487427e-01</leafValues></_>
        <_>
          <internalNodes>
            0 -1 12 -4.3164879083633423e-02</internalNodes>
          <leafValues>
            8.4789425134658813e-01 -2.3043026030063629e-01</leafValues></_>
        <_>
          <internalNodes>
            0 -1 21 -1.4858907088637352e-02</internalNodes>
          <leafValues>
            8.7854397296905518e-01 -1.7527675628662109e-01</leafValues></_></weakClassifiers></_>
    <!-- stage 6 -->
    <_>
      <maxWeakCount>4</maxWeakCount>
      <stageThreshold>-1.3108267784118652e+00</stageThreshold>
      <weakClassifiers>
        <_>
          <internalNodes>
            0 -1 3 -8.6985751986503601e-02</internalNodes>
          <leafValues>
            -1.6770187020301819e-01 -8.8359791040420532e-01</leafValues></_>
        <_>
          <internalNodes>
            0 -1 2 -9.5799908041954041e-02</internalNodes>
          <leafValues>
            5.1640897989273071e-01 -5.4180526733398438e-01</leafValues></_>
        <_>
          <internalNodes>
            0 -1 1 -8.4992632269859314e-02</internalNodes>
          <leafValues>
            2.2874948382377625e-01 -8.4484833478927612e-01</leafValues></_>
        <_>
          <internalNodes>
            0 -1 33 -6.1057991115376353e-04</internalNodes>
          <leafValues>
            -8.3006918430328369e-01 2.2670134902000427e-01</leafValues></_></weakClassifiers></_>
    <!-- stage 7 -->
    <_>
      <maxWeakCount>5</maxWeakCount>
      <stageThreshold>-1.2702072858810425e+00</stageThreshold>
      <weakClassifiers>
        <_>
          <internalNodes>
            0 -1 22 -3.3280696719884872e-02</internalNodes>
          <leafValues>
            1.0144927352666855e-01 -7.8297871351242065e-01</leafValues></_>
        <_>
          <internalNodes>
            0 -1 24 2.8463597118388861e-05</internalNodes>
          <leafValues>
            -7.5534993410110474e-01 1.2779189646244049e-01</leafValues></_>
        <_>
          <internalNodes>
            0 -1 19 4.2857071384787560e-03</internalNodes>
          <leafValues>
            -3.6758667230606079e-01 6.3645499944686890e-01</leafValues></_>
        <_>
          <internalNodes>
            0 -1 25 2.3316012695431709e-02</internalNodes>
          <leafValues>
            2.4618326127529144e-01 -8.1297880411148071e-01</leafValues></_>
        <_>
          <internalNodes>
            0 -1 20 1.8037412315607071e-02</internalNodes>
          <leafValues>
            -3.1888297200202942e-01 6.2735104560852051e-01</leafValues></_></weakClassifiers></_>
    <!-- stage 8 -->
    <_>
      <maxWeakCount>5</maxWeakCount>
      <stageThreshold>-1.3102878332138062e+00</stageThreshold>
      <weakClassifiers>
        <_>
          <internalNodes>
            0 -1 5 -7.4758514761924744e-02</internalNodes>
          <leafValues>
            6.2962961196899414e-01 -7.3828125000000000e-01</leafValues></_>
        <_>
          <internalNodes>
            0 -1 8 -6.3178867101669312e-02</internalNodes>
          <leafValues>
            5.9059780836105347e-01 -4.6417832374572754e-01</leafValues></_>
        <_>
          <internalNodes>
            0 -1 10 1.6440780018456280e-04</internalNodes>
          <leafValues>
            -7.8574949502944946e-01 3.1853318214416504e-01</leafValues></_>
        <_>
          <internalNodes>
            0 -1 17 2.8822780586779118e-04</internalNodes>
          <leafValues>
            -7.1744036674499512e-01 2.5998383760452271e-01</leafValues></_>
        <_>
          <internalNodes>
            0 -1 32 1.5892530427663587e-05</internalNodes>
          <leafValues>
            -6.8634527921676636e-01 3.0982816219329834e-01</leafValues></_></weakClassifiers></_></stages>
  <features>
    <_>
      <rects>
        <_>
          0 2 8 16 -1.</_>
        <_>
          4 2 4 16 2.</_></rects>
      <tilted>0</tilted></_>
    <_>
      <rects>
        <_>
          0 2 18 18 -1.</_>
        <_>
          9 2 9 18 2.</_></rects>
      <tilted>0</tilted></_>
    <_>
      <rects>
        <_>
          0 8 12 9 -1.</_>
        <_>
          4 8 4 9 3.</_></rects>
      <tilted>0</tilted></_>
    <_>
      <rects>
        <_>
          0 13 14 8 -1.</_>
        <_>
          7 13 7 8 2.</_></rects>
      <tilted>0</tilted></_>
    <_>
      <rects>
        <_>
          1 4 8 16 -1.</_>
        <_>
          5 4 4 16 2.</_></rects>
      <tilted>0</tilted></_>
    <_>
      <rects>
        <_>
          1 4 15 3 -1.</_>
        <_>
          6 4 5 3 3.</_></rects>
      <tilted>0</tilted></_>
    <_>
      <rects>
        <_>
          1 5 2 10 -1.</_>
        <_>
          2 5 1 10 2.</_></rects>
      <tilted>0</tilted></_>
    <_>
      <rects>
        <_>
          1 15 23 8 -1.</_>
        <_>
          1 19 23 4 2.</_></rects>
      <tilted>0</tilted></_>
    <_>
      <rects>
        <_>
          2 4 18 6 -1.</_>
        <_>
          2 7 18 3 2.</_></rects>
      <tilted>0</tilted></_>
    <_>
      <rects>
        <_>
          2 7 7 15 -1.</_>
        <_>
          2 12 7 5 3.</_></rects>
      <tilted>0</tilted></_>
    <_>
      <rects>
        <_>
          2 18 6 2 -1.</_>
        <_>
          2 19 6 1 2.</_></rects>
      <tilted>0</tilted></_>
    <_>
      <rects>
        <_>
          3 0 17 10 -1.</_>
        <_>
          3 5 17 5 2.</_></rects>
      <tilted>0</tilted></_>
    <_>
      <rects>
        <_>
          4 5 15 3 -1.</_>
        <_>
          9 5 5 3 3.</_></rects>
      <tilted>0</tilted></_>
    <_>
      <rects>
        <_>
          5 0 14 8 -1.</_>
        <_>
          5 4 14 4 2.</_></rects>
      <tilted>0</tilted></_>
    <_>
      <rects>
        <_>
          5 10 12 6 -1.</_>
        <_>
          5 10 6 3 2.</_>
        <_>
          11 13 6 3 2.</_></rects>
      <tilted>0</tilted></_>
    <_>
      <rects>
        <_>
          5 16 13 8 -1.</_>
        <_>
          5 20 13 4 2.</_></rects>
      <tilted>0</tilted></_>
    <_>
      <rects>
        <_>
          6 17 15 3 -1.</_>
        <_>
          11 17 5 3 3.</_></rects>
      <tilted>0</tilted></_>
    <_>
      <rects>
        <_>
          7 21 6 2 -1.</_>
        <_>
          7 22 6 1 2.</_></rects>
      <tilted>0</tilted></_>
    <_>
      <rects>
        <_>
          9 1 9 2 -1.</_>
        <_>
          9 2 9 1 2.</_></rects>
      <tilted>0</tilted></_>
    <_>
      <rects>
        <_>
          9 5 2 17 -1.</_>
        <_>
          10 5 1 17 2.</_></rects>
      <tilted>0</tilted></_>
    <_>
      <rects>
        <_>
          9 8 9 5 -1.</_>
        <_>
          12 8 3 5 3.</_></rects>
      <tilted>0</tilted></_>
    <_>
      <rects>
        <_>
          10 6 4 7 -1.</_>
        <_>
          12 6 2 7 2.</_></rects>
      <tilted>0</tilted></_>
    <_>
      <rects>
        <_>
          10 12 2 12 -1.</_>
        <_>
          10 16 2 4 3.</_></rects>
      <tilted>0</tilted></_>
    <_>
      <rects>
        <_>
          11 10 12 2 -1.</_>
        <_>
          15 10 4 2 3.</_></rects>
      <tilted>0</tilted></_>
    <_>
      <rects>
        <_>
          12 0 10 2 -1.</_>
        <_>
          12 0 5 1 2.</_>
        <_>
          17 1 5 1 2.</_></rects>
      <tilted>0</tilted></_>
    <_>
      <rects>
        <_>
          12 0 12 3 -1.</_>
        <_>
          18 0 6 3 2.</_></rects>
      <tilted>0</tilted></_>
    <_>
      <rects>
        <_>
          12 0 12 23 -1.</_>
        <_>
          18 0 6 23 2.</_></rects>
      <tilted>0</tilted></_>
    <_>
      <rects>
        <_>
          12 2 11 12 -1.</_>
        <_>
          12 6 11 4 3.</_></rects>
      <tilted>0</tilted></_>
    <_>
      <rects>
        <_>
          14 1 10 20 -1.</_>
        <_>
          19 1 5 20 2.</_></rects>
      <tilted>0</tilted></_>
    <_>
      <rects>
        <_>
          14 4 6 6 -1.</_>
        <_>
          16 4 2 6 3.</_></rects>
      <tilted>0</tilted></_>
    <_>
      <rects>
        <_>
          15 5 3 18 -1.</_>
        <_>
          15 11 3 6 3.</_></rects>
      <tilted>0</tilted></_>
    <_>
      <rects>
        <_>
          15 5 8 15 -1.</_>
        <_>
          19 5 4 15 2.</_></rects>
      <tilted>0</tilted></_>
    <_>
      <rects>
        <_>
          16 20 5 2 -1.</_>
        <_>
          16 21 5 1 2.</_></rects>
      <tilted>0</tilted></_>
    <_>
      <rects>
        <_>
          20 3 3 3 -1.</_>
        <_>
          21 3 1 3 3.</_></rects>
      <tilted>0</tilted></_>
    <_>
      <rects>
        <_>
          21 0 2 15 -1.</_>
        <_>
          22 0 1 15 2.</_></rects>
      <tilted>0</tilted></_>
    <_>
      <rects>
        <_>
          22 8 2 2 -1.</_>
        <_>
          22 8 1 1 2.</_>
        <_>
          23 9 1 1 2.</_></rects>
      <tilted>0</tilted></_></features></cascade>
</opencv_storage>
