<?xml version="1.0"?>
<opencv_storage>
<cascade>
  <stageType>BOOST</stageType>
  <featureType>HAAR</featureType>
  <height>24</height>
  <width>24</width>
  <stageParams>
    <boostType>GAB</boostType>
    <minHitRate>9.9500000476837158e-01</minHitRate>
    <maxFalseAlarm>5.0000000000000000e-01</maxFalseAlarm>
    <weightTrimRate>9.4999999999999996e-01</weightTrimRate>
    <maxDepth>1</maxDepth>
    <maxWeakCount>100</maxWeakCount></stageParams>
  <featureParams>
    <maxCatCount>0</maxCatCount>
    <featSize>1</featSize>
    <mode>BASIC</mode></featureParams>
  <stageNum>13</stageNum>
  <stages>
    <!-- stage 0 -->
    <_>
      <maxWeakCount>7</maxWeakCount>
      <stageThreshold>-1.6699604988098145e+00</stageThreshold>
      <weakClassifiers>
        <_>
          <internalNodes>
            0 -1 96 -3.6968678236007690e-02</internalNodes>
          <leafValues>
            7.1014493703842163e-01 -7.2344321012496948e-01</leafValues></_>
        <_>
          <internalNodes>
            0 -1 70 -8.5533873061649501e-05</internalNodes>
          <leafValues>
            4.2689472436904907e-01 -4.7103485465049744e-01</leafValues></_>
        <_>
          <internalNodes>
            0 -1 94 -5.1972851157188416e-02</internalNodes>
          <leafValues>
            8.7127584218978882e-01 -2.1550066769123077e-01</leafValues></_>
        <_>
          <internalNodes>
            0 -1 8 9.8588116466999054e-02</internalNodes>
          <leafValues>
            -3.4829908609390259e-01 4.6460241079330444e-01</leafValues></_>
        <_>
          <internalNodes>
            0 -1 86 -7.5643933087121695e-05</internalNodes>
          <leafValues>
            5.8593863248825073e-01 -2.8162562847137451e-01</leafValues></_>
        <_>
          <internalNodes>
            0 -1 86 7.8801291238050908e-05</internalNodes>
          <leafValues>
            -3.1669178605079651e-01 5.9908056259155273e-01</leafValues></_>
        <_>
          <internalNodes>
            0 -1 5 4.0427234023809433e-02</internalNodes>
          <leafValues>
            -4.0014180541038513e-01 4.5040681958198547e-01</leafValues></_></weakClassifiers></_>
    <!-- stage 1 -->
    <_>
      <maxWeakCount>10</maxWeakCount>
      <stageThreshold>-1.4367177486419678e+00</stageThreshold>
      <weakClassifiers>
        <_>
          <internalNodes>
            0 -1 125 -2.8328731656074524e-02</internalNodes>
          <leafValues>
            4.5098039507865906e-01 -7.0659238100051880e-01</leafValues></_>
        <_>
          <internalNodes>
            0 -1 101 -1.5465585514903069e-02</internalNodes>
          <leafValues>
            6.3082969188690186e-01 -3.1860661506652832e-01</leafValues></_>
        <_>
          <internalNodes>
            0 -1 118 5.9207733720541000e-03</internalNodes>
          <leafValues>
            2.0779331028461456e-01 -7.5649750232696533e-01</leafValues></_>
        <_>
          <internalNodes>
            0 -1 168 -8.3223458204884082e-05</internalNodes>
          <leafValues>
            4.3703675270080566e-01 -3.1541007757186890e-01</leafValues></_>
        <_>
          <internalNodes>
            0 -1 75 -5.0213266164064407e-02</internalNodes>
          <leafValues>
            7.2281640768051147e-01 -1.5785136818885803e-01</leafValues></_>
        <_>
          <internalNodes>
            0 -1 83 8.6808140622451901e-05</internalNodes>
          <leafValues>
            -2.8258308768272400e-01 4.8098906874656677e-01</leafValues></_>
        <_>
          <internalNodes>
            0 -1 41 1.0692888172343373e-03</internalNodes>
          <leafValues>
            2.4074889719486237e-01 -5.3678387403488159e-01</leafValues></_>
        <_>
          <internalNodes>
            0 -1 3 -7.1266593295149505e-05</internalNodes>
          <leafValues>
            4.0535023808479309e-01 -3.0199870467185974e-01</leafValues></_>
        <_>
          <internalNodes>
            0 -1 38 -9.6603925339877605e-04</internalNodes>
          <leafValues>
            -5.5813699960708618e-01 2.3371532559394836e-01</leafValues></_>
        <_>
          <internalNodes>
            0 -1 164 -7.8396504977717996e-04</internalNodes>
          <leafValues>
            -5.7271850109100342e-01 1.7591097950935364e-01</leafValues></_></weakClassifiers></_>
    <!-- stage 2 -->
    <_>
      <maxWeakCount>11</maxWeakCount>
      <stageThreshold>-1.6185835599899292e+00</stageThreshold>
      <weakClassifiers>
        <_>
          <internalNodes>
            0 -1 76 -3.3872757107019424e-02</internalNodes>
          <leafValues>
            5.1079136133193970e-01 -6.9935840368270874e-01</leafValues></_>
        <_>
          <internalNodes>
            0 -1 127 1.5683405101299286e-02</internalNodes>
          <leafValues>
            -3.5722893476486206e-01 4.8193466663360596e-01</leafValues></_>
        <_>
          <internalNodes>
            0 -1 82 1.0402943007647991e-03</internalNodes>
          <leafValues>
            1.8427532911300659e-01 -6.5107709169387817e-01</leafValues></_>
        <_>
          <internalNodes>
            0 -1 158 4.3958881869912148e-03</internalNodes>
          <leafValues>
            1.7387607693672180e-01 -5.9238177537918091e-01</leafValues></_>
        <_>
          <internalNodes>
            0 -1 9 3.2574057579040527e-02</internalNodes>
          <leafValues>
            -2.9950919747352600e-01 3.8027003407478333e-01</leafValues></_>
        <_>
          <internalNodes>
            0 -1 130 7.1586098056286573e-04</internalNodes>
          <leafValues>
            2.5818559527397156e-01 -4.6762570738792419e-01</leafValues></_>
        <_>
          <internalNodes>
            0 -1 81 -2.7524977922439575e-02</internalNodes>
          <leafValues>
            6.6294342279434204e-01 -1.9379045069217682e-01</leafValues></_>
        <_>
          <internalNodes>
            0 -1 172 -7.8069872688502073e-04</internalNodes>
          <leafValues>
            -5.4860144853591919e-01 2.4547418951988220e-01</leafValues></_>
        <_>
          <internalNodes>
            0 -1 65 3.2121278345584869e-02</internalNodes>
          <leafValues>
            -2.3384787142276764e-01 4.7339445352554321e-01</leafValues></_>
        <_>
          <internalNodes>
            0 -1 79 1.1019801720976830e-02</internalNodes>
          <leafValues>
            -2.2539065778255463e-01 5.0353527069091797e-01</leafValues></_>
        <_>
          <internalNodes>
            0 -1 155 1.9801808521151543e-03</internalNodes>
          <leafValues>
            2.5454202294349670e-01 -5.2709907293319702e-01</leafValues></_></weakClassifiers></_>
    <!-- stage 3 -->
    <_>
      <maxWeakCount>12</maxWeakCount>
      <stageThreshold>-1.2681214809417725e+00</stageThreshold>
      <weakClassifiers>
        <_>
          <internalNodes>
            0 -1 58 -3.6529891192913055e-02</internalNodes>
          <leafValues>
            3.8931298255920410e-01 -6.7606914043426514e-01</leafValues></_>
        <_>
          <internalNodes>
            0 -1 165 -1.3290327042341232e-03</internalNodes>
          <leafValues>
            -7.0757395029067993e-01 5.6599568575620651e-02</leafValues></_>
        <_>
          <internalNodes>
            0 -1 162 -1.9416683353483677e-03</internalNodes>
          <leafValues>
            -6.8570756912231445e-01 1.4956544339656830e-01</leafValues></_>
        <_>
          <internalNodes>
            0 -1 24 -1.1532781645655632e-03</internalNodes>
          <leafValues>
            -5.7721084356307983e-01 1.6483035683631897e-01</leafValues></_>
        <_>
          <internalNodes>
            0 -1 20 8.1906880950555205e-05</internalNodes>
          <leafValues>
            -2.4180889129638672e-01 3.4725722670555115e-01</leafValues></_>
        <_>
          <internalNodes>
            0 -1 89 -2.0832329988479614e-02</internalNodes>
          <leafValues>
            3.7825480103492737e-01 -2.4789871275424957e-01</leafValues></_>
        <_>
          <internalNodes>
            0 -1 33 4.2266387026757002e-04</internalNodes>
          <leafValues>
            2.4320204555988312e-01 -3.8347694277763367e-01</leafValues></_>
        <_>
          <internalNodes>
            0 -1 22 3.3216536976397038e-03</internalNodes>
          <leafValues>
            1.2671408057212830e-01 -6.5717154741287231e-01</leafValues></_>
        <_>
          <internalNodes>
            0 -1 0 -3.5888473503291607e-03</internalNodes>
          <leafValues>
            -5.2855157852172852e-01 1.6839674115180969e-01</leafValues></_>
        <_>
          <internalNodes>
            0 -1 37 1.9685879349708557e-02</internalNodes>
          <leafValues>
            -2.1151907742023468e-01 4.3980076909065247e-01</leafValues></_>
        <_>
          <internalNodes>
            0 -1 27 8.6042062321212143e-05</internalNodes>
          <leafValues>
            -2.7699062228202820e-01 3.2290661334991455e-01</leafValues></_>
        <_>
          <internalNodes>
            0 -1 26 -8.2220787589903921e-05</internalNodes>
          <leafValues>
            3.4891244769096375e-01 -2.7766326069831848e-01</leafValues></_></weakClassifiers></_>
    <!-- stage 4 -->
    <_>
      <maxWeakCount>15</maxWeakCount>
      <stageThreshold>-1.4094952344894409e+00</stageThreshold>
      <weakClassifiers>
        <_>
          <internalNodes>
            0 -1 48 -5.1147360354661942e-02</internalNodes>
          <leafValues>
            2.8467154502868652e-01 -6.6880148649215698e-01</leafValues></_>
        <_>
          <internalNodes>
            0 -1 93 -3.0308866873383522e-02</internalNodes>
          <leafValues>
            5.5317324399948120e-01 -2.5568094849586487e-01</leafValues></_>
        <_>
          <internalNodes>
            0 -1 69 1.0517252609133720e-02</internalNodes>
          <leafValues>
            -2.2188685834407806e-01 5.8076125383377075e-01</leafValues></_>
        <_>
          <internalNodes>
            0 -1 103 2.1273132413625717e-02</internalNodes>
          <leafValues>
            -2.0667009055614471e-01 4.1291749477386475e-01</leafValues></_>
        <_>
          <internalNodes>
            0 -1 28 -1.4442271785810590e-03</internalNodes>
          <leafValues>
            -5.0521296262741089e-01 1.7215174436569214e-01</leafValues></_>
        <_>
          <internalNodes>
            0 -1 129 -9.9656719248741865e-04</internalNodes>
          <leafValues>
            -4.0038549900054932e-01 2.2612200677394867e-01</leafValues></_>
        <_>
          <internalNodes>
            0 -1 116 1.7057321965694427e-02</internalNodes>
          <leafValues>
            -2.8089752793312073e-01 3.4041598439216614e-01</leafValues></_>
        <_>
          <internalNodes>
            0 -1 99 6.5076909959316254e-03</internalNodes>
          <leafValues>
            -2.3628792166709900e-01 4.0987718105316162e-01</leafValues></_>
        <_>
          <internalNodes>
            0 -1 147 -2.8667100705206394e-03</internalNodes>
          <leafValues>
            -5.8543413877487183e-01 1.7143112421035767e-01</leafValues></_>
        <_>
          <internalNodes>
            0 -1 124 -7.5954766944050789e-03</internalNodes>
          <leafValues>
            6.6234272718429565e-01 -1.3342237472534180e-01</leafValues></_>
        <_>
          <internalNodes>
            0 -1 113 1.8045010045170784e-02</internalNodes>
          <leafValues>
            -1.7547878623008728e-01 5.6871801614761353e-01</leafValues></_>
        <_>
          <internalNodes>
            0 -1 167 1.1892996262758970e-03</internalNodes>
          <leafValues>
            1.5644548833370209e-01 -6.9623535871505737e-01</leafValues></_>
        <_>
          <internalNodes>
            0 -1 139 1.2604879215359688e-02</internalNodes>
          <leafValues>
            -2.4871331453323364e-01 3.5257792472839355e-01</leafValues></_>
        <_>
          <internalNodes>
            0 -1 159 -5.5889599025249481e-04</internalNodes>
          <leafValues>
            -4.5747828483581543e-01 2.2584956884384155e-01</leafValues></_>
        <_>
          <internalNodes>
            0 -1 14 1.1234177276492119e-02</internalNodes>
          <leafValues>
            1.7482812702655792e-01 -5.2061223983764648e-01</leafValues></_></weakClassifiers></_>
    <!-- stage 5 -->
    <_>
      <maxWeakCount>16</maxWeakCount>
      <stageThreshold>-1.2606099843978882e+00</stageThreshold>
      <weakClassifiers>
        <_>
          <internalNodes>
            0 -1 72 -1.5211530961096287e-02</internalNodes>
          <leafValues>
            -4.1379310190677643e-02 -7.2340422868728638e-01</leafValues></_>
        <_>
          <internalNodes>
            0 -1 78 1.6689896583557129e-02</internalNodes>
          <leafValues>
            -3.8332498073577881e-01 2.3369416594505310e-01</leafValues></_>
        <_>
          <internalNodes>
            0 -1 73 2.4045571684837341e-02</internalNodes>
          <leafValues>
            -1.1997529119253159e-01 7.0994722843170166e-01</leafValues></_>
        <_>
          <internalNodes>
            0 -1 122 -8.6498673772439361e-04</internalNodes>
          <leafValues>
            -4.3485340476036072e-01 1.7912338674068451e-01</leafValues></_>
        <_>
          <internalNodes>
            0 -1 87 1.6806328669190407e-02</internalNodes>
          <leafValues>
            -1.2552137672901154e-01 5.5315041542053223e-01</leafValues></_>
        <_>
          <internalNodes>
            0 -1 136 -5.5342791602015495e-03</internalNodes>
          <leafValues>
            4.1382491588592529e-01 -2.2200211882591248e-01</leafValues></_>
        <_>
          <internalNodes>
            0 -1 61 -2.5322469882667065e-03</internalNodes>
          <leafValues>
            -5.7200831174850464e-01 1.6227564215660095e-01</leafValues></_>
        <_>
          <internalNodes>
            0 -1 142 -1.4105000300332904e-03</internalNodes>
          <leafValues>
            -4.6407401561737061e-01 1.8434074521064758e-01</leafValues></_>
        <_>
          <internalNodes>
            0 -1 153 8.0206082202494144e-05</internalNodes>
          <leafValues>
            -2.7225863933563232e-01 2.6822668313980103e-01</leafValues></_>
        <_>
          <internalNodes>
            0 -1 54 -1.8262015655636787e-03</internalNodes>
          <leafValues>
            -4.2703729867935181e-01 1.8696992099285126e-01</leafValues></_>
        <_>
          <internalNodes>
            0 -1 109 -8.2494150847196579e-03</internalNodes>
          <leafValues>
            4.4366613030433655e-01 -1.8718971312046051e-01</leafValues></_>
        <_>
          <internalNodes>
            0 -1 119 8.2285820099059492e-05</internalNodes>
          <leafValues>
            -2.4495103955268860e-01 2.9005587100982666e-01</leafValues></_>
        <_>
          <internalNodes>
            0 -1 131 1.4312660787254572e-03</internalNodes>
          <leafValues>
            1.6698299348354340e-01 -5.0539261102676392e-01</leafValues></_>
        <_>
          <internalNodes>
            0 -1 39 1.3456575106829405e-03</internalNodes>
          <leafValues>
            1.6464458405971527e-01 -4.5389494299888611e-01</leafValues></_>
        <_>
          <internalNodes>
            0 -1 64 1.3531644828617573e-02</internalNodes>
          <leafValues>
            -2.5791785120964050e-01 3.3166316151618958e-01</leafValues></_>
        <_>
          <internalNodes>
            0 -1 77 1.1902634985744953e-02</internalNodes>
          <leafValues>
            -2.2431658208370209e-01 4.4292336702346802e-01</leafValues></_></weakClassifiers></_>
    <!-- stage 6 -->
    <_>
      <maxWeakCount>14</maxWeakCount>
      <stageThreshold>-1.4634524583816528e+00</stageThreshold>
      <weakClassifiers>
        <_>
          <internalNodes>
            0 -1 55 -3.5380568355321884e-02</internalNodes>
          <leafValues>
            -1.9075144827365875e-01 -7.0814478397369385e-01</leafValues></_>
        <_>
          <internalNodes>
            0 -1 105 4.0656095370650291e-03</internalNodes>
          <leafValues>
            -2.6631617546081543e-01 4.5242381095886230e-01</leafValues></_>
        <_>
          <internalNodes>
            0 -1 146 1.3616286450996995e-03</internalNodes>
          <leafValues>
            1.8658368289470673e-01 -4.1028916835784912e-01</leafValues></_>
        <_>
          <internalNodes>
            0 -1 56 1.0337389539927244e-03</internalNodes>
          <leafValues>
            1.1989632993936539e-01 -5.4866522550582886e-01</leafValues></_>
        <_>
          <internalNodes>
            0 -1 43 -1.1702580377459526e-03</internalNodes>
          <leafValues>
            -4.6794006228446960e-01 2.1309505403041840e-01</leafValues></_>
        <_>
          <internalNodes>
            0 -1 160 -4.0188347920775414e-03</internalNodes>
          <leafValues>
            -7.4793648719787598e-01 8.8825248181819916e-02</leafValues></_>
        <_>
          <internalNodes>
            0 -1 67 1.6569927334785461e-02</internalNodes>
          <leafValues>
            -2.0119982957839966e-01 3.9858096837997437e-01</leafValues></_>
        <_>
          <internalNodes>
            0 -1 2 -1.1286274343729019e-01</internalNodes>
          <leafValues>
            -7.6841813325881958e-01 9.4948217272758484e-02</leafValues></_>
        <_>
          <internalNodes>
            0 -1 4 1.8203498329967260e-03</internalNodes>
          <leafValues>
            1.0217070579528809e-01 -5.8312690258026123e-01</leafValues></_>
        <_>
          <internalNodes>
            0 -1 11 2.6545156724750996e-03</internalNodes>
          <leafValues>
            2.1162153780460358e-01 -3.4096050262451172e-01</leafValues></_>
        <_>
          <internalNodes>
            0 -1 143 1.3007946545258164e-03</internalNodes>
          <leafValues>
            1.2752731144428253e-01 -4.7699594497680664e-01</leafValues></_>
        <_>
          <internalNodes>
            0 -1 126 1.7017114907503128e-02</internalNodes>
          <leafValues>
            -2.9475212097167969e-01 2.4078376591205597e-01</leafValues></_>
        <_>
          <internalNodes>
            0 -1 97 1.4736970886588097e-02</internalNodes>
          <leafValues>
            -1.3081076741218567e-01 6.4226973056793213e-01</leafValues></_>
        <_>
          <internalNodes>
            0 -1 71 -8.7007659021764994e-04</internalNodes>
          <leafValues>
            -5.5114853382110596e-01 1.4730042219161987e-01</leafValues></_></weakClassifiers></_>
    <!-- stage 7 -->
    <_>
      <maxWeakCount>15</maxWeakCount>
      <stageThreshold>-1.4742772579193115e+00</stageThreshold>
      <weakClassifiers>
        <_>
          <internalNodes>
            0 -1 141 -1.0185780702158809e-03</internalNodes>
          <leafValues>
            -1.1363636702299118e-02 -6.5464895963668823e-01</leafValues></_>
        <_>
          <internalNodes>
            0 -1 35 7.9113393439911306e-05</internalNodes>
          <leafValues>
            -3.4646362066268921e-01 2.5083026289939880e-01</leafValues></_>
        <_>
          <internalNodes>
            0 -1 170 2.1582753397524357e-03</internalNodes>
          <leafValues>
            1.6645832359790802e-01 -5.2448797225952148e-01</leafValues></_>
        <_>
          <internalNodes>
            0 -1 60 1.8215410411357880e-02</internalNodes>
          <leafValues>
            -2.1183766424655914e-01 4.2271712422370911e-01</leafValues></_>
        <_>
          <internalNodes>
            0 -1 156 -1.1156990658491850e-03</internalNodes>
          <leafValues>
            -4.5371344685554504e-01 2.1519495546817780e-01</leafValues></_>
        <_>
          <internalNodes>
            0 -1 151 -1.4234171248972416e-03</internalNodes>
          <leafValues>
            -5.4702949523925781e-01 1.6238807141780853e-01</leafValues></_>
        <_>
          <internalNodes>
            0 -1 173 1.3455539010465145e-03</internalNodes>
          <leafValues>
            1.7031453549861908e-01 -4.5339050889015198e-01</leafValues></_>
        <_>
          <internalNodes>
            0 -1 128 -1.9181982497684658e-04</internalNodes>
          <leafValues>
            3.9237144589424133e-01 -2.1583800017833710e-01</leafValues></_>
        <_>
          <internalNodes>
            0 -1 128 8.4420207713264972e-05</internalNodes>
          <leafValues>
            -2.3138514161109924e-01 3.3562943339347839e-01</leafValues></_>
        <_>
          <internalNodes>
            0 -1 100 -4.8734415322542191e-02</internalNodes>
          <leafValues>
            5.1931279897689819e-01 -1.4882126450538635e-01</leafValues></_>
        <_>
          <internalNodes>
            0 -1 112 9.7248228266835213e-03</internalNodes>
          <leafValues>
            -2.1974980831146240e-01 4.0865141153335571e-01</leafValues></_>
        <_>
          <internalNodes>
            0 -1 7 3.3870257437229156e-02</internalNodes>
          <leafValues>
            -2.8523248434066772e-01 3.2763651013374329e-01</leafValues></_>
        <_>
          <internalNodes>
            0 -1 88 1.0916844476014376e-03</internalNodes>
          <leafValues>
            1.9525043666362762e-01 -4.7264131903648376e-01</leafValues></_>
        <_>
          <internalNodes>
            0 -1 140 -3.4050263464450836e-02</internalNodes>
          <leafValues>
            5.4496246576309204e-01 -1.8079216778278351e-01</leafValues></_>
        <_>
          <internalNodes>
            0 -1 134 -1.1374125024303794e-03</internalNodes>
          <leafValues>
            -4.1549047827720642e-01 1.8148337304592133e-01</leafValues></_></weakClassifiers></_>
    <!-- stage 8 -->
    <_>
      <maxWeakCount>16</maxWeakCount>
      <stageThreshold>-1.3312995433807373e+00</stageThreshold>
      <weakClassifiers>
        <_>
          <internalNodes>
            0 -1 137 5.5415164679288864e-03</internalNodes>
          <leafValues>
            -6.9502764940261841e-01 -1.9384615123271942e-01</leafValues></_>
        <_>
          <internalNodes>
            0 -1 123 2.3534167557954788e-03</internalNodes>
          <leafValues>
            6.2195390462875366e-02 -5.6446307897567749e-01</leafValues></_>
        <_>
          <internalNodes>
            0 -1 154 2.1174950525164604e-02</internalNodes>
          <leafValues>
            1.1957333981990814e-01 -5.5532586574554443e-01</leafValues></_>
        <_>
          <internalNodes>
            0 -1 51 -2.8820570558309555e-02</internalNodes>
          <leafValues>
            2.8418645262718201e-01 -2.4209958314895630e-01</leafValues></_>
        <_>
          <internalNodes>
            0 -1 50 -2.1911163348704576e-03</internalNodes>
          <leafValues>
            -5.3208512067794800e-01 1.9507437944412231e-01</leafValues></_>
        <_>
          <internalNodes>
            0 -1 34 8.3839806029573083e-04</internalNodes>
          <leafValues>
            1.3005572557449341e-01 -4.3647608160972595e-01</leafValues></_>
        <_>
          <internalNodes>
            0 -1 115 -4.7708568163216114e-03</internalNodes>
          <leafValues>
            5.5862206220626831e-01 -1.2369925528764725e-01</leafValues></_>
        <_>
          <internalNodes>
            0 -1 111 5.3582424297928810e-03</internalNodes>
          <leafValues>
            -2.3257941007614136e-01 2.8328171372413635e-01</leafValues></_>
        <_>
          <internalNodes>
            0 -1 161 1.0370652889832854e-03</internalNodes>
          <leafValues>
            1.6216729581356049e-01 -4.6201857924461365e-01</leafValues></_>
        <_>
          <internalNodes>
            0 -1 57 1.1150177568197250e-02</internalNodes>
          <leafValues>
            -1.7984497547149658e-01 4.1945788264274597e-01</leafValues></_>
        <_>
          <internalNodes>
            0 -1 53 -1.3229185715317726e-03</internalNodes>
          <leafValues>
            -5.8156716823577881e-01 1.3769467175006866e-01</leafValues></_>
        <_>
          <internalNodes>
            0 -1 59 -1.4974421355873346e-03</internalNodes>
          <leafValues>
            2.6570889353752136e-01 -2.7025219798088074e-01</leafValues></_>
        <_>
          <internalNodes>
            0 -1 150 -8.9012971147894859e-04</internalNodes>
          <leafValues>
            -4.8896372318267822e-01 1.3822127878665924e-01</leafValues></_>
        <_>
          <internalNodes>
            0 -1 144 1.3967748964205384e-03</internalNodes>
          <leafValues>
            1.5962724387645721e-01 -3.8082268834114075e-01</leafValues></_>
        <_>
          <internalNodes>
            0 -1 180 8.1528487498871982e-05</internalNodes>
          <leafValues>
            -2.1618516743183136e-01 2.8644475340843201e-01</leafValues></_>
        <_>
          <internalNodes>
            0 -1 152 7.5965261203236878e-05</internalNodes>
          <leafValues>
            -2.3470574617385864e-01 2.4922218918800354e-01</leafValues></_></weakClassifiers></_>
    <!-- stage 9 -->
    <_>
      <maxWeakCount>14</maxWeakCount>
      <stageThreshold>-1.2298995256423950e+00</stageThreshold>
      <weakClassifiers>
        <_>
          <internalNodes>
            0 -1 95 -2.0370140671730042e-02</internalNodes>
          <leafValues>
            8.1081077456474304e-02 -6.7655503749847412e-01</leafValues></_>
        <_>
          <internalNodes>
            0 -1 44 -3.7388503551483154e-02</internalNodes>
          <leafValues>
            5.7996946573257446e-01 -2.1686042845249176e-01</leafValues></_>
        <_>
          <internalNodes>
            0 -1 66 2.7755510061979294e-02</internalNodes>
          <leafValues>
            -1.4517174661159515e-01 4.5096355676651001e-01</leafValues></_>
        <_>
          <internalNodes>
            0 -1 80 -7.4629113078117371e-04</internalNodes>
          <leafValues>
            -4.7200411558151245e-01 1.4541599154472351e-01</leafValues></_>
        <_>
          <internalNodes>
            0 -1 84 -4.5699384063482285e-03</internalNodes>
          <leafValues>
            -5.1675915718078613e-01 1.5528690814971924e-01</leafValues></_>
        <_>
          <internalNodes>
            0 -1 102 1.5527326613664627e-02</internalNodes>
          <leafValues>
            -2.2559182345867157e-01 3.1786727905273438e-01</leafValues></_>
        <_>
          <internalNodes>
            0 -1 91 1.5898983925580978e-02</internalNodes>
          <leafValues>
            -1.9529917836189270e-01 3.1421098113059998e-01</leafValues></_>
        <_>
          <internalNodes>
            0 -1 85 3.6133511457592249e-04</internalNodes>
          <leafValues>
            1.9361539185047150e-01 -3.0747306346893311e-01</leafValues></_>
        <_>
          <internalNodes>
            0 -1 16 -1.5346813015639782e-03</internalNodes>
          <leafValues>
            -5.3572851419448853e-01 1.2232828140258789e-01</leafValues></_>
        <_>
          <internalNodes>
            0 -1 36 2.2183075547218323e-02</internalNodes>
          <leafValues>
            -1.7691269516944885e-01 3.7229359149932861e-01</leafValues></_>
        <_>
          <internalNodes>
            0 -1 30 3.8756875437684357e-04</internalNodes>
          <leafValues>
            1.3304179906845093e-01 -4.9617424607276917e-01</leafValues></_>
        <_>
          <internalNodes>
            0 -1 148 1.2790192849934101e-03</internalNodes>
          <leafValues>
            1.8627463281154633e-01 -3.2022327184677124e-01</leafValues></_>
        <_>
          <internalNodes>
            0 -1 45 1.2673920392990112e-01</internalNodes>
          <leafValues>
            6.6498376429080963e-02 -8.9682382345199585e-01</leafValues></_>
        <_>
          <internalNodes>
            0 -1 169 -1.2326858704909682e-03</internalNodes>
          <leafValues>
            -5.7311964035034180e-01 9.4348564743995667e-02</leafValues></_></weakClassifiers></_>
    <!-- stage 10 -->
    <_>
      <maxWeakCount>14</maxWeakCount>
      <stageThreshold>-1.3281505107879639e+00</stageThreshold>
      <weakClassifiers>
        <_>
          <internalNodes>
            0 -1 138 1.5406476333737373e-02</internalNodes>
          <leafValues>
            -7.2093021869659424e-01 -1.9459459185600281e-01</leafValues></_>
        <_>
          <internalNodes>
            0 -1 114 5.4903104901313782e-03</internalNodes>
          <leafValues>
            -2.5709521770477295e-01 3.1577914953231812e-01</leafValues></_>
        <_>
          <internalNodes>
            0 -1 90 2.1498903632164001e-02</internalNodes>
          <leafValues>
            -1.1282823234796524e-01 5.5593794584274292e-01</leafValues></_>
        <_>
          <internalNodes>
            0 -1 110 4.7183446586132050e-03</internalNodes>
          <leafValues>
            -3.3274793624877930e-01 2.0901070535182953e-01</leafValues></_>
        <_>
          <internalNodes>
            0 -1 47 1.8537382129579782e-03</internalNodes>
          <leafValues>
            1.3721810281276703e-01 -4.9713540077209473e-01</leafValues></_>
        <_>
          <internalNodes>
            0 -1 135 2.7598231099545956e-03</internalNodes>
          <leafValues>
            -1.7055611312389374e-01 3.6139896512031555e-01</leafValues></_>
        <_>
          <internalNodes>
            0 -1 63 1.1699618771672249e-02</internalNodes>
          <leafValues>
            -1.6045035421848297e-01 4.4548922777175903e-01</leafValues></_>
        <_>
          <internalNodes>
            0 -1 133 -3.0823475681245327e-03</internalNodes>
          <leafValues>
            -6.6074031591415405e-01 9.2264957726001740e-02</leafValues></_>
        <_>
          <internalNodes>
            0 -1 157 -8.5798877989873290e-05</internalNodes>
          <leafValues>
            2.8534427285194397e-01 -2.2682294249534607e-01</leafValues></_>
        <_>
          <internalNodes>
            0 -1 174 -1.6645798459649086e-03</internalNodes>
          <leafValues>
            -5.2539354562759399e-01 9.9866136908531189e-02</leafValues></_>
        <_>
          <internalNodes>
            0 -1 29 -1.7978950636461377e-03</internalNodes>
          <leafValues>
            2.8579318523406982e-01 -2.1175448596477509e-01</leafValues></_>
        <_>
          <internalNodes>
            0 -1 98 8.9346189051866531e-03</internalNodes>
          <leafValues>
            -1.4873774349689484e-01 4.7739213705062866e-01</leafValues></_>
        <_>
          <internalNodes>
            0 -1 17 -2.6891231536865234e-01</internalNodes>
          <leafValues>
            -9.3120503425598145e-01 6.5203137695789337e-02</leafValues></_>
        <_>
          <internalNodes>
            0 -1 107 -8.7109301239252090e-04</internalNodes>
          <leafValues>
            -5.2414160966873169e-01 1.0658550262451172e-01</leafValues></_></weakClassifiers></_>
    <!-- stage 11 -->
    <_>
      <maxWeakCount>23</maxWeakCount>
      <stageThreshold>-1.4725127220153809e+00</stageThreshold>
      <weakClassifiers>
        <_>
          <internalNodes>
            0 -1 21 1.7777355387806892e-02</internalNodes>
          <leafValues>
            -7.4656486511230469e-01 -3.5304346680641174e-01</leafValues></_>
        <_>
          <internalNodes>
            0 -1 19 1.3442081399261951e-03</internalNodes>
          <leafValues>
            7.4732974171638489e-02 -3.7478879094123840e-01</leafValues></_>
        <_>
          <internalNodes>
            0 -1 108 -1.6394220292568207e-03</internalNodes>
          <leafValues>
            -5.3927159309387207e-01 9.3995660543441772e-02</leafValues></_>
        <_>
          <internalNodes>
            0 -1 31 9.6772029064595699e-04</internalNodes>
          <leafValues>
            1.8517442047595978e-01 -3.4576544165611267e-01</leafValues></_>
        <_>
          <internalNodes>
            0 -1 62 3.6755716428160667e-04</internalNodes>
          <leafValues>
            1.1111782491207123e-01 -4.6251279115676880e-01</leafValues></_>
        <_>
          <internalNodes>
            0 -1 46 -1.4049642486497760e-03</internalNodes>
          <leafValues>
            -6.5211945772171021e-01 6.9698341190814972e-02</leafValues></_>
        <_>
          <internalNodes>
            0 -1 10 -2.4591844528913498e-02</internalNodes>
          <leafValues>
            4.3274629116058350e-01 -1.1944974213838577e-01</leafValues></_>
        <_>
          <internalNodes>
            0 -1 68 9.6946164965629578e-02</internalNodes>
          <leafValues>
            6.9371677935123444e-02 -7.4170964956283569e-01</leafValues></_>
        <_>
          <internalNodes>
            0 -1 106 8.4479274228215218e-03</internalNodes>
          <leafValues>
            -2.0131437480449677e-01 2.9266300797462463e-01</leafValues></_>
        <_>
          <internalNodes>
            0 -1 49 -2.8601246885955334e-03</internalNodes>
          <leafValues>
            3.7338015437126160e-01 -1.8876186013221741e-01</leafValues></_>
        <_>
          <internalNodes>
            0 -1 15 2.0525923464447260e-03</internalNodes>
          <leafValues>
            1.2156504392623901e-01 -4.6722096204757690e-01</leafValues></_>
        <_>
          <internalNodes>
            0 -1 163 2.4423308204859495e-03</internalNodes>
          <leafValues>
            1.1100152134895325e-01 -4.5130902528762817e-01</leafValues></_>
        <_>
          <internalNodes>
            0 -1 92 -1.3516278564929962e-01</internalNodes>
          <leafValues>
            -8.5706579685211182e-01 5.1248349249362946e-02</leafValues></_>
        <_>
          <internalNodes>
            0 -1 42 1.2503733858466148e-02</internalNodes>
          <leafValues>
            -1.4022459089756012e-01 4.6227282285690308e-01</leafValues></_>
        <_>
          <internalNodes>
            0 -1 32 -3.3933920785784721e-03</internalNodes>
          <leafValues>
            -8.1051909923553467e-01 7.9940900206565857e-02</leafValues></_>
        <_>
          <internalNodes>
            0 -1 120 2.0956499502062798e-03</internalNodes>
          <leafValues>
            1.5409857034683228e-01 -3.2980769872665405e-01</leafValues></_>
        <_>
          <internalNodes>
            0 -1 175 -1.1994696687906981e-03</internalNodes>
          <leafValues>
            -4.9371740221977234e-01 1.0998614132404327e-01</leafValues></_>
        <_>
          <internalNodes>
            0 -1 145 7.7122414950281382e-05</internalNodes>
          <leafValues>
            -2.0743574202060699e-01 2.3781901597976685e-01</leafValues></_>
        <_>
          <internalNodes>
            0 -1 74 -1.4134358614683151e-02</internalNodes>
          <leafValues>
            4.4169452786445618e-01 -1.1779627203941345e-01</leafValues></_>
        <_>
          <internalNodes>
            0 -1 121 4.2188782244920731e-03</internalNodes>
          <leafValues>
            -1.0974762588739395e-01 4.9400585889816284e-01</leafValues></_>
        <_>
          <internalNodes>
            0 -1 18 1.1797647457569838e-03</internalNodes>
          <leafValues>
            1.4831219613552094e-01 -3.9555919170379639e-01</leafValues></_>
        <_>
          <internalNodes>
            0 -1 52 6.3101816922426224e-03</internalNodes>
          <leafValues>
            -9.7961805760860443e-02 6.1118894815444946e-01</leafValues></_>
        <_>
          <internalNodes>
            0 -1 1 -1.6789145302027464e-03</internalNodes>
          <leafValues>
            -3.2832783460617065e-01 1.7261138558387756e-01</leafValues></_></weakClassifiers></_>
    <!-- stage 12 -->
    <_>
      <maxWeakCount>17</maxWeakCount>
      <stageThreshold>-1.2341207265853882e+00</stageThreshold>
      <weakClassifiers>
        <_>
          <internalNodes>
            0 -1 12 3.0213333666324615e-02</internalNodes>
          <leafValues>
            -7.3524719476699829e-01 -3.8308456540107727e-01</leafValues></_>
        <_>
          <internalNodes>
            0 -1 171 6.9172965595498681e-04</internalNodes>
          <leafValues>
            2.3655811324715614e-02 -5.0259447097778320e-01</leafValues></_>
        <_>
          <internalNodes>
            0 -1 149 8.1707083154469728e-05</internalNodes>
          <leafValues>
            -2.1982376277446747e-01 2.2410731017589569e-01</leafValues></_>
        <_>
          <internalNodes>
            0 -1 13 -2.3274086415767670e-03</internalNodes>
          <leafValues>
            -4.3225112557411194e-01 1.2737365067005157e-01</leafValues></_>
        <_>
          <internalNodes>
            0 -1 117 2.5561419315636158e-03</internalNodes>
          <leafValues>
            1.1583322286605835e-01 -4.8355740308761597e-01</leafValues></_>
        <_>
          <internalNodes>
            0 -1 132 -3.3004377037286758e-03</internalNodes>
          <leafValues>
            -5.7297217845916748e-01 7.6292753219604492e-02</leafValues></_>
        <_>
          <internalNodes>
            0 -1 40 -5.2121849730610847e-03</internalNodes>
          <leafValues>
            2.0507468283176422e-01 -2.6018410921096802e-01</leafValues></_>
        <_>
          <internalNodes>
            0 -1 25 -5.2612982690334320e-02</internalNodes>
          <leafValues>
            5.6061965227127075e-01 -9.3945167958736420e-02</leafValues></_>
        <_>
          <internalNodes>
            0 -1 23 -7.0468196645379066e-04</internalNodes>
          <leafValues>
            -4.7016391158103943e-01 1.2371161580085754e-01</leafValues></_>
        <_>
          <internalNodes>
            0 -1 166 -1.3520147185772657e-03</internalNodes>
          <leafValues>
            -4.5633882284164429e-01 9.8708033561706543e-02</leafValues></_>
        <_>
          <internalNodes>
            0 -1 6 8.1372512795496732e-05</internalNodes>
          <leafValues>
            -2.1586856245994568e-01 2.6488277316093445e-01</leafValues></_>
        <_>
          <internalNodes>
            0 -1 176 -7.8392971772700548e-05</internalNodes>
          <leafValues>
            2.4031025171279907e-01 -2.3202267289161682e-01</leafValues></_>
        <_>
          <internalNodes>
            0 -1 179 -3.0574472621083260e-02</internalNodes>
          <leafValues>
            6.4740198850631714e-01 -9.0722776949405670e-02</leafValues></_>
        <_>
          <internalNodes>
            0 -1 178 -1.4041243121027946e-03</internalNodes>
          <leafValues>
            -3.7563222646713257e-01 1.6923862695693970e-01</leafValues></_>
        <_>
          <internalNodes>
            0 -1 181 3.0953325331211090e-03</internalNodes>
          <leafValues>
            9.2455819249153137e-02 -5.4993987083435059e-01</leafValues></_>
        <_>
          <internalNodes>
            0 -1 104 1.9304767251014709e-02</internalNodes>
          <leafValues>
            -1.1311797797679901e-01 4.8776283860206604e-01</leafValues></_>
        <_>
          <internalNodes>
            0 -1 177 2.7227993123233318e-03</internalNodes>
          <leafValues>
            9.4985455274581909e-02 -5.4110699892044067e-01</leafValues></_></weakClassifiers></_></stages>
  <features>
    <_>
      <rects>
        <_>
          0 5 6 6 -1.</_>
        <_>
          3 5 3 6 2.</_></rects>
      <tilted>0</tilted></_>
    <_>
      <rects>
        <_>
          0 6 9 3 -1.</_>
        <_>
          3 6 3 3 3.</_></rects>
      <tilted>0</tilted></_>
    <_>
      <rects>
        <_>
          0 7 16 12 -1.</_>
        <_>
          8 7 8 12 2.</_></rects>
      <tilted>0</tilted></_>
    <_>
      <rects>
        <_>
          0 10 2 2 -1.</_>
        <_>
          0 10 1 1 2.</_>
        <_>
          1 11 1 1 2.</_></rects>
      <tilted>0</tilted></_>
    <_>
      <rects>
        <_>
          0 12 3 3 -1.</_>
        <_>
          1 12 1 3 3.</_></rects>
      <tilted>0</tilted></_>
    <_>
      <rects>
        <_>
          0 14 24 8 -1.</_>
        <_>
          8 14 8 8 3.</_></rects>
      <tilted>0</tilted></_>
    <_>
      <rects>
        <_>
          0 15 24 2 -1.</_>
        <_>
          0 16 24 1 2.</_></rects>
      <tilted>0</tilted></_>
    <_>
      <rects>
        <_>
          1 0 5 21 -1.</_>
        <_>
          1 7 5 7 3.</_></rects>
      <tilted>0</tilted></_>
    <_>
      <rects>
        <_>
          1 0 18 24 -1.</_>
        <_>
          1 8 18 8 3.</_></rects>
      <tilted>0</tilted></_>
    <_>
      <rects>
        <_>
          1 0 22 12 -1.</_>
        <_>
          1 4 22 4 3.</_></rects>
      <tilted>0</tilted></_>
    <_>
      <rects>
        <_>
          1 2 6 22 -1.</_>
        <_>
          3 2 2 22 3.</_></rects>
      <tilted>0</tilted></_>
    <_>
      <rects>
        <_>
          1 5 8 8 -1.</_>
        <_>
          1 9 8 4 2.</_></rects>
      <tilted>0</tilted></_>
    <_>
      <rects>
        <_>
          1 6 12 8 -1.</_>
        <_>
          5 6 4 8 3.</_></rects>
      <tilted>0</tilted></_>
    <_>
      <rects>
        <_>
          1 7 3 5 -1.</_>
        <_>
          2 7 1 5 3.</_></rects>
      <tilted>0</tilted></_>
    <_>
      <rects>
        <_>
          1 12 11 12 -1.</_>
        <_>
          1 18 11 6 2.</_></rects>
      <tilted>0</tilted></_>
    <_>
      <rects>
        <_>
          1 15 3 4 -1.</_>
        <_>
          2 15 1 4 3.</_></rects>
      <tilted>0</tilted></_>
    <_>
      <rects>
        <_>
          1 17 3 3 -1.</_>
        <_>
          2 17 1 3 3.</_></rects>
      <tilted>0</tilted></_>
    <_>
      <rects>
        <_>
          2 0 18 22 -1.</_>
        <_>
          11 0 9 22 2.</_></rects>
      <tilted>0</tilted></_>
    <_>
      <rects>
        <_>
          2 16 4 2 -1.</_>
        <_>
          4 16 2 2 2.</_></rects>
      <tilted>0</tilted></_>
    <_>
      <rects>
        <_>
          3 5 5 4 -1.</_>
        <_>
          3 7 5 2 2.</_></rects>
      <tilted>0</tilted></_>
    <_>
      <rects>
        <_>
          3 6 2 2 -1.</_>
        <_>
          3 6 1 1 2.</_>
        <_>
          4 7 1 1 2.</_></rects>
      <tilted>0</tilted></_>
    <_>
      <rects>
        <_>
          3 6 9 8 -1.</_>
        <_>
          6 6 3 8 3.</_></rects>
      <tilted>0</tilted></_>
    <_>
      <rects>
        <_>
          3 10 3 10 -1.</_>
        <_>
          4 10 1 10 3.</_></rects>
      <tilted>0</tilted></_>
    <_>
      <rects>
        <_>
          3 11 2 2 -1.</_>
        <_>
          3 12 2 1 2.</_></rects>
      <tilted>0</tilted></_>
    <_>
      <rects>
        <_>
          3 14 6 1 -1.</_>
        <_>
          6 14 3 1 2.</_></rects>
      <tilted>0</tilted></_>
    <_>
      <rects>
        <_>
          3 15 14 8 -1.</_>
        <_>
          3 15 7 4 2.</_>
        <_>
          10 19 7 4 2.</_></rects>
      <tilted>0</tilted></_>
    <_>
      <rects>
        <_>
          3 17 2 2 -1.</_>
        <_>
          3 17 1 1 2.</_>
        <_>
          4 18 1 1 2.</_></rects>
      <tilted>0</tilted></_>
    <_>
      <rects>
        <_>
          3 17 4 2 -1.</_>
        <_>
          3 17 2 1 2.</_>
        <_>
          5 18 2 1 2.</_></rects>
      <tilted>0</tilted></_>
    <_>
      <rects>
        <_>
          4 5 8 1 -1.</_>
        <_>
          8 5 4 1 2.</_></rects>
      <tilted>0</tilted></_>
    <_>
      <rects>
        <_>
          4 8 19 2 -1.</_>
        <_>
          4 9 19 1 2.</_></rects>
      <tilted>0</tilted></_>
    <_>
      <rects>
        <_>
          4 9 2 1 -1.</_>
        <_>
          5 9 1 1 2.</_></rects>
      <tilted>0</tilted></_>
    <_>
      <rects>
        <_>
          4 10 4 2 -1.</_>
        <_>
          6 10 2 2 2.</_></rects>
      <tilted>0</tilted></_>
    <_>
      <rects>
        <_>
          4 12 5 3 -1.</_>
        <_>
          4 13 5 1 3.</_></rects>
      <tilted>0</tilted></_>
    <_>
      <rects>
        <_>
          4 14 4 1 -1.</_>
        <_>
          6 14 2 1 2.</_></rects>
      <tilted>0</tilted></_>
    <_>
      <rects>
        <_>
          4 16 4 1 -1.</_>
        <_>
          6 16 2 1 2.</_></rects>
      <tilted>0</tilted></_>
    <_>
      <rects>
        <_>
          4 21 2 2 -1.</_>
        <_>
          4 21 1 1 2.</_>
        <_>
          5 22 1 1 2.</_></rects>
      <tilted>0</tilted></_>
    <_>
      <rects>
        <_>
          5 4 6 9 -1.</_>
        <_>
          7 4 2 9 3.</_></rects>
      <tilted>0</tilted></_>
    <_>
      <rects>
        <_>
          5 4 6 13 -1.</_>
        <_>
          7 4 2 13 3.</_></rects>
      <tilted>0</tilted></_>
    <_>
      <rects>
        <_>
          5 6 1 6 -1.</_>
        <_>
          5 9 1 3 2.</_></rects>
      <tilted>0</tilted></_>
    <_>
      <rects>
        <_>
          5 6 6 1 -1.</_>
        <_>
          8 6 3 1 2.</_></rects>
      <tilted>0</tilted></_>
    <_>
      <rects>
        <_>
          5 7 8 6 -1.</_>
        <_>
          5 7 4 3 2.</_>
        <_>
          9 10 4 3 2.</_></rects>
      <tilted>0</tilted></_>
    <_>
      <rects>
        <_>
          5 8 2 4 -1.</_>
        <_>
          5 10 2 2 2.</_></rects>
      <tilted>0</tilted></_>
    <_>
      <rects>
        <_>
          5 8 8 6 -1.</_>
        <_>
          5 10 8 2 3.</_></rects>
      <tilted>0</tilted></_>
    <_>
      <rects>
        <_>
          5 9 2 4 -1.</_>
        <_>
          5 11 2 2 2.</_></rects>
      <tilted>0</tilted></_>
    <_>
      <rects>
        <_>
          5 9 9 2 -1.</_>
        <_>
          8 9 3 2 3.</_></rects>
      <tilted>0</tilted></_>
    <_>
      <rects>
        <_>
          5 9 18 7 -1.</_>
        <_>
          14 9 9 7 2.</_></rects>
      <tilted>0</tilted></_>
    <_>
      <rects>
        <_>
          5 10 2 3 -1.</_>
        <_>
          6 10 1 3 2.</_></rects>
      <tilted>0</tilted></_>
    <_>
      <rects>
        <_>
          5 10 3 4 -1.</_>
        <_>
          5 12 3 2 2.</_></rects>
      <tilted>0</tilted></_>
    <_>
      <rects>
        <_>
          5 10 12 2 -1.</_>
        <_>
          9 10 4 2 3.</_></rects>
      <tilted>0</tilted></_>
    <_>
      <rects>
        <_>
          5 10 9 2 -1.</_>
        <_>
          5 11 9 1 2.</_></rects>
      <tilted>0</tilted></_>
    <_>
      <rects>
        <_>
          5 15 9 1 -1.</_>
        <_>
          8 15 3 1 3.</_></rects>
      <tilted>0</tilted></_>
    <_>
      <rects>
        <_>
          6 2 9 14 -1.</_>
        <_>
          9 2 3 14 3.</_></rects>
      <tilted>0</tilted></_>
    <_>
      <rects>
        <_>
          6 4 1 6 -1.</_>
        <_>
          6 6 1 2 3.</_></rects>
      <tilted>0</tilted></_>
    <_>
      <rects>
        <_>
          6 6 1 6 -1.</_>
        <_>
          6 8 1 2 3.</_></rects>
      <tilted>0</tilted></_>
    <_>
      <rects>
        <_>
          6 7 9 1 -1.</_>
        <_>
          9 7 3 1 3.</_></rects>
      <tilted>0</tilted></_>
    <_>
      <rects>
        <_>
          6 7 8 9 -1.</_>
        <_>
          6 10 8 3 3.</_></rects>
      <tilted>0</tilted></_>
    <_>
      <rects>
        <_>
          6 9 1 4 -1.</_>
        <_>
          6 11 1 2 2.</_></rects>
      <tilted>0</tilted></_>
    <_>
      <rects>
        <_>
          6 9 9 6 -1.</_>
        <_>
          6 11 9 2 3.</_></rects>
      <tilted>0</tilted></_>
    <_>
      <rects>
        <_>
          6 10 9 2 -1.</_>
        <_>
          9 10 3 2 3.</_></rects>
      <tilted>0</tilted></_>
    <_>
      <rects>
        <_>
          6 10 7 3 -1.</_>
        <_>
          6 11 7 1 3.</_></rects>
      <tilted>0</tilted></_>
    <_>
      <rects>
        <_>
          6 11 15 4 -1.</_>
        <_>
          6 13 15 2 2.</_></rects>
      <tilted>0</tilted></_>
    <_>
      <rects>
        <_>
          7 0 1 24 -1.</_>
        <_>
          7 8 1 8 3.</_></rects>
      <tilted>0</tilted></_>
    <_>
      <rects>
        <_>
          7 1 1 2 -1.</_>
        <_>
          7 2 1 1 2.</_></rects>
      <tilted>0</tilted></_>
    <_>
      <rects>
        <_>
          7 1 6 13 -1.</_>
        <_>
          9 1 2 13 3.</_></rects>
      <tilted>0</tilted></_>
    <_>
      <rects>
        <_>
          7 3 7 9 -1.</_>
        <_>
          7 6 7 3 3.</_></rects>
      <tilted>0</tilted></_>
    <_>
      <rects>
        <_>
          7 3 14 10 -1.</_>
        <_>
          7 3 7 5 2.</_>
        <_>
          14 8 7 5 2.</_></rects>
      <tilted>0</tilted></_>
    <_>
      <rects>
        <_>
          7 5 7 9 -1.</_>
        <_>
          7 8 7 3 3.</_></rects>
      <tilted>0</tilted></_>
    <_>
      <rects>
        <_>
          7 6 8 6 -1.</_>
        <_>
          7 8 8 2 3.</_></rects>
      <tilted>0</tilted></_>
    <_>
      <rects>
        <_>
          7 6 8 12 -1.</_>
        <_>
          7 12 8 6 2.</_></rects>
      <tilted>0</tilted></_>
    <_>
      <rects>
        <_>
          7 7 8 6 -1.</_>
        <_>
          7 9 8 2 3.</_></rects>
      <tilted>0</tilted></_>
    <_>
      <rects>
        <_>
          7 8 2 2 -1.</_>
        <_>
          7 8 1 1 2.</_>
        <_>
          8 9 1 1 2.</_></rects>
      <tilted>0</tilted></_>
    <_>
      <rects>
        <_>
          7 8 1 4 -1.</_>
        <_>
          7 10 1 2 2.</_></rects>
      <tilted>0</tilted></_>
    <_>
      <rects>
        <_>
          7 8 4 7 -1.</_>
        <_>
          9 8 2 7 2.</_></rects>
      <tilted>0</tilted></_>
    <_>
      <rects>
        <_>
          7 8 6 7 -1.</_>
        <_>
          9 8 2 7 3.</_></rects>
      <tilted>0</tilted></_>
    <_>
      <rects>
        <_>
          7 8 6 4 -1.</_>
        <_>
          7 8 3 2 2.</_>
        <_>
          10 10 3 2 2.</_></rects>
      <tilted>0</tilted></_>
    <_>
      <rects>
        <_>
          7 8 9 7 -1.</_>
        <_>
          10 8 3 7 3.</_></rects>
      <tilted>0</tilted></_>
    <_>
      <rects>
        <_>
          7 8 7 6 -1.</_>
        <_>
          7 10 7 2 3.</_></rects>
      <tilted>0</tilted></_>
    <_>
      <rects>
        <_>
          7 8 11 6 -1.</_>
        <_>
          7 10 11 2 3.</_></rects>
      <tilted>0</tilted></_>
    <_>
      <rects>
        <_>
          7 9 7 8 -1.</_>
        <_>
          7 13 7 4 2.</_></rects>
      <tilted>0</tilted></_>
    <_>
      <rects>
        <_>
          7 9 10 6 -1.</_>
        <_>
          7 11 10 2 3.</_></rects>
      <tilted>0</tilted></_>
    <_>
      <rects>
        <_>
          7 10 1 4 -1.</_>
        <_>
          7 12 1 2 2.</_></rects>
      <tilted>0</tilted></_>
    <_>
      <rects>
        <_>
          7 10 10 6 -1.</_>
        <_>
          7 12 10 2 3.</_></rects>
      <tilted>0</tilted></_>
    <_>
      <rects>
        <_>
          7 11 1 6 -1.</_>
        <_>
          7 14 1 3 2.</_></rects>
      <tilted>0</tilted></_>
    <_>
      <rects>
        <_>
          7 16 2 2 -1.</_>
        <_>
          7 16 1 1 2.</_>
        <_>
          8 17 1 1 2.</_></rects>
      <tilted>0</tilted></_>
    <_>
      <rects>
        <_>
          8 0 5 6 -1.</_>
        <_>
          8 3 5 3 2.</_></rects>
      <tilted>0</tilted></_>
    <_>
      <rects>
        <_>
          8 1 1 4 -1.</_>
        <_>
          8 3 1 2 2.</_></rects>
      <tilted>0</tilted></_>
    <_>
      <rects>
        <_>
          8 2 2 2 -1.</_>
        <_>
          8 2 1 1 2.</_>
        <_>
          9 3 1 1 2.</_></rects>
      <tilted>0</tilted></_>
    <_>
      <rects>
        <_>
          8 3 6 12 -1.</_>
        <_>
          10 3 2 12 3.</_></rects>
      <tilted>0</tilted></_>
    <_>
      <rects>
        <_>
          8 4 6 1 -1.</_>
        <_>
          11 4 3 1 2.</_></rects>
      <tilted>0</tilted></_>
    <_>
      <rects>
        <_>
          8 4 6 10 -1.</_>
        <_>
          8 9 6 5 2.</_></rects>
      <tilted>0</tilted></_>
    <_>
      <rects>
        <_>
          8 5 6 9 -1.</_>
        <_>
          10 5 2 9 3.</_></rects>
      <tilted>0</tilted></_>
    <_>
      <rects>
        <_>
          8 6 14 10 -1.</_>
        <_>
          8 6 7 5 2.</_>
        <_>
          15 11 7 5 2.</_></rects>
      <tilted>0</tilted></_>
    <_>
      <rects>
        <_>
          8 6 11 14 -1.</_>
        <_>
          8 13 11 7 2.</_></rects>
      <tilted>0</tilted></_>
    <_>
      <rects>
        <_>
          8 7 6 6 -1.</_>
        <_>
          8 9 6 2 3.</_></rects>
      <tilted>0</tilted></_>
    <_>
      <rects>
        <_>
          8 7 7 9 -1.</_>
        <_>
          8 10 7 3 3.</_></rects>
      <tilted>0</tilted></_>
    <_>
      <rects>
        <_>
          8 8 4 5 -1.</_>
        <_>
          10 8 2 5 2.</_></rects>
      <tilted>0</tilted></_>
    <_>
      <rects>
        <_>
          8 8 6 7 -1.</_>
        <_>
          10 8 2 7 3.</_></rects>
      <tilted>0</tilted></_>
    <_>
      <rects>
        <_>
          8 8 6 9 -1.</_>
        <_>
          10 8 2 9 3.</_></rects>
      <tilted>0</tilted></_>
    <_>
      <rects>
        <_>
          8 8 6 6 -1.</_>
        <_>
          8 10 6 2 3.</_></rects>
      <tilted>0</tilted></_>
    <_>
      <rects>
        <_>
          8 8 12 6 -1.</_>
        <_>
          8 10 12 2 3.</_></rects>
      <tilted>0</tilted></_>
    <_>
      <rects>
        <_>
          8 9 9 13 -1.</_>
        <_>
          11 9 3 13 3.</_></rects>
      <tilted>0</tilted></_>
    <_>
      <rects>
        <_>
          8 9 8 4 -1.</_>
        <_>
          8 9 4 2 2.</_>
        <_>
          12 11 4 2 2.</_></rects>
      <tilted>0</tilted></_>
    <_>
      <rects>
        <_>
          8 9 5 9 -1.</_>
        <_>
          8 12 5 3 3.</_></rects>
      <tilted>0</tilted></_>
    <_>
      <rects>
        <_>
          8 9 7 9 -1.</_>
        <_>
          8 12 7 3 3.</_></rects>
      <tilted>0</tilted></_>
    <_>
      <rects>
        <_>
          8 10 6 6 -1.</_>
        <_>
          8 10 3 3 2.</_>
        <_>
          11 13 3 3 2.</_></rects>
      <tilted>0</tilted></_>
    <_>
      <rects>
        <_>
          8 10 5 2 -1.</_>
        <_>
          8 11 5 1 2.</_></rects>
      <tilted>0</tilted></_>
    <_>
      <rects>
        <_>
          8 10 7 6 -1.</_>
        <_>
          8 12 7 2 3.</_></rects>
      <tilted>0</tilted></_>
    <_>
      <rects>
        <_>
          8 12 1 4 -1.</_>
        <_>
          8 14 1 2 2.</_></rects>
      <tilted>0</tilted></_>
    <_>
      <rects>
        <_>
          8 15 6 1 -1.</_>
        <_>
          11 15 3 1 2.</_></rects>
      <tilted>0</tilted></_>
    <_>
      <rects>
        <_>
          9 4 3 16 -1.</_>
        <_>
          10 4 1 16 3.</_></rects>
      <tilted>0</tilted></_>
    <_>
      <rects>
        <_>
          9 4 8 13 -1.</_>
        <_>
          13 4 4 13 2.</_></rects>
      <tilted>0</tilted></_>
    <_>
      <rects>
        <_>
          9 6 7 6 -1.</_>
        <_>
          9 8 7 2 3.</_></rects>
      <tilted>0</tilted></_>
    <_>
      <rects>
        <_>
          9 7 6 8 -1.</_>
        <_>
          11 7 2 8 3.</_></rects>
      <tilted>0</tilted></_>
    <_>
      <rects>
        <_>
          9 8 6 10 -1.</_>
        <_>
          11 8 2 10 3.</_></rects>
      <tilted>0</tilted></_>
    <_>
      <rects>
        <_>
          9 9 10 2 -1.</_>
        <_>
          9 9 5 1 2.</_>
        <_>
          14 10 5 1 2.</_></rects>
      <tilted>0</tilted></_>
    <_>
      <rects>
        <_>
          9 10 6 2 -1.</_>
        <_>
          9 10 3 1 2.</_>
        <_>
          12 11 3 1 2.</_></rects>
      <tilted>0</tilted></_>
    <_>
      <rects>
        <_>
          9 11 9 9 -1.</_>
        <_>
          9 14 9 3 3.</_></rects>
      <tilted>0</tilted></_>
    <_>
      <rects>
        <_>
          9 14 2 8 -1.</_>
        <_>
          9 18 2 4 2.</_></rects>
      <tilted>0</tilted></_>
    <_>
      <rects>
        <_>
          9 15 8 6 -1.</_>
        <_>
          9 18 8 3 2.</_></rects>
      <tilted>0</tilted></_>
    <_>
      <rects>
        <_>
          9 18 3 2 -1.</_>
        <_>
          9 19 3 1 2.</_></rects>
      <tilted>0</tilted></_>
    <_>
      <rects>
        <_>
          10 2 10 2 -1.</_>
        <_>
          15 2 5 2 2.</_></rects>
      <tilted>0</tilted></_>
    <_>
      <rects>
        <_>
          10 5 2 6 -1.</_>
        <_>
          10 5 1 3 2.</_>
        <_>
          11 8 1 3 2.</_></rects>
      <tilted>0</tilted></_>
    <_>
      <rects>
        <_>
          10 5 4 1 -1.</_>
        <_>
          12 5 2 1 2.</_></rects>
      <tilted>0</tilted></_>
    <_>
      <rects>
        <_>
          10 5 8 2 -1.</_>
        <_>
          14 5 4 2 2.</_></rects>
      <tilted>0</tilted></_>
    <_>
      <rects>
        <_>
          10 7 2 15 -1.</_>
        <_>
          11 7 1 15 2.</_></rects>
      <tilted>0</tilted></_>
    <_>
      <rects>
        <_>
          10 7 2 9 -1.</_>
        <_>
          10 10 2 3 3.</_></rects>
      <tilted>0</tilted></_>
    <_>
      <rects>
        <_>
          10 7 9 8 -1.</_>
        <_>
          13 7 3 8 3.</_></rects>
      <tilted>0</tilted></_>
    <_>
      <rects>
        <_>
          10 8 4 7 -1.</_>
        <_>
          12 8 2 7 2.</_></rects>
      <tilted>0</tilted></_>
    <_>
      <rects>
        <_>
          10 9 2 2 -1.</_>
        <_>
          10 9 1 1 2.</_>
        <_>
          11 10 1 1 2.</_></rects>
      <tilted>0</tilted></_>
    <_>
      <rects>
        <_>
          10 14 1 6 -1.</_>
        <_>
          10 17 1 3 2.</_></rects>
      <tilted>0</tilted></_>
    <_>
      <rects>
        <_>
          10 14 4 1 -1.</_>
        <_>
          12 14 2 1 2.</_></rects>
      <tilted>0</tilted></_>
    <_>
      <rects>
        <_>
          10 17 6 1 -1.</_>
        <_>
          13 17 3 1 2.</_></rects>
      <tilted>0</tilted></_>
    <_>
      <rects>
        <_>
          10 19 4 3 -1.</_>
        <_>
          10 20 4 1 3.</_></rects>
      <tilted>0</tilted></_>
    <_>
      <rects>
        <_>
          11 3 3 4 -1.</_>
        <_>
          12 3 1 4 3.</_></rects>
      <tilted>0</tilted></_>
    <_>
      <rects>
        <_>
          11 3 4 2 -1.</_>
        <_>
          13 3 2 2 2.</_></rects>
      <tilted>0</tilted></_>
    <_>
      <rects>
        <_>
          11 5 3 11 -1.</_>
        <_>
          12 5 1 11 3.</_></rects>
      <tilted>0</tilted></_>
    <_>
      <rects>
        <_>
          11 8 2 16 -1.</_>
        <_>
          11 8 1 8 2.</_>
        <_>
          12 16 1 8 2.</_></rects>
      <tilted>0</tilted></_>
    <_>
      <rects>
        <_>
          11 8 2 13 -1.</_>
        <_>
          12 8 1 13 2.</_></rects>
      <tilted>0</tilted></_>
    <_>
      <rects>
        <_>
          11 8 6 7 -1.</_>
        <_>
          13 8 2 7 3.</_></rects>
      <tilted>0</tilted></_>
    <_>
      <rects>
        <_>
          11 8 6 8 -1.</_>
        <_>
          13 8 2 8 3.</_></rects>
      <tilted>0</tilted></_>
    <_>
      <rects>
        <_>
          11 8 6 12 -1.</_>
        <_>
          11 8 3 6 2.</_>
        <_>
          14 14 3 6 2.</_></rects>
      <tilted>0</tilted></_>
    <_>
      <rects>
        <_>
          11 10 2 2 -1.</_>
        <_>
          11 10 1 1 2.</_>
        <_>
          12 11 1 1 2.</_></rects>
      <tilted>0</tilted></_>
    <_>
      <rects>
        <_>
          11 15 4 3 -1.</_>
        <_>
          13 15 2 3 2.</_></rects>
      <tilted>0</tilted></_>
    <_>
      <rects>
        <_>
          11 15 2 6 -1.</_>
        <_>
          11 18 2 3 2.</_></rects>
      <tilted>0</tilted></_>
    <_>
      <rects>
        <_>
          11 18 4 6 -1.</_>
        <_>
          11 21 4 3 2.</_></rects>
      <tilted>0</tilted></_>
    <_>
      <rects>
        <_>
          12 0 4 2 -1.</_>
        <_>
          12 0 2 1 2.</_>
        <_>
          14 1 2 1 2.</_></rects>
      <tilted>0</tilted></_>
    <_>
      <rects>
        <_>
          12 3 2 4 -1.</_>
        <_>
          12 5 2 2 2.</_></rects>
      <tilted>0</tilted></_>
    <_>
      <rects>
        <_>
          12 3 3 6 -1.</_>
        <_>
          12 6 3 3 2.</_></rects>
      <tilted>0</tilted></_>
    <_>
      <rects>
        <_>
          12 5 6 4 -1.</_>
        <_>
          12 7 6 2 2.</_></rects>
      <tilted>0</tilted></_>
    <_>
      <rects>
        <_>
          12 20 1 2 -1.</_>
        <_>
          12 21 1 1 2.</_></rects>
      <tilted>0</tilted></_>
    <_>
      <rects>
        <_>
          12 20 1 4 -1.</_>
        <_>
          12 22 1 2 2.</_></rects>
      <tilted>0</tilted></_>
    <_>
      <rects>
        <_>
          13 12 3 4 -1.</_>
        <_>
          13 14 3 2 2.</_></rects>
      <tilted>0</tilted></_>
    <_>
      <rects>
        <_>
          13 20 1 2 -1.</_>
        <_>
          13 21 1 1 2.</_></rects>
      <tilted>0</tilted></_>
    <_>
      <rects>
        <_>
          14 0 6 2 -1.</_>
        <_>
          14 0 3 1 2.</_>
        <_>
          17 1 3 1 2.</_></rects>
      <tilted>0</tilted></_>
    <_>
      <rects>
        <_>
          14 1 10 22 -1.</_>
        <_>
          19 1 5 22 2.</_></rects>
      <tilted>0</tilted></_>
    <_>
      <rects>
        <_>
          14 7 5 4 -1.</_>
        <_>
          14 9 5 2 2.</_></rects>
      <tilted>0</tilted></_>
    <_>
      <rects>
        <_>
          14 8 1 9 -1.</_>
        <_>
          14 11 1 3 3.</_></rects>
      <tilted>0</tilted></_>
    <_>
      <rects>
        <_>
          14 9 2 2 -1.</_>
        <_>
          14 9 1 1 2.</_>
        <_>
          15 10 1 1 2.</_></rects>
      <tilted>0</tilted></_>
    <_>
      <rects>
        <_>
          14 9 8 7 -1.</_>
        <_>
          18 9 4 7 2.</_></rects>
      <tilted>0</tilted></_>
    <_>
      <rects>
        <_>
          14 14 4 1 -1.</_>
        <_>
          16 14 2 1 2.</_></rects>
      <tilted>0</tilted></_>
    <_>
      <rects>
        <_>
          15 1 3 7 -1.</_>
        <_>
          16 1 1 7 3.</_></rects>
      <tilted>0</tilted></_>
    <_>
      <rects>
        <_>
          15 6 1 4 -1.</_>
        <_>
          15 8 1 2 2.</_></rects>
      <tilted>0</tilted></_>
    <_>
      <rects>
        <_>
          15 7 2 4 -1.</_>
        <_>
          15 9 2 2 2.</_></rects>
      <tilted>0</tilted></_>
    <_>
      <rects>
        <_>
          15 7 7 3 -1.</_>
        <_>
          15 8 7 1 3.</_></rects>
      <tilted>0</tilted></_>
    <_>
      <rects>
        <_>
          15 10 4 1 -1.</_>
        <_>
          17 10 2 1 2.</_></rects>
      <tilted>0</tilted></_>
    <_>
      <rects>
        <_>
          15 11 2 4 -1.</_>
        <_>
          15 13 2 2 2.</_></rects>
      <tilted>0</tilted></_>
    <_>
      <rects>
        <_>
          15 11 2 6 -1.</_>
        <_>
          15 13 2 2 3.</_></rects>
      <tilted>0</tilted></_>
    <_>
      <rects>
        <_>
          15 13 4 2 -1.</_>
        <_>
          17 13 2 2 2.</_></rects>
      <tilted>0</tilted></_>
    <_>
      <rects>
        <_>
          15 17 2 2 -1.</_>
        <_>
          15 17 1 1 2.</_>
        <_>
          16 18 1 1 2.</_></rects>
      <tilted>0</tilted></_>
    <_>
      <rects>
        <_>
          16 4 1 6 -1.</_>
        <_>
          16 7 1 3 2.</_></rects>
      <tilted>0</tilted></_>
    <_>
      <rects>
        <_>
          16 10 2 6 -1.</_>
        <_>
          16 13 2 3 2.</_></rects>
      <tilted>0</tilted></_>
    <_>
      <rects>
        <_>
          16 11 1 4 -1.</_>
        <_>
          16 13 1 2 2.</_></rects>
      <tilted>0</tilted></_>
    <_>
      <rects>
        <_>
          16 15 1 4 -1.</_>
        <_>
          16 17 1 2 2.</_></rects>
      <tilted>0</tilted></_>
    <_>
      <rects>
        <_>
          17 8 2 4 -1.</_>
        <_>
          17 10 2 2 2.</_></rects>
      <tilted>0</tilted></_>
    <_>
      <rects>
        <_>
          18 18 3 3 -1.</_>
        <_>
          19 18 1 3 3.</_></rects>
      <tilted>0</tilted></_>
    <_>
      <rects>
        <_>
          19 7 3 2 -1.</_>
        <_>
          20 7 1 2 3.</_></rects>
      <tilted>0</tilted></_>
    <_>
      <rects>
        <_>
          19 15 3 2 -1.</_>
        <_>
          19 16 3 1 2.</_></rects>
      <tilted>0</tilted></_>
    <_>
      <rects>
        <_>
          19 19 4 3 -1.</_>
        <_>
          19 20 4 1 3.</_></rects>
      <tilted>0</tilted></_>
    <_>
      <rects>
        <_>
          20 7 2 9 -1.</_>
        <_>
          21 7 1 9 2.</_></rects>
      <tilted>0</tilted></_>
    <_>
      <rects>
        <_>
          20 8 2 12 -1.</_>
        <_>
          20 12 2 4 3.</_></rects>
      <tilted>0</tilted></_>
    <_>
      <rects>
        <_>
          20 14 2 2 -1.</_>
        <_>
          20 14 1 1 2.</_>
        <_>
          21 15 1 1 2.</_></rects>
      <tilted>0</tilted></_>
    <_>
      <rects>
        <_>
          21 2 3 8 -1.</_>
        <_>
          22 2 1 8 3.</_></rects>
      <tilted>0</tilted></_></features></cascade>
</opencv_storage>
